{"learner":{"attributes":{"best_iteration":"99","best_ntree_limit":"100","scikit_learn":"{\"use_label_encoder\": false, \"n_estimators\": 100, \"objective\": \"binary:logistic\", \"max_depth\": null, \"max_leaves\": null, \"max_bin\": null, \"grow_policy\": null, \"learning_rate\": null, \"verbosity\": null, \"booster\": null, \"tree_method\": null, \"gamma\": null, \"min_child_weight\": null, \"max_delta_step\": null, \"subsample\": null, \"sampling_method\": null, \"colsample_bytree\": null, \"colsample_bylevel\": null, \"colsample_bynode\": null, \"reg_alpha\": null, \"reg_lambda\": null, \"scale_pos_weight\": null, \"base_score\": null, \"missing\": NaN, \"num_parallel_tree\": null, \"random_state\": null, \"n_jobs\": null, \"monotone_constraints\": null, \"interaction_constraints\": null, \"importance_type\": null, \"gpu_id\": null, \"validate_parameters\": null, \"predictor\": null, \"enable_categorical\": false, \"max_cat_to_onehot\": null, \"eval_metric\": null, \"early_stopping_rounds\": null, \"callbacks\": null, \"classes_\": [0, 1], \"n_classes_\": 2, \"_estimator_type\": \"classifier\"}"},"feature_names":["age","default","balance","housing","loan","day","duration","job_blue-collar","job_entrepreneur","job_housemaid","job_management","job_retired","job_self-employed","job_services","job_student","job_technician","job_unemployed","job_unknown","marital_married","marital_single","education_secondary","education_tertiary","education_unknown","contact_telephone","contact_unknown","month_aug","month_dec","month_feb","month_jan","month_jul","month_jun","month_mar","month_may","month_nov","month_oct","month_sep","poutcome_other","poutcome_success","poutcome_unknown","campaign_iqr","previous_iqr"],"feature_types":["int","int","int","int","int","int","int","int","int","int","int","int","int","int","int","int","int","int","int","int","int","int","int","int","int","int","int","int","int","int","int","int","int","int","int","int","int","int","int","float","float"],"gradient_booster":{"model":{"gbtree_model_param":{"num_parallel_tree":"1","num_trees":"100","size_leaf_vector":"0"},"tree_info":[0,0,0,0,0,0,0,0,0,0,0,0,0,0,0,0,0,0,0,0,0,0,0,0,0,0,0,0,0,0,0,0,0,0,0,0,0,0,0,0,0,0,0,0,0,0,0,0,0,0,0,0,0,0,0,0,0,0,0,0,0,0,0,0,0,0,0,0,0,0,0,0,0,0,0,0,0,0,0,0,0,0,0,0,0,0,0,0,0,0,0,0,0,0,0,0,0,0,0,0],"trees":[{"base_weights":[-1.5355524E0,-1.6956035E0,-2.679803E-1,-1.7669541E0,4.5173746E-1,-5.769231E-1,3.4705883E-1,-1.7919447E0,-6.2704307E-1,-1.0434783E0,8.740741E-1,-6.645987E-1,1.1937984E0,4.8562935E-1,-5.0704226E-2,-1.8060815E0,-1.3740458E-1,-1.2178771E0,4.3887146E-2,-1.1641791E0,-1.8181819E-1,1.0439367E0,4.6530613E-1,-4.7382623E-1,-1.1452055E0,1.5324675E0,6.4285713E-1,6.8480724E-1,3.2867134E-1,-2.631579E-1,3.2061067E-1,-1.9150659E0,-1.6128085E0,-8.8E-1,5.248227E-1,-1.6585366E0,-8.2828283E-1,-2.583732E-1,5.964912E-1,-1.2648649E0,-0E0,3.6363637E-1,-9.3333334E-1,6.378378E-1,1.2268041E0,7.7248675E-1,-5.3333336E-1,-7.338129E-1,-1.8552037E-1,-1.3642384E0,-7.758007E-1,1.6164384E0,-0E0,9.189189E-1,8.695652E-2,7.676768E-1,-4.0816326E-2,-2.1818182E-1,4.549356E-1,-3.773585E-1,1E0,3.9370078E-1,-1E0,-1.9240015E0,-1.0798122E0,-1.459619E0,-1.9420122E0,-1.6E0,-6.262626E-1,7.878788E-1,-8.695652E-2,-1.7464789E0,-9.230769E-1,1E-1,-1.037037E0,-6.1349694E-2,-8.8E-1,8.453608E-1,-6.666667E-1,-8E-1,-1.4957983E0,5E-1,-1E0,8.5714287E-1,-3.3333334E-1,-2.2222222E-1,-1.2E0,7.848101E-1,-1.9354838E-1,1.2580645E0,4E-1,8.538012E-1,-0E0,-1E0,1.4285715E-1,-8.742515E-1,-4.2071196E-1,4.587156E-2,-4.0707964E-1,-1.3811659E0,-1.8181819E-1,-4.144144E-1,-9.885057E-1,1.0967742E0,-0E0,5.882353E-1,-8E-1,1.1785715E0,5.972222E-1,-3.5897437E-1,8.5714287E-1,-4.2696628E-1,5.6E-1,-5.1282052E-2,5.510204E-1,-4.585366E-1,1.2727273E0,-0E0,1.25E0,2.6548672E-1,1.1111112E0],"categories":[],"categories_nodes":[],"categories_segments":[],"categories_sizes":[],"default_left":[1,1,1,1,1,1,1,1,1,1,1,1,1,1,1,1,1,1,1,1,1,1,1,1,1,1,1,1,1,1,1,1,1,1,1,1,1,1,1,1,1,1,1,1,1,1,1,1,1,1,1,0,0,1,1,1,1,1,1,1,1,1,0,0,0,0,0,0,0,0,0,0,0,0,0,0,0,0,0,0,0,0,0,0,0,0,0,0,0,0,0,0,0,0,0,0,0,0,0,0,0,0,0,0,0,0,0,0,0,0,0,0,0,0,0,0,0,0,0,0,0],"id":0,"left_children":[1,3,5,7,9,11,13,15,17,19,21,23,25,27,29,31,33,35,37,39,41,43,45,47,49,51,53,55,57,59,61,63,65,67,69,71,73,75,77,79,81,83,85,87,89,91,93,95,97,99,101,-1,-1,103,105,107,109,111,113,115,117,119,-1,-1,-1,-1,-1,-1,-1,-1,-1,-1,-1,-1,-1,-1,-1,-1,-1,-1,-1,-1,-1,-1,-1,-1,-1,-1,-1,-1,-1,-1,-1,-1,-1,-1,-1,-1,-1,-1,-1,-1,-1,-1,-1,-1,-1,-1,-1,-1,-1,-1,-1,-1,-1,-1,-1,-1,-1,-1,-1],"loss_changes":[1.8341562E3,1.2309551E3,1.930623E2,2.2024805E2,1.644665E2,1.0574179E2,1.876482E1,1.7760352E2,6.674916E1,5.768509E0,1.3574722E1,5.8572266E1,5.0322647E0,7.6609116E0,7.085612E0,1.5571484E2,3.267258E1,1.3991486E1,1.3474784E1,5.8901215E0,3.7212121E0,9.781311E0,1.9201208E1,3.458709E1,1.3708038E1,2.4771423E0,2.0685754E0,6.6608925E0,9.973126E0,8.599801E0,3.5548477E0,3.386328E1,1.3457617E2,4.7070694E0,5.741373E0,1.0396652E0,9.695961E0,6.345337E0,9.52288E0,3.768425E0,3E0,2.177489E0,4.4444442E-1,5.8032207E0,2.0038605E0,2.9679756E0,4.8761907E0,1.0328247E1,1.1348688E1,2.015625E0,4.9903755E0,0E0,0E0,1.5117693E0,3.0271099E0,6.2299767E0,3.8074307E0,4.7070894E0,5.6947975E0,7.6829863E0,1.25E0,2.6254458E0,0E0,0E0,0E0,0E0,0E0,0E0,0E0,0E0,0E0,0E0,0E0,0E0,0E0,0E0,0E0,0E0,0E0,0E0,0E0,0E0,0E0,0E0,0E0,0E0,0E0,0E0,0E0,0E0,0E0,0E0,0E0,0E0,0E0,0E0,0E0,0E0,0E0,0E0,0E0,0E0,0E0,0E0,0E0,0E0,0E0,0E0,0E0,0E0,0E0,0E0,0E0,0E0,0E0,0E0,0E0,0E0,0E0,0E0,0E0],"parents":[2147483647,0,0,1,1,2,2,3,3,4,4,5,5,6,6,7,7,8,8,9,9,10,10,11,11,12,12,13,13,14,14,15,15,16,16,17,17,18,18,19,19,20,20,21,21,22,22,23,23,24,24,25,25,26,26,27,27,28,28,29,29,30,30,31,31,32,32,33,33,34,34,35,35,36,36,37,37,38,38,39,39,40,40,41,41,42,42,43,43,44,44,45,45,46,46,47,47,48,48,49,49,50,50,53,53,54,54,55,55,56,56,57,57,58,58,59,59,60,60,61,61],"right_children":[2,4,6,8,10,12,14,16,18,20,22,24,26,28,30,32,34,36,38,40,42,44,46,48,50,52,54,56,58,60,62,64,66,68,70,72,74,76,78,80,82,84,86,88,90,92,94,96,98,100,102,-1,-1,104,106,108,110,112,114,116,118,120,-1,-1,-1,-1,-1,-1,-1,-1,-1,-1,-1,-1,-1,-1,-1,-1,-1,-1,-1,-1,-1,-1,-1,-1,-1,-1,-1,-1,-1,-1,-1,-1,-1,-1,-1,-1,-1,-1,-1,-1,-1,-1,-1,-1,-1,-1,-1,-1,-1,-1,-1,-1,-1,-1,-1,-1,-1,-1,-1],"split_conditions":[5.105E2,5E-1,8.355E2,6.05E1,1.395E2,5E-1,5E-1,5E-1,2.055E2,1.325E2,5E-1,5E-1,5E-1,5E-1,5E-1,2.035E2,1.515E2,1.26E2,3.625E2,5E-1,5E-1,2.125E2,5E-1,6.335E2,6.685E2,7.7E1,2.5E0,5E-1,8E0,2.95E1,1.1645E4,5E-1,5E-1,7.9E1,5E-1,5E-1,1.385E2,5E-1,5E-1,1.05E1,5E-1,2.243E3,1.5E0,2.65E1,5E-1,5E-1,3.85E1,5E-1,5E-1,5E-1,5E-1,4.8493153E-1,-0E0,5E-1,5E-1,2.09E2,1.4585E3,5E-1,8.905E2,5.85E1,8.77E2,5E-1,-3E-1,-5.772005E-1,-3.2394367E-1,-4.3788573E-1,-5.826037E-1,-4.8000002E-1,-1.8787879E-1,2.3636365E-1,-2.6086958E-2,-5.239437E-1,-2.769231E-1,3.0000001E-2,-3.1111112E-1,-1.8404908E-2,-2.64E-1,2.5360826E-1,-2.0000002E-1,-2.4000001E-1,-4.4873953E-1,1.5E-1,-3E-1,2.5714287E-1,-1.0000001E-1,-6.666667E-2,-3.6E-1,2.3544304E-1,-5.8064517E-2,3.7741938E-1,1.20000005E-1,2.5614038E-1,-0E0,-3E-1,4.2857148E-2,-2.6227546E-1,-1.262136E-1,1.3761468E-2,-1.221239E-1,-4.1434976E-1,-5.454546E-2,-1.2432433E-1,-2.9655173E-1,3.2903227E-1,-0E0,1.7647061E-1,-2.4000001E-1,3.5357144E-1,1.7916667E-1,-1.07692316E-1,2.5714287E-1,-1.2808989E-1,1.6800001E-1,-1.5384616E-2,1.6530612E-1,-1.3756098E-1,3.818182E-1,-0E0,3.75E-1,7.964602E-2,3.3333337E-1],"split_indices":[6,37,6,0,6,37,24,31,6,6,3,24,3,18,30,6,6,6,6,35,20,6,32,6,6,0,40,33,2,5,2,34,24,6,40,27,6,40,25,5,19,2,39,5,28,27,0,19,3,1,18,0,0,7,32,2,6,7,6,0,6,4,0,0,0,0,0,0,0,0,0,0,0,0,0,0,0,0,0,0,0,0,0,0,0,0,0,0,0,0,0,0,0,0,0,0,0,0,0,0,0,0,0,0,0,0,0,0,0,0,0,0,0,0,0,0,0,0,0,0,0],"split_type":[0,0,0,0,0,0,0,0,0,0,0,0,0,0,0,0,0,0,0,0,0,0,0,0,0,0,0,0,0,0,0,0,0,0,0,0,0,0,0,0,0,0,0,0,0,0,0,0,0,0,0,0,0,0,0,0,0,0,0,0,0,0,0,0,0,0,0,0,0,0,0,0,0,0,0,0,0,0,0,0,0,0,0,0,0,0,0,0,0,0,0,0,0,0,0,0,0,0,0,0,0,0,0,0,0,0,0,0,0,0,0,0,0,0,0,0,0,0,0,0,0],"sum_hessian":[9.042E3,8.028E3,1.014E3,7.77E3,2.58E2,6.75E2,3.39E2,7.60275E3,1.6725E2,5.65E1,2.015E2,6.4375E2,3.125E1,2.5125E2,8.775E1,7.53825E3,6.45E1,8.85E1,7.875E1,4.925E1,7.25E0,1.4125E2,6.025E1,4.6225E2,1.815E2,1.825E1,1.3E1,1.0925E2,1.42E2,5.6E1,3.175E1,4.8145E3,2.72375E3,3.025E1,3.425E1,4E1,4.85E1,5.125E1,2.75E1,4.525E1,4E0,4.5E0,2.75E0,4.525E1,9.6E1,4.625E1,1.4E1,2.4225E2,2.2E2,1.1225E2,6.925E1,1.725E1,1E0,8.25E0,4.75E0,9.8E1,1.125E1,2.65E1,1.155E2,5.2E1,4E0,3.075E1,1E0,4.76225E3,5.225E1,1.8625E3,8.6125E2,6.5E0,2.375E1,2.375E1,1.05E1,3.45E1,5.5E0,9E0,3.95E1,3.975E1,1.15E1,2.325E1,4.25E0,1.65E1,2.875E1,3E0,1E0,2.5E0,2E0,1.25E0,1.5E0,3.85E1,6.75E0,9.2E1,4E0,4.175E1,4.5E0,8E0,6E0,1.66E2,7.625E1,1.08E2,1.12E2,1.105E2,1.75E0,2.675E1,4.25E1,6.75E0,1.5E0,3.25E0,1.5E0,2.7E1,7.1E1,8.75E0,2.5E0,2.125E1,5.25E0,1.85E1,9.7E1,5.025E1,1.75E0,1E0,3E0,2.725E1,3.5E0],"tree_param":{"num_deleted":"0","num_feature":"41","num_nodes":"121","size_leaf_vector":"0"}},{"base_weights":[-1.1577668E0,-1.306811E0,-2.861076E-1,-1.361156E0,2.8555128E-1,-5.0412446E-1,2.2002903E-1,-1.2103407E0,-1.477997E0,-7.777249E-1,6.038876E-1,-5.774848E-1,9.410755E-1,3.2831886E-1,-8.518539E-2,-1.4338224E0,-9.652958E-1,-1.4854777E0,-2.8908452E-1,-6.273129E-1,-1.4274259E0,6.87901E-1,5.0786253E-2,-4.2627466E-1,-9.735177E-1,1.1505979E0,6.010927E-1,2.8727707E-1,1.0091356E0,-3.9143628E-1,1.642617E-1,-1.4489292E0,-5.363179E-1,-2.7979445E-1,-1.0673342E0,-1.4909115E0,-1.8967228E-1,-1.1532196E0,3.962921E-1,-6.90021E-1,6.546353E-1,4.665789E-2,7.491214E-1,6.545857E-1,-5.0627494E-1,-4.5839092E-1,8.8053864E-1,-1.1528339E0,-6.1558986E-1,1.2435127E0,-9.574977E-2,1.3744433E0,3.7688962E-1,4.521934E-1,1.6052367E-1,1.1548718E-1,1.3921167E0,-1.0307767E0,-1.727367E-1,4.2308617E-1,-2.8611155E-2,-1.4622842E0,-8.400235E-1,-1.2459649E0,-2.816854E-1,4.750802E-1,-3.8406122E-1,-1.122155E0,1.1276219E-2,-1.4964528E0,-2.120852E-1,-8.8223606E-1,8.8083375E-1,-1.5212998E0,-1.9865234E-1,8.812925E-1,-5.3606576E-1,-7.524281E-1,-3.0515429E-2,4.103904E-1,-1.2878711E0,9.689259E-1,5.765125E-1,9.9126136E-1,-1.98719E-1,-7.244073E-1,6.473471E-1,-6.330874E-1,-2.0271282E-1,-2.1211793E-1,1.0661341E0,-9.191299E-1,-1.271091E0,-7.540571E-1,-2.045689E-1,1.2948256E0,1.8147889E-1,1.1526821E-1,1.1128806E0,4.900033E-1,-2.8417727E-1,-2.81093E-1,2.6948705E-1,1.1015221E0,-4.9287927E-1,1.5378084E0,1.6141368E-1,-3.6129007E-1,-1.3497344E0,-6.9273956E-2,-1.24131E0,-6.6372645E-1,5.133474E-1,1.0538031E0,-1.4299229E-1],"categories":[],"categories_nodes":[],"categories_segments":[],"categories_sizes":[],"default_left":[1,1,1,1,1,1,1,1,1,1,1,1,1,1,1,1,1,1,1,1,0,1,1,1,1,1,1,1,1,1,1,1,1,1,1,1,1,1,1,1,0,1,1,1,1,1,1,1,1,1,0,0,1,1,1,1,1,1,1,1,1,0,0,0,0,0,0,0,0,0,0,0,0,0,0,0,0,0,0,0,0,0,0,0,0,0,0,0,0,0,0,0,0,0,0,0,0,0,0,0,0,0,0,0,0,0,0,0,0,0,0,0,0,0,0],"id":1,"left_children":[1,3,5,7,9,11,13,15,17,19,21,23,25,27,29,31,33,35,37,39,-1,41,43,45,47,49,51,53,55,57,59,61,63,65,67,69,71,73,75,77,-1,79,81,83,85,87,89,91,93,95,-1,-1,97,99,101,103,105,107,109,111,113,-1,-1,-1,-1,-1,-1,-1,-1,-1,-1,-1,-1,-1,-1,-1,-1,-1,-1,-1,-1,-1,-1,-1,-1,-1,-1,-1,-1,-1,-1,-1,-1,-1,-1,-1,-1,-1,-1,-1,-1,-1,-1,-1,-1,-1,-1,-1,-1,-1,-1,-1,-1,-1,-1],"loss_changes":[1.1020908E3,6.274873E2,1.3698618E2,1.2169531E2,8.169804E1,9.249211E1,1.2393936E1,1.664419E2,3.4648438E1,4.550724E0,8.573219E0,4.9049164E1,2.3199806E0,7.432295E0,7.6100755E0,2.0926514E1,1.0216223E2,2.73125E1,1.5797886E1,4.2330303E0,0E0,6.2753143E0,8.911E0,2.5566399E1,1.3888855E1,3.0215302E0,2.640069E0,5.405245E0,5.080798E0,6.062938E0,2.764729E0,1.15686035E1,4.7240705E0,1.522733E1,7.538489E1,2.733789E1,1.3760134E1,3.8131762E0,7.3410425E0,1.8427792E0,0E0,7.8462243E0,5.0059586E0,3.8387694E0,3.949464E0,2.6037888E1,3.211915E0,2.988083E0,4.288557E0,1.0400124E0,0E0,0E0,2.8559077E0,3.2946262E0,7.280261E0,3.9531047E0,1.657795E0,1.8987083E0,3.723763E0,2.6566057E0,4.178447E0,0E0,0E0,0E0,0E0,0E0,0E0,0E0,0E0,0E0,0E0,0E0,0E0,0E0,0E0,0E0,0E0,0E0,0E0,0E0,0E0,0E0,0E0,0E0,0E0,0E0,0E0,0E0,0E0,0E0,0E0,0E0,0E0,0E0,0E0,0E0,0E0,0E0,0E0,0E0,0E0,0E0,0E0,0E0,0E0,0E0,0E0,0E0,0E0,0E0,0E0,0E0,0E0,0E0,0E0],"parents":[2147483647,0,0,1,1,2,2,3,3,4,4,5,5,6,6,7,7,8,8,9,9,10,10,11,11,12,12,13,13,14,14,15,15,16,16,17,17,18,18,19,19,21,21,22,22,23,23,24,24,25,25,26,26,27,27,28,28,29,29,30,30,31,31,32,32,33,33,34,34,35,35,36,36,37,37,38,38,39,39,41,41,42,42,43,43,44,44,45,45,46,46,47,47,48,48,49,49,52,52,53,53,54,54,55,55,56,56,57,57,58,58,59,59,60,60],"right_children":[2,4,6,8,10,12,14,16,18,20,22,24,26,28,30,32,34,36,38,40,-1,42,44,46,48,50,52,54,56,58,60,62,64,66,68,70,72,74,76,78,-1,80,82,84,86,88,90,92,94,96,-1,-1,98,100,102,104,106,108,110,112,114,-1,-1,-1,-1,-1,-1,-1,-1,-1,-1,-1,-1,-1,-1,-1,-1,-1,-1,-1,-1,-1,-1,-1,-1,-1,-1,-1,-1,-1,-1,-1,-1,-1,-1,-1,-1,-1,-1,-1,-1,-1,-1,-1,-1,-1,-1,-1,-1,-1,-1,-1,-1,-1,-1],"split_conditions":[4.515E2,5E-1,8.005E2,5E-1,1.395E2,5E-1,5E-1,1.575E2,5E-1,5E-1,5E-1,5E-1,5E-1,5E-1,1.0095E3,5E-1,5E-1,5E-1,1.325E2,5E-1,-4.2822778E-1,1.615E2,5E-1,5E-1,6.365E2,5E-1,4.86E2,5E-1,8E0,6.65E1,5E-1,5E-1,7.9E1,2.85E1,6.15E1,5E-1,1.81E2,2.25E1,1.5E0,5E-1,1.963906E-1,1.575E2,6.615E2,2.15E1,1.95E1,6.055E2,2.65E1,5E-1,2.15E1,7.6E1,-2.8724933E-2,4.12333E-1,4.75E1,1.8955E3,8E0,8.465E2,5E-1,-7.5E0,7.821E3,2.5E1,-6E0,-4.3868527E-1,-2.5200707E-1,-3.737895E-1,-8.4505625E-2,1.4252406E-1,-1.1521837E-1,-3.366465E-1,3.3828658E-3,-4.4893587E-1,-6.362557E-2,-2.6467082E-1,2.6425013E-1,-4.5638996E-1,-5.9595704E-2,2.6438776E-1,-1.6081974E-1,-2.2572844E-1,-9.154629E-3,1.2311713E-1,-3.8636136E-1,2.906778E-1,1.7295375E-1,2.9737842E-1,-5.96157E-2,-2.173222E-1,1.9420414E-1,-1.8992622E-1,-6.0813848E-2,-6.363538E-2,3.1984025E-1,-2.7573898E-1,-3.813273E-1,-2.2621714E-1,-6.137067E-2,3.8844767E-1,5.444367E-2,3.4580465E-2,3.3386418E-1,1.47001E-1,-8.525319E-2,-8.432791E-2,8.0846116E-2,3.3045664E-1,-1.4786379E-1,4.6134254E-1,4.8424106E-2,-1.0838702E-1,-4.0492034E-1,-2.0782188E-2,-3.72393E-1,-1.9911794E-1,1.5400422E-1,3.1614095E-1,-4.2897686E-2],"split_indices":[6,37,6,3,6,37,24,6,34,32,32,24,3,37,6,31,38,35,6,9,0,6,3,30,6,14,6,18,5,2,18,34,6,0,0,31,6,5,39,35,0,6,2,5,5,6,0,32,5,0,0,0,0,6,2,2,33,2,2,0,2,0,0,0,0,0,0,0,0,0,0,0,0,0,0,0,0,0,0,0,0,0,0,0,0,0,0,0,0,0,0,0,0,0,0,0,0,0,0,0,0,0,0,0,0,0,0,0,0,0,0,0,0,0,0],"split_type":[0,0,0,0,0,0,0,0,0,0,0,0,0,0,0,0,0,0,0,0,0,0,0,0,0,0,0,0,0,0,0,0,0,0,0,0,0,0,0,0,0,0,0,0,0,0,0,0,0,0,0,0,0,0,0,0,0,0,0,0,0,0,0,0,0,0,0,0,0,0,0,0,0,0,0,0,0,0,0,0,0,0,0,0,0,0,0,0,0,0,0,0,0,0,0,0,0,0,0,0,0,0,0,0,0,0,0,0,0,0,0,0,0,0,0],"sum_hessian":[8.485001E3,7.2455864E3,1.2394149E3,7.006606E3,2.3898024E2,8.662739E2,3.7314102E2,3.0635784E3,3.9430278E3,5.473076E1,1.8424948E2,8.249964E2,4.127753E1,2.7536575E2,9.777526E1,1.5997506E3,1.4638276E3,3.9181255E3,2.4902351E1,4.6038048E1,8.692711E0,1.5974178E2,2.4507706E1,5.985421E2,2.2645424E2,2.4063528E1,1.7214003E1,2.6105075E2,1.4315011E1,4.3634792E1,5.414047E1,1.572665E3,2.7085577E1,1.9014706E2,1.2736805E3,3.9016138E3,1.6511654E1,1.0712824E1,1.4189527E1,4.4331272E1,1.7067783E0,1.4075235E1,1.4566653E2,1.167648E1,1.2831225E1,5.8481885E2,1.372329E1,1.4939093E2,7.7063324E1,2.2396175E1,1.667353E0,2.7158363E0,1.4498166E1,1.1233126E2,1.487195E2,4.684872E0,9.630138E0,1.0175322E1,3.345947E1,2.260809E1,3.153238E1,1.5375409E3,3.512411E1,6.124298E0,2.0961279E1,2.2644941E1,1.6750212E2,1.2120378E3,6.1642666E1,3.884611E3,1.7002693E1,1.01323805E1,6.379273E0,7.303063E0,3.4097605E0,9.370095E0,4.819432E0,4.037025E1,3.9610214E0,1.1604778E1,2.470457E0,6.2044334E1,8.36222E1,8.256976E0,3.4195044E0,1.1103736E1,1.727489E0,3.4655386E2,2.3826498E2,1.9718009E0,1.175149E1,5.3142017E1,9.624891E1,5.7019615E1,2.0043707E1,2.1154871E1,1.2413044E0,1.1549354E1,2.9488122E0,1.0716339E2,5.16787E0,2.9119928E1,1.1959956E2,1.4782748E0,3.206597E0,8.387663E0,1.242476E0,3.9716399E0,6.2036815E0,3.1476627E1,1.9828411E0,1.2464539E0,2.1361635E1,2.2286909E0,2.9303688E1],"tree_param":{"num_deleted":"0","num_feature":"41","num_nodes":"115","size_leaf_vector":"0"}},{"base_weights":[-9.451341E-1,-1.1107498E0,-2.9088E-1,-1.1588475E0,1.9531325E-1,-5.15856E-1,3.437834E-2,-1.1731542E0,3.0142492E-2,-6.842831E-1,4.343261E-1,-3.4200028E-1,-1.022243E0,-1.3560659E-1,2.156617E-1,-1.1891592E0,-1.9309469E-1,-5.420605E-1,5.542811E-1,-5.4491484E-1,-1.2723137E0,5.582446E-1,1.3669248E-1,-4.109592E-1,5.9882045E-1,-1.1677583E0,-7.8613585E-1,-1.7691245E-2,-4.4900542E-1,1.8234263E-1,8.211671E-1,-1.065864E0,-1.284352E0,-1.4106108E0,1.6225238E-1,-1.1520835E0,-3.376866E-1,8.511302E-1,-2.0284109E-1,-2.0710744E-1,-7.646912E-1,3.007197E-1,7.343046E-1,-3.0057339E-2,7.604844E-1,-1.7867945E-1,-6.6181797E-1,1.6816415E-1,9.136262E-1,-4.2611966E-1,-1.1964223E0,-6.323803E-1,-1.026635E0,-1.1846211E-1,4.10106E-1,-9.132426E-1,-3.1115946E-1,2.551034E-1,-1.7005127E-2,1.1460892E0,2.842102E-1,-1.2707675E0,-8.845421E-1,-1.289307E0,-2.4326967E-1,-4.7277308E-1,9.487045E-1,-6.2496734E-1,2.493463E-1,1.0515612E0,2.2346757E-1,5.2913666E-1,-6.022306E-1,-3.9271325E-1,5.1019406E-1,-8.921959E-1,5.942807E-1,4.1834944E-1,-3.9172956E-1,7.817227E-1,-1.3688233E-1,1.7110854E-1,-1.1837411E0,-2.8579423E-1,1.0198572E0,-6.120937E-2,-8.6616164E-1,-8.0489796E-1,-3.364142E-1,-8.538748E-1,4.1005346E-1,1.0418236E0,3.414585E-1,-9.217216E-1,8.4298986E-1,-1.2082927E0,-3.8633853E-1,-2.6391247E-1,-8.2602865E-1,-2.635815E-2,-1.0936035E0,1.2617333E-1,-4.5429966E-1,2.5000662E-1,1.3817756E0,-1.0211685E0,3.8746336E-1,6.54331E-2,-4.8685393E-1,3.2505667E-1,-9.4869114E-2,-2.1332535E-1,2.9297847E-1,1.2328523E0,4.1368222E-1,7.8376406E-1,-9.73556E-1],"categories":[],"categories_nodes":[],"categories_segments":[],"categories_sizes":[],"default_left":[1,1,1,1,1,1,1,1,1,1,1,1,1,1,1,1,1,1,1,1,0,1,1,1,1,1,1,1,1,1,1,1,1,0,1,0,1,1,1,1,1,1,1,1,1,1,1,1,1,1,1,1,1,1,1,1,1,1,1,1,1,0,0,0,0,0,0,0,0,0,0,0,0,0,0,0,0,0,0,0,0,0,0,0,0,0,0,0,0,0,0,0,0,0,0,0,0,0,0,0,0,0,0,0,0,0,0,0,0,0,0,0,0,0,0,0,0],"id":2,"left_children":[1,3,5,7,9,11,13,15,17,19,21,23,25,27,29,31,33,35,37,39,-1,41,43,45,47,49,51,53,55,57,59,61,63,-1,65,-1,67,69,71,73,75,77,79,81,83,85,87,89,91,93,95,97,99,101,103,105,107,109,111,113,115,-1,-1,-1,-1,-1,-1,-1,-1,-1,-1,-1,-1,-1,-1,-1,-1,-1,-1,-1,-1,-1,-1,-1,-1,-1,-1,-1,-1,-1,-1,-1,-1,-1,-1,-1,-1,-1,-1,-1,-1,-1,-1,-1,-1,-1,-1,-1,-1,-1,-1,-1,-1,-1,-1,-1,-1],"loss_changes":[8.1078076E2,3.7545068E2,1.10766464E2,9.803662E1,4.5079792E1,7.841966E1,1.912727E1,8.9063965E1,2.1136465E1,3.0685387E0,6.123968E0,4.355526E1,6.9211884E0,1.18344555E1,5.9087105E0,6.436914E1,4.031931E1,3.814845E0,8.433141E0,2.7264385E0,0E0,5.145977E0,5.3008375E0,3.615757E1,6.0819817E0,2.4473267E0,2.6810951E0,1.0131491E1,5.3195915E0,4.151511E0,2.3570957E0,8.9759766E1,1.5966309E1,0E0,3.6719303E1,0E0,4.653903E0,3.1107101E0,3.5810018E0,2.4220135E0,4.544941E0,4.2167835E0,2.9826164E0,9.718007E0,3.2063107E0,2.6162567E1,1.3647354E1,5.454961E0,1.5767231E0,5.009668E0,8.157501E-1,3.8878498E0,2.2165298E0,1.5673505E1,6.6261477E0,3.1375275E0,4.599653E0,5.160448E0,4.772225E0,7.780838E-2,5.2409654E0,0E0,0E0,0E0,0E0,0E0,0E0,0E0,0E0,0E0,0E0,0E0,0E0,0E0,0E0,0E0,0E0,0E0,0E0,0E0,0E0,0E0,0E0,0E0,0E0,0E0,0E0,0E0,0E0,0E0,0E0,0E0,0E0,0E0,0E0,0E0,0E0,0E0,0E0,0E0,0E0,0E0,0E0,0E0,0E0,0E0,0E0,0E0,0E0,0E0,0E0,0E0,0E0,0E0,0E0,0E0,0E0],"parents":[2147483647,0,0,1,1,2,2,3,3,4,4,5,5,6,6,7,7,8,8,9,9,10,10,11,11,12,12,13,13,14,14,15,15,16,16,17,17,18,18,19,19,21,21,22,22,23,23,24,24,25,25,26,26,27,27,28,28,29,29,30,30,31,31,32,32,34,34,36,36,37,37,38,38,39,39,40,40,41,41,42,42,43,43,44,44,45,45,46,46,47,47,48,48,49,49,50,50,51,51,52,52,53,53,54,54,55,55,56,56,57,57,58,58,59,59,60,60],"right_children":[2,4,6,8,10,12,14,16,18,20,22,24,26,28,30,32,34,36,38,40,-1,42,44,46,48,50,52,54,56,58,60,62,64,-1,66,-1,68,70,72,74,76,78,80,82,84,86,88,90,92,94,96,98,100,102,104,106,108,110,112,114,116,-1,-1,-1,-1,-1,-1,-1,-1,-1,-1,-1,-1,-1,-1,-1,-1,-1,-1,-1,-1,-1,-1,-1,-1,-1,-1,-1,-1,-1,-1,-1,-1,-1,-1,-1,-1,-1,-1,-1,-1,-1,-1,-1,-1,-1,-1,-1,-1,-1,-1,-1,-1,-1,-1,-1,-1],"split_conditions":[3.895E2,5E-1,6.475E2,5E-1,1.325E2,5E-1,8.695E2,5E-1,1.515E2,5E-1,5E-1,5E-1,5.065E2,5E-1,2.95E1,5E-1,9.55E1,7.9E1,5E-1,1.15E1,-3.8169414E-1,2.125E2,2.05E1,5E-1,3.95E1,-3.03E2,4.35E1,5E-1,5.65E1,5E-1,5E-1,1.395E2,5E-1,-4.2318326E-1,2.05E1,-3.4562507E-1,4.65E1,2.45E1,7.5E0,3.5E0,5E-1,5E-1,5E-1,1.75E1,1.675E2,5E-1,5E-1,4.245E2,5E-1,5E-1,5E-1,5E-1,5.135E2,5E-1,3.4735E3,5E-1,5E-1,5.35E1,5E-1,5.45E1,5E-1,-3.8123026E-1,-2.6536265E-1,-3.8679212E-1,-7.29809E-2,-1.4183193E-1,2.8461134E-1,-1.8749021E-1,7.4803896E-2,3.1546837E-1,6.704027E-2,1.58741E-1,-1.8066919E-1,-1.1781398E-1,1.5305823E-1,-2.6765877E-1,1.7828423E-1,1.2550484E-1,-1.1751887E-1,2.3451683E-1,-4.1064702E-2,5.1332567E-2,-3.5512233E-1,-8.573827E-2,3.0595717E-1,-1.836281E-2,-2.598485E-1,-2.414694E-1,-1.0092426E-1,-2.5616246E-1,1.23016044E-1,3.125471E-1,1.02437556E-1,-2.765165E-1,2.5289696E-1,-3.6248782E-1,-1.1590157E-1,-7.917374E-2,-2.478086E-1,-7.907446E-3,-3.2808107E-1,3.7852E-2,-1.3628991E-1,7.5001985E-2,4.145327E-1,-3.0635056E-1,1.1623901E-1,1.9629931E-2,-1.4605619E-1,9.7517006E-2,-2.8460735E-2,-6.399761E-2,8.7893546E-2,3.698557E-1,1.2410467E-1,2.3512922E-1,-2.920668E-1],"split_indices":[6,37,6,31,6,24,6,34,6,32,3,37,6,24,5,3,6,6,40,5,0,6,5,3,0,2,0,32,2,24,29,6,35,0,5,0,0,5,5,40,27,11,12,5,6,4,19,6,32,30,1,32,6,3,2,1,32,0,30,0,10,0,0,0,0,0,0,0,0,0,0,0,0,0,0,0,0,0,0,0,0,0,0,0,0,0,0,0,0,0,0,0,0,0,0,0,0,0,0,0,0,0,0,0,0,0,0,0,0,0,0,0,0,0,0,0,0],"split_type":[0,0,0,0,0,0,0,0,0,0,0,0,0,0,0,0,0,0,0,0,0,0,0,0,0,0,0,0,0,0,0,0,0,0,0,0,0,0,0,0,0,0,0,0,0,0,0,0,0,0,0,0,0,0,0,0,0,0,0,0,0,0,0,0,0,0,0,0,0,0,0,0,0,0,0,0,0,0,0,0,0,0,0,0,0,0,0,0,0,0,0,0,0,0,0,0,0,0,0,0,0,0,0,0,0,0,0,0,0,0,0,0,0,0,0,0,0],"sum_hessian":[7.484628E3,5.972157E3,1.5124708E3,5.760145E3,2.1201225E2,8.9371576E2,6.18755E2,5.691672E3,6.8473366E1,4.4902534E1,1.6710973E2,6.66548E2,2.2716779E2,3.194586E2,2.9929645E2,5.6000073E3,9.166449E1,3.271937E1,3.575399E1,3.7856827E1,7.0457077E0,1.1736832E2,4.974141E1,6.215534E2,4.4994534E1,1.3810585E2,8.9061935E1,2.3289064E2,8.656793E1,2.8491937E2,1.4377082E1,2.4451743E3,3.154833E3,2.0038261E1,7.162623E1,7.0472727E0,2.56721E1,2.559475E1,1.015924E1,1.5687181E1,2.2169645E1,4.8757805E1,6.8610504E1,4.000045E1,9.740962E0,3.2361664E2,2.9793677E2,1.9648897E1,2.5345638E1,5.729486E0,1.3237636E2,5.6542645E1,3.251929E1,1.8907556E2,4.3815086E1,1.8531736E1,6.80362E1,2.0852812E2,7.6391235E1,8.2502775E0,6.126804E0,1.1451188E3,1.3000554E3,3.1396511E3,1.5181842E1,3.984887E1,3.1777355E1,1.719341E1,8.47869E0,1.8887922E1,6.706827E0,3.4716816E0,6.6875577E0,1.2821944E1,2.8652375E0,2.0582027E1,1.5876188E0,4.201616E1,6.7416487E0,6.5166245E1,3.444261E0,3.4786476E1,5.2139735E0,1.9148442E0,7.8261175E0,2.7732E2,4.629664E1,2.0592015E2,9.2016624E1,3.276193E0,1.6372704E1,2.003569E1,5.3099475E0,4.3172684E0,1.4122175E0,1.2998016E2,2.3962038E0,2.0292868E1,3.624978E1,2.1279948E0,3.0391294E1,1.0975246E2,7.9323105E1,3.869647E1,5.1186175E0,1.7310326E1,1.2214098E0,2.1843435E1,4.6192764E1,1.7384984E2,3.467829E1,4.6961304E1,2.942993E1,6.765525E0,1.4847529E0,4.6548657E0,1.4719381E0],"tree_param":{"num_deleted":"0","num_feature":"41","num_nodes":"117","size_leaf_vector":"0"}},{"base_weights":[-7.935422E-1,-9.709005E-1,-2.427539E-1,-1.0172757E0,1.3846543E-1,-4.3452838E-1,-5.271115E-3,-8.7269807E-1,-1.1388887E0,-3.809119E-1,3.887593E-1,-2.7840176E-1,-9.277841E-1,-3.5707437E-2,6.924773E-1,-1.139759E0,-6.969762E-1,-1.1450927E0,-1.2803787E-1,-8.98803E-1,-2.5253287E-1,4.65764E-1,-1.2571459E-1,-6.2208425E-2,-5.4270583E-1,-1.0551502E0,-6.136365E-1,-1.4435257E-1,1.5537861E-1,8.325508E-1,-2.8997657E-1,-1.1562046E0,-2.9430076E-1,3.3293158E-1,-7.555662E-1,-1.1516105E0,-3.6880597E-1,-1.0762042E0,2.6502705E-1,-4.089259E-1,-1.214251E0,-4.8504522E-1,2.766282E-2,8.613372E-1,3.8985616E-1,-1.0167112E0,3.3663225E-1,4.432997E-1,-2.0721386E-1,-5.6916505E-1,1.4142283E0,-5.0339675E-1,-1.077872E0,-1.4269677E-1,-7.096681E-1,-2.0173076E-1,2.8205264E-1,1.9342549E-1,-2.4904856E-1,-2.9728627E-1,9.5630676E-1,6.078768E-1,-1.0865835E0,-3.7483203E-1,-1.1691685E0,-6.527305E-1,1.7208E-1,5.594278E-1,-4.5917088E-1,-6.536054E-1,-1.2372988E0,-1.1569866E0,-2.1797839E-1,-1.0749704E0,5.886751E-2,-3.8714248E-1,7.534979E-1,6.4753875E-2,-9.048356E-1,-1.7003675E-1,-8.503686E-1,-7.2879004E-1,2.180999E-1,9.5898026E-1,7.491446E-2,4.726417E-1,-8.426164E-2,-2.0516609E-1,-1.3604903E0,4.8159647E-1,-6.179709E-1,-3.586634E-2,6.486868E-1,-3.025454E-1,4.9622974E-1,-5.925227E-1,1.2907842E0,-8.9989895E-1,6.484097E-1,-7.7799195E-1,-1.12811E0,4.373125E-1,-1.1188674E0,-9.095755E-1,-5.3657657E-1,6.168177E-1,-2.366964E-1,5.2449375E-1,-1.618078E-1,1.399384E-1,6.3668305E-1,-1.0242263E0,1.074625E-1,3.944162E-1,-8.338811E-1,-1.243342E-1,1.04059E0],"categories":[],"categories_nodes":[],"categories_segments":[],"categories_sizes":[],"default_left":[1,1,1,1,1,1,1,1,1,1,1,1,1,1,1,1,1,1,1,1,1,1,1,1,1,1,1,1,1,1,1,1,1,1,1,1,1,0,1,1,0,1,1,1,1,1,1,1,1,1,0,1,1,1,1,1,1,1,1,1,1,0,0,0,0,0,0,0,0,0,0,0,0,0,0,0,0,0,0,0,0,0,0,0,0,0,0,0,0,0,0,0,0,0,0,0,0,0,0,0,0,0,0,0,0,0,0,0,0,0,0,0,0,0,0,0,0],"id":3,"left_children":[1,3,5,7,9,11,13,15,17,19,21,23,25,27,29,31,33,35,37,39,41,43,45,47,49,51,53,55,57,59,61,63,65,67,69,71,73,-1,75,77,-1,79,81,83,85,87,89,91,93,95,-1,97,99,101,103,105,107,109,111,113,115,-1,-1,-1,-1,-1,-1,-1,-1,-1,-1,-1,-1,-1,-1,-1,-1,-1,-1,-1,-1,-1,-1,-1,-1,-1,-1,-1,-1,-1,-1,-1,-1,-1,-1,-1,-1,-1,-1,-1,-1,-1,-1,-1,-1,-1,-1,-1,-1,-1,-1,-1,-1,-1,-1,-1,-1],"loss_changes":[6.317295E2,2.5188184E2,7.182345E1,8.159082E1,2.5786669E1,6.693323E1,1.5009315E1,1.00109375E2,1.5831543E1,4.070812E0,5.3506927E0,3.7916836E1,7.728607E0,1.4078398E1,4.306734E0,1.1502319E1,7.866193E1,1.2387207E1,6.497118E0,1.4273787E0,3.478797E0,3.1594849E0,7.8309355E0,2.695385E1,1.6271324E1,1.3073578E0,2.7379456E0,1.0630166E1,3.831821E0,3.9355392E0,3.827523E0,8.021484E0,3.0532477E0,1.2929857E1,5.9595825E1,1.2349121E1,6.874777E0,0E0,4.300991E0,1.558326E0,0E0,3.2069087E0,3.7702153E0,1.3037548E0,3.9448252E0,1.5229301E0,2.0577748E0,8.093815E0,1.9292755E1,1.3599419E1,0E0,4.105838E0,1.2442627E0,7.218475E0,1.3076096E0,1.1064463E1,5.6452837E0,5.252798E0,6.0741587E0,1.5688678E0,2.2945652E0,0E0,0E0,0E0,0E0,0E0,0E0,0E0,0E0,0E0,0E0,0E0,0E0,0E0,0E0,0E0,0E0,0E0,0E0,0E0,0E0,0E0,0E0,0E0,0E0,0E0,0E0,0E0,0E0,0E0,0E0,0E0,0E0,0E0,0E0,0E0,0E0,0E0,0E0,0E0,0E0,0E0,0E0,0E0,0E0,0E0,0E0,0E0,0E0,0E0,0E0,0E0,0E0,0E0,0E0,0E0,0E0],"parents":[2147483647,0,0,1,1,2,2,3,3,4,4,5,5,6,6,7,7,8,8,9,9,10,10,11,11,12,12,13,13,14,14,15,15,16,16,17,17,18,18,19,19,20,20,21,21,22,22,23,23,24,24,25,25,26,26,27,27,28,28,29,29,30,30,31,31,32,32,33,33,34,34,35,35,36,36,38,38,39,39,41,41,42,42,43,43,44,44,45,45,46,46,47,47,48,48,49,49,51,51,52,52,53,53,54,54,55,55,56,56,57,57,58,58,59,59,60,60],"right_children":[2,4,6,8,10,12,14,16,18,20,22,24,26,28,30,32,34,36,38,40,42,44,46,48,50,52,54,56,58,60,62,64,66,68,70,72,74,-1,76,78,-1,80,82,84,86,88,90,92,94,96,-1,98,100,102,104,106,108,110,112,114,116,-1,-1,-1,-1,-1,-1,-1,-1,-1,-1,-1,-1,-1,-1,-1,-1,-1,-1,-1,-1,-1,-1,-1,-1,-1,-1,-1,-1,-1,-1,-1,-1,-1,-1,-1,-1,-1,-1,-1,-1,-1,-1,-1,-1,-1,-1,-1,-1,-1,-1,-1,-1,-1,-1,-1,-1],"split_conditions":[3.655E2,5E-1,6.055E2,5E-1,1.615E2,5E-1,5E-1,1.245E2,5E-1,8E1,3.7365E3,5E-1,5.065E2,9.165E2,5E-1,5E-1,2.65E1,5E-1,1.055E2,1.5E0,5E-1,1.835E2,2.185E2,5E-1,5E-1,-3.03E2,5.5E0,5E-1,1.798E3,5E-1,5E-1,2.45E1,9.45E1,5E-1,5E-1,5E-1,1.75E1,-3.2286125E-1,3.45E1,5E-1,-3.6427534E-1,1.1565E3,3.5E0,5E-1,5E-1,1.5E0,7.25E1,9.5E0,5.95E1,5E-1,4.242685E-1,5E-1,3.05E1,5E-1,2.79E2,2.55E1,1.85E1,1.4875E3,8.5E0,5E-1,5E-1,1.8236303E-1,-3.2597506E-1,-1.12449616E-1,-3.5075057E-1,-1.9581917E-1,5.1624E-2,1.6782835E-1,-1.3775127E-1,-1.9608162E-1,-3.7118965E-1,-3.47096E-1,-6.539352E-2,-3.224911E-1,1.7660255E-2,-1.1614275E-1,2.2604938E-1,1.9426163E-2,-2.714507E-1,-5.1011026E-2,-2.551106E-1,-2.1863702E-1,6.542998E-2,2.876941E-1,2.247434E-2,1.4179252E-1,-2.5278494E-2,-6.1549827E-2,-4.0814713E-1,1.4447895E-1,-1.8539128E-1,-1.0759902E-2,1.9460605E-1,-9.076362E-2,1.4886893E-1,-1.7775682E-1,3.8723528E-1,-2.699697E-1,1.9452293E-1,-2.3339759E-1,-3.3843303E-1,1.3119376E-1,-3.3566022E-1,-2.7287266E-1,-1.6097298E-1,1.8504532E-1,-7.100893E-2,1.5734813E-1,-4.8542343E-2,4.1981522E-2,1.9100492E-1,-3.072679E-1,3.223875E-2,1.1832487E-1,-2.5016433E-1,-3.7300263E-2,3.1217703E-1],"split_indices":[6,37,6,3,6,24,37,6,31,6,2,3,6,6,15,31,0,34,6,40,21,6,6,38,30,2,5,25,6,2,3,0,6,29,24,35,5,0,0,32,0,2,5,35,15,40,0,5,0,34,0,30,0,7,2,0,5,6,5,3,40,0,0,0,0,0,0,0,0,0,0,0,0,0,0,0,0,0,0,0,0,0,0,0,0,0,0,0,0,0,0,0,0,0,0,0,0,0,0,0,0,0,0,0,0,0,0,0,0,0,0,0,0,0,0,0,0],"split_type":[0,0,0,0,0,0,0,0,0,0,0,0,0,0,0,0,0,0,0,0,0,0,0,0,0,0,0,0,0,0,0,0,0,0,0,0,0,0,0,0,0,0,0,0,0,0,0,0,0,0,0,0,0,0,0,0,0,0,0,0,0,0,0,0,0,0,0,0,0,0,0,0,0,0,0,0,0,0,0,0,0,0,0,0,0,0,0,0,0,0,0,0,0,0,0,0,0,0,0,0,0,0,0,0,0,0,0,0,0,0,0,0,0,0,0,0,0],"sum_hessian":[6.468297E3,4.8922046E3,1.5760924E3,4.69598E3,1.9622453E2,8.715001E2,7.045922E2,2.1491611E3,2.5468188E3,6.364169E1,1.3258284E2,6.6315955E2,2.0834058E2,6.760512E2,2.8541046E1,8.507346E2,1.2984265E3,2.5311511E3,1.5667685E1,1.1450061E1,5.2191628E1,1.15404205E2,1.7178633E1,3.6545932E2,2.977002E2,1.4656104E2,6.1779537E1,4.3115527E2,2.4489592E2,2.511312E1,3.427928E0,8.3414166E2,1.659298E1,6.963771E1,1.2287888E3,2.509597E3,2.155404E1,4.0822773E0,1.1585407E1,5.3845005E0,6.065561E0,2.8123257E1,2.406837E1,1.6914053E1,9.849015E1,5.459162E0,1.171947E1,8.100568E1,2.8445364E2,2.9442847E2,3.2717435E0,6.712684E0,1.3984836E2,1.0885063E1,5.0894474E1,3.8048337E2,5.0671925E1,2.2431499E2,2.0580927E1,2.340765E0,2.2772354E1,1.7229329E0,1.7049952E0,1.4101801E1,8.2003986E2,9.156403E0,7.436578E0,5.4381454E1,1.5256256E1,1.01608655E3,2.1270227E2,2.494991E3,1.4606019E1,7.5591006E0,1.3994941E1,5.0502E0,6.535207E0,3.1986544E0,2.1858459E0,1.5888487E1,1.223477E1,4.2720466E0,1.9796326E1,1.4850747E1,2.0633047E0,8.3851906E1,1.4638244E1,2.0995758E0,3.3595865E0,1.0604579E1,1.1148906E0,2.4551844E1,5.6453835E1,2.510068E2,3.344684E1,2.914498E2,2.978659E0,5.1563497E0,1.5563345E0,2.2432217E1,1.17416145E2,7.1743226E0,3.7107403E0,2.1643276E1,2.9251198E1,1.4905431E1,3.6557794E2,3.2654198E1,1.8017725E1,2.0133586E2,2.2979134E1,5.893504E0,1.4687422E1,1.138341E0,1.2024242E0,1.6132184E0,2.1159136E1],"tree_param":{"num_deleted":"0","num_feature":"41","num_nodes":"117","size_leaf_vector":"0"}},{"base_weights":[-6.696606E-1,-9.2445123E-1,-3.1244487E-1,-9.6074915E-1,-4.7420755E-2,-1.8450789E-1,-7.243175E-1,-9.770933E-1,2.7390163E-2,-4.5316336E-1,1.3546723E-1,-2.2609846E-1,1.1764249E0,-1.0589589E0,-2.6569006E-1,-1.0976323E0,-8.664378E-1,-3.865706E-1,5.001329E-1,-3.3521277E-1,-1.0531744E0,1.0548748E0,6.209268E-2,-3.7176788E-1,1.0265272E-2,1.6017382E0,6.805403E-1,-1.1199588E0,-8.415752E-1,-3.9744544E-1,2.7578217E-3,-1.154158E0,-1.040997E0,-7.57882E-1,-1.1439246E0,-8.502751E-1,-1.4139609E-1,6.599677E-1,-5.326164E-1,1.569471E-2,-4.8330364E-1,2.7474505E-1,1.2545712E0,1.4597824E-1,-3.107669E-1,-4.1262788E-1,1.0102336E0,1.5097205E-1,-1.14116356E-1,1.8919667E0,5.3433853E-1,8.2708406E-1,3.2054547E-2,-1.2970766E-1,-8.8184744E-1,-1.7387237E-1,-5.4010576E-1,6.374112E-2,-8.326907E-1,-1.155441E0,-1.8589112E-1,-3.7433785E-1,-1.0530378E0,-8.0181324E-1,6.7577815E-1,-1.1562139E0,1.3756534E0,-1.0729467E0,9.708823E-2,1.205803E-1,-8.810423E-1,1.0901712E0,3.4051234E-1,-1.1365621E0,4.4095504E-1,-3.0689797E-1,1.2060573E0,-6.3855755E-1,7.506511E-1,1.9430141E-1,-6.628208E-1,-4.737806E-1,8.609675E-1,-4.6691012E-1,5.227136E-1,1.0917674E0,-5.575404E-1,2.3663205E-1,-1.5213175E-1,-1.5080692E-1,6.6607344E-1,2.0614367E0,2.1110822E-1,8.2046807E-1,-3.608017E-1,9.3239313E-1,-3.6939648E-1,-5.446571E-1,1.003513E0,-7.51857E-1,1.0848895E0,-4.3353107E-2,-9.1445166E-1,-3.7865898E-1,3.6533442E-1,4.1852152E-1,-5.8054364E-1,-9.4979115E-2,3.2744357E-1,1.22597866E-1,-1.318033E0],"categories":[],"categories_nodes":[],"categories_segments":[],"categories_sizes":[],"default_left":[1,1,1,1,1,1,1,1,1,1,1,1,1,1,1,1,1,1,1,1,0,1,1,1,1,1,1,0,1,1,1,1,1,1,1,1,1,1,1,1,1,0,0,1,1,1,1,1,1,1,1,1,1,1,1,1,1,1,1,0,0,0,0,0,0,0,0,0,0,0,0,0,0,0,0,0,0,0,0,0,0,0,0,0,0,0,0,0,0,0,0,0,0,0,0,0,0,0,0,0,0,0,0,0,0,0,0,0,0,0,0],"id":4,"left_children":[1,3,5,7,9,11,13,15,17,19,21,23,25,27,29,31,33,35,37,39,-1,41,43,45,47,49,51,-1,53,55,57,59,61,63,65,67,69,71,73,75,77,-1,-1,79,81,83,85,87,89,91,93,95,97,99,101,103,105,107,109,-1,-1,-1,-1,-1,-1,-1,-1,-1,-1,-1,-1,-1,-1,-1,-1,-1,-1,-1,-1,-1,-1,-1,-1,-1,-1,-1,-1,-1,-1,-1,-1,-1,-1,-1,-1,-1,-1,-1,-1,-1,-1,-1,-1,-1,-1,-1,-1,-1,-1,-1,-1],"loss_changes":[5.080266E2,1.0371265E2,1.22465576E2,5.057251E1,9.751497E0,1.0082263E2,8.429611E1,4.011548E1,1.0349446E1,2.5346556E0,6.0587482E0,5.938739E1,1.0054962E1,3.2778625E0,8.270788E0,3.5040283E0,4.7630005E1,3.08952E0,4.422833E0,1.8558421E0,0E0,6.9083786E-1,2.7081764E0,6.067482E1,1.154374E1,7.572418E0,2.457265E0,0E0,2.0003014E0,4.908531E0,4.0254183E0,6.8774414E-1,5.581238E0,7.3614746E1,1.5547974E1,2.1219559E0,3.9172256E0,2.6255064E0,2.7702062E0,4.7953196E0,5.2769165E0,0E0,0E0,2.8716633E0,3.4555387E0,5.2903854E1,4.562872E0,8.070635E0,1.0123791E1,5.6579666E0,2.170021E0,3.0255146E0,3.8284664E0,4.6861773E0,1.8642426E0,7.04742E0,3.9361458E0,3.1113186E0,2.6537464E0,0E0,0E0,0E0,0E0,0E0,0E0,0E0,0E0,0E0,0E0,0E0,0E0,0E0,0E0,0E0,0E0,0E0,0E0,0E0,0E0,0E0,0E0,0E0,0E0,0E0,0E0,0E0,0E0,0E0,0E0,0E0,0E0,0E0,0E0,0E0,0E0,0E0,0E0,0E0,0E0,0E0,0E0,0E0,0E0,0E0,0E0,0E0,0E0,0E0,0E0,0E0,0E0],"parents":[2147483647,0,0,1,1,2,2,3,3,4,4,5,5,6,6,7,7,8,8,9,9,10,10,11,11,12,12,13,13,14,14,15,15,16,16,17,17,18,18,19,19,21,21,22,22,23,23,24,24,25,25,26,26,28,28,29,29,30,30,31,31,32,32,33,33,34,34,35,35,36,36,37,37,38,38,39,39,40,40,43,43,44,44,45,45,46,46,47,47,48,48,49,49,50,50,51,51,52,52,53,53,54,54,55,55,56,56,57,57,58,58],"right_children":[2,4,6,8,10,12,14,16,18,20,22,24,26,28,30,32,34,36,38,40,-1,42,44,46,48,50,52,-1,54,56,58,60,62,64,66,68,70,72,74,76,78,-1,-1,80,82,84,86,88,90,92,94,96,98,100,102,104,106,108,110,-1,-1,-1,-1,-1,-1,-1,-1,-1,-1,-1,-1,-1,-1,-1,-1,-1,-1,-1,-1,-1,-1,-1,-1,-1,-1,-1,-1,-1,-1,-1,-1,-1,-1,-1,-1,-1,-1,-1,-1,-1,-1,-1,-1,-1,-1,-1,-1,-1,-1,-1,-1],"split_conditions":[2.505E2,5E-1,5E-1,5E-1,1.325E2,5E-1,5.115E2,1.245E2,1.405E2,5E-1,5E-1,5.245E2,3.845E2,4.115E2,8.815E2,7.75E1,5E-1,3.15E1,2.5E0,6.5E0,-3.1595233E-1,3.05E1,5E-1,5E-1,1.55E1,5E-1,1.5E0,-3.3598763E-1,-2.915E2,5E-1,5E-1,7.2E1,2.45E1,5E-1,5E-1,2.5E0,2.5E0,6.245E2,2.05E2,5E-1,5E-1,8.2423516E-2,3.7637138E-1,6.5E0,5E-1,6.15E1,7.65E1,5E-1,5E-1,6.05E1,2.755E3,5E-1,1.5E0,-4.145E2,4.145E2,7.31E2,2.5E0,1.75E1,4.15E1,-3.4663233E-1,-5.576734E-2,-1.1230136E-1,-3.1591135E-1,-2.4054398E-1,2.0273346E-1,-3.4686416E-1,4.1269603E-1,-3.21884E-1,2.912647E-2,3.6174092E-2,-2.643127E-1,3.2705137E-1,1.021537E-1,-3.4096864E-1,1.3228652E-1,-9.2069395E-2,3.618172E-1,-1.9156727E-1,2.2519535E-1,5.8290426E-2,-1.9884625E-1,-1.4213419E-1,2.5829026E-1,-1.4007305E-1,1.5681408E-1,3.2753024E-1,-1.6726214E-1,7.0989616E-2,-4.5639526E-2,-4.524208E-2,1.9982204E-1,6.1843103E-1,6.333247E-2,2.4614044E-1,-1.08240515E-1,2.7971795E-1,-1.10818945E-1,-1.6339713E-1,3.010539E-1,-2.255571E-1,3.2546687E-1,-1.3005933E-2,-2.743355E-1,-1.135977E-1,1.0960033E-1,1.2555647E-1,-1.741631E-1,-2.8493736E-2,9.8233074E-2,3.6779363E-2,-3.954099E-1],"split_indices":[6,37,24,31,6,30,6,6,6,32,40,6,6,6,6,6,24,0,40,5,0,0,15,35,5,37,40,0,2,18,22,0,0,30,34,39,39,2,6,25,27,0,0,40,33,0,0,7,37,0,2,14,39,2,6,6,5,5,0,0,0,0,0,0,0,0,0,0,0,0,0,0,0,0,0,0,0,0,0,0,0,0,0,0,0,0,0,0,0,0,0,0,0,0,0,0,0,0,0,0,0,0,0,0,0,0,0,0,0,0,0],"split_type":[0,0,0,0,0,0,0,0,0,0,0,0,0,0,0,0,0,0,0,0,0,0,0,0,0,0,0,0,0,0,0,0,0,0,0,0,0,0,0,0,0,0,0,0,0,0,0,0,0,0,0,0,0,0,0,0,0,0,0,0,0,0,0,0,0,0,0,0,0,0,0,0,0,0,0,0,0,0,0,0,0,0,0,0,0,0,0,0,0,0,0,0,0,0,0,0,0,0,0,0,0,0,0,0,0,0,0,0,0,0,0],"sum_hessian":[5.5839497E3,3.2583118E3,2.325638E3,3.1287268E3,1.2958485E2,1.7755575E3,5.500804E2,3.0778296E3,5.089713E1,3.9802956E1,8.97819E1,1.7237141E3,5.1843422E1,3.1727155E2,2.3280884E2,1.4688575E3,1.6089722E3,2.7232803E1,2.3664328E1,3.456652E1,5.2364345E0,5.6469655E0,8.413493E1,1.0661067E3,6.576074E2,2.670707E1,2.5136353E1,2.4450821E2,7.276331E1,1.5584091E2,7.6967926E1,7.254412E2,7.4341626E2,1.1592087E3,4.4976346E2,8.565196E0,1.8667606E1,2.0805325E1,2.8590033E0,1.0523848E1,2.4042675E1,1.6351066E0,4.011859E0,6.917949E1,1.4955441E1,1.0361729E3,2.9933851E1,3.0845444E2,3.49153E2,2.0390379E1,6.316691E0,2.0278454E1,4.857898E0,4.122001E0,6.864132E1,6.1569607E1,9.427131E1,7.259275E1,4.37518E0,7.2428815E2,1.1530845E0,1.3758132E1,7.2965814E2,1.1251711E3,3.403761E1,4.4811887E2,1.6446084E0,6.827805E0,1.7373914E0,1.440312E1,4.264487E0,7.8377748E0,1.2967549E1,1.661125E0,1.1978784E0,8.863883E0,1.6599641E0,2.1784323E1,2.2583518E0,6.599619E1,3.183297E0,1.3651834E1,1.3036077E0,9.798106E2,5.6362194E1,2.8742678E1,1.1911743E0,2.4066074E2,6.77937E1,3.3424112E2,1.49119E1,1.8317162E1,2.0732174E0,4.849863E0,1.4668279E0,1.8840881E1,1.4375734E0,3.3239548E0,1.5339433E0,2.977717E0,1.1442841E0,2.6563666E0,6.598495E1,4.483816E1,1.6731443E1,3.4372597E0,9.0834045E1,4.5716316E1,2.6876432E1,1.7257744E0,2.6494052E0],"tree_param":{"num_deleted":"0","num_feature":"41","num_nodes":"111","size_leaf_vector":"0"}},{"base_weights":[-5.600911E-1,-8.5126156E-1,-2.6982167E-1,-8.8679135E-1,-8.5188925E-2,-1.6112949E-1,-6.5539134E-1,-9.1061723E-1,-2.9532567E-2,-3.332801E-1,6.583516E-2,-1.935668E-1,7.7893335E-1,-1.0120801E0,-2.2676691E-1,-9.274622E-1,-3.6306337E-3,-8.6451983E-1,1.3197778E-1,-1.3442764E-1,-6.8380433E-1,9.755915E-1,-7.4268444E-3,-2.4377145E-1,4.4776672E-1,8.315404E-1,-5.5358994E-1,-1.029231E0,1.7097561E0,-4.383347E-1,-8.322695E-2,-1.0174413E0,-7.9214895E-1,-5.1165915E-1,7.2909445E-1,-9.2828953E-1,-2.6457796E-1,-5.0786537E-1,3.5474837E-1,1.7992637E-1,-4.361651E-1,-8.1191915E-1,1.8553437E-1,1.1094711E0,2.2116634E-1,9.24669E-1,-5.0029315E-2,-4.433533E-1,-8.129885E-2,5.6919456E-1,2.3869924E-1,9.6862876E-1,3.5673404E-1,-1.0748017E0,-8.367271E-1,-3.1745526E-1,-8.816487E-1,-1.16751276E-1,8.2868844E-1,-1.0296627E0,-3.0376515E-1,-6.7890966E-1,-1.0992284E0,-6.6247284E-1,1.0264748E0,-3.9095172E-1,1.1304228E0,-2.623115E-1,-1.0184637E0,-7.712727E-1,-2.0332399E-1,1.8655357E-1,1.6957587E0,-7.56765E-2,9.9082357E-1,-8.447128E-1,-3.514931E-2,-9.198174E-1,2.048786E-1,-9.187554E-2,7.4750715E-1,-2.3565553E-1,-7.234031E-1,-1.6943657E-1,1.5856698E-1,4.43285E-1,8.258352E-1,1.363094E-1,1.0042622E0,1.086961E0,3.736868E-1,-3.6509156E-1,6.585759E-1,1.8285427E-2,-8.802824E-1,3.8395517E-2,-5.1217633E-1,-1.0016968E0,1.7154214E-1,-2.5140104E-1,1.4791295E-1,1.0821453E0,1.2134324E-1],"categories":[],"categories_nodes":[],"categories_segments":[],"categories_sizes":[],"default_left":[1,1,1,1,1,1,1,1,1,1,1,1,1,1,1,1,1,1,1,1,1,1,1,1,1,1,0,1,0,1,1,1,1,1,1,1,0,1,1,1,1,1,0,0,0,0,1,1,1,1,1,1,1,0,1,1,1,1,1,0,0,0,0,0,0,0,0,0,0,0,0,0,0,0,0,0,0,0,0,0,0,0,0,0,0,0,0,0,0,0,0,0,0,0,0,0,0,0,0,0,0,0,0],"id":5,"left_children":[1,3,5,7,9,11,13,15,17,19,21,23,25,27,29,31,33,35,37,39,41,43,45,47,49,51,-1,53,-1,55,57,59,61,63,65,67,-1,69,71,73,75,77,-1,-1,-1,-1,79,81,83,85,87,89,91,-1,93,95,97,99,101,-1,-1,-1,-1,-1,-1,-1,-1,-1,-1,-1,-1,-1,-1,-1,-1,-1,-1,-1,-1,-1,-1,-1,-1,-1,-1,-1,-1,-1,-1,-1,-1,-1,-1,-1,-1,-1,-1,-1,-1,-1,-1,-1,-1],"loss_changes":[4.1137024E2,6.608569E1,1.0216034E2,4.7418335E1,4.1001406E0,5.8237896E1,8.176288E1,3.4526123E1,8.724643E0,2.7904081E0,4.5723953E0,5.942382E1,4.9283066E0,1.5410645E1,7.4000063E0,2.620935E1,1.6086773E1,1.5537357E-1,7.929624E0,2.6991358E0,1.7904177E0,2.709689E-1,2.6028254E0,5.5384087E1,3.2682953E0,3.6715775E0,0E0,1.655365E0,0E0,5.0117817E0,4.594637E0,1.1280273E1,3.0226257E1,6.5991535E0,8.396722E0,2.778492E-1,0E0,1.0024762E0,8.912266E0,3.026362E0,2.3277738E0,1.616662E0,0E0,0E0,0E0,0E0,2.1550865E0,4.442726E1,1.997067E1,2.3515892E0,3.859964E0,2.9242096E0,3.5978808E0,0E0,2.2601051E0,5.5043616E0,2.7756405E0,5.125683E0,8.2613873E-1,0E0,0E0,0E0,0E0,0E0,0E0,0E0,0E0,0E0,0E0,0E0,0E0,0E0,0E0,0E0,0E0,0E0,0E0,0E0,0E0,0E0,0E0,0E0,0E0,0E0,0E0,0E0,0E0,0E0,0E0,0E0,0E0,0E0,0E0,0E0,0E0,0E0,0E0,0E0,0E0,0E0,0E0,0E0,0E0],"parents":[2147483647,0,0,1,1,2,2,3,3,4,4,5,5,6,6,7,7,8,8,9,9,10,10,11,11,12,12,13,13,14,14,15,15,16,16,17,17,18,18,19,19,20,20,21,21,22,22,23,23,24,24,25,25,27,27,29,29,30,30,31,31,32,32,33,33,34,34,35,35,37,37,38,38,39,39,40,40,41,41,46,46,47,47,48,48,49,49,50,50,51,51,52,52,54,54,55,55,56,56,57,57,58,58],"right_children":[2,4,6,8,10,12,14,16,18,20,22,24,26,28,30,32,34,36,38,40,42,44,46,48,50,52,-1,54,-1,56,58,60,62,64,66,68,-1,70,72,74,76,78,-1,-1,-1,-1,80,82,84,86,88,90,92,-1,94,96,98,100,102,-1,-1,-1,-1,-1,-1,-1,-1,-1,-1,-1,-1,-1,-1,-1,-1,-1,-1,-1,-1,-1,-1,-1,-1,-1,-1,-1,-1,-1,-1,-1,-1,-1,-1,-1,-1,-1,-1,-1,-1,-1,-1,-1,-1],"split_conditions":[2.235E2,5E-1,5E-1,6.05E1,1.365E2,5E-1,4.725E2,5E-1,9.25E1,5E-1,5E-1,5E-1,6.9E1,5E-1,6.685E2,1.395E2,2.15E1,2.65E1,8.5E0,8.265E2,5.25E1,1.35E1,2.45E1,3.935E2,5E-1,5.07E2,-1.6607699E-1,3.915E2,5.129269E-1,1.4885E3,5.85E1,5E-1,5E-1,2.1E2,1.1E2,2.755E2,-7.937339E-2,6.7E1,5E-1,5.28E2,3.75E1,3.985E3,5.5660315E-2,3.3284134E-1,6.634991E-2,2.7740073E-1,5E-1,5E-1,1.5975E3,4.35E2,5E-1,5E-1,3.055E2,-3.224405E-1,-3.915E2,5E-1,3.5E0,5E-1,2.5E0,-3.0889884E-1,-9.112955E-2,-2.036729E-1,-3.2976854E-1,-1.9874187E-1,3.0794245E-1,-1.1728552E-1,3.3912686E-1,-7.869345E-2,-3.0553913E-1,-2.3138182E-1,-6.09972E-2,5.596607E-2,5.087276E-1,-2.2702951E-2,2.9724708E-1,-2.5341386E-1,-1.0544794E-2,-2.7594522E-1,6.1463583E-2,-2.7562663E-2,2.2425215E-1,-7.069666E-2,-2.1702094E-1,-5.0830975E-2,4.75701E-2,1.329855E-1,2.4775058E-1,4.089282E-2,3.0127868E-1,3.260883E-1,1.1210604E-1,-1.09527476E-1,1.9757278E-1,5.4856283E-3,-2.6408473E-1,1.1518655E-2,-1.536529E-1,-3.0050907E-1,5.1462643E-2,-7.542031E-2,4.4373885E-2,3.246436E-1,3.6402974E-2],"split_indices":[6,37,24,0,6,30,6,34,6,3,40,37,0,34,6,6,5,5,5,2,0,5,0,6,3,6,0,6,0,2,0,31,24,6,6,2,0,0,27,2,0,2,0,0,0,0,12,3,2,6,25,37,2,0,2,32,39,30,39,0,0,0,0,0,0,0,0,0,0,0,0,0,0,0,0,0,0,0,0,0,0,0,0,0,0,0,0,0,0,0,0,0,0,0,0,0,0,0,0,0,0,0,0],"split_type":[0,0,0,0,0,0,0,0,0,0,0,0,0,0,0,0,0,0,0,0,0,0,0,0,0,0,0,0,0,0,0,0,0,0,0,0,0,0,0,0,0,0,0,0,0,0,0,0,0,0,0,0,0,0,0,0,0,0,0,0,0,0,0,0,0,0,0,0,0,0,0,0,0,0,0,0,0,0,0,0,0,0,0,0,0,0,0,0,0,0,0,0,0,0,0,0,0,0,0,0,0,0,0],"sum_hessian":[4.8689756E3,2.4297505E3,2.439225E3,2.3219048E3,1.0784561E2,1.9039258E3,5.352993E2,2.2590564E3,6.2848465E1,4.0351826E1,6.749378E1,1.8411888E3,6.2737007E1,2.9142374E2,2.4387556E2,2.217843E3,4.1213367E1,9.480873E0,5.336759E1,2.6628807E1,1.3723021E1,4.112233E0,6.3381554E1,1.7080961E3,1.330927E2,6.0715946E1,2.0210588E0,2.902169E2,1.2068594E0,9.774807E1,1.461275E2,1.3281477E3,8.896953E2,2.4516659E1,1.6696709E1,8.0752325E0,1.4056406E0,1.3451716E1,3.9915874E1,1.3239463E1,1.3389344E1,1.2017976E1,1.7050445E0,3.0927746E0,1.0194585E0,1.8653404E0,6.1516212E1,7.6573553E2,9.423606E2,8.310322E1,4.9989475E1,4.6306164E1,1.4409783E1,2.3095946E2,5.9257423E1,7.815379E1,1.9594276E1,1.4178702E2,4.3404803E0,1.3053513E3,2.2796356E1,6.5234576E2,2.3734956E2,2.2845922E1,1.6707366E0,4.4113E0,1.2285408E1,1.4291606E0,6.646072E0,6.3911977E0,7.0605183E0,3.647958E1,3.436298E0,1.0755802E1,2.4836605E0,6.084318E0,7.3050265E0,1.0951254E1,1.0667222E0,5.92901E1,2.2261124E0,4.4071936E2,3.2501614E2,6.893539E2,2.5300668E2,5.7580906E1,2.5522314E1,4.5131443E1,4.8580317E0,3.7934166E1,8.372E0,4.187127E0,1.0222656E1,2.9004438E0,5.635698E1,2.7924633E1,5.0229164E1,1.7633244E1,1.9610333E0,9.400927E1,4.7777752E1,2.8053827E0,1.5350976E0],"tree_param":{"num_deleted":"0","num_feature":"41","num_nodes":"103","size_leaf_vector":"0"}},{"base_weights":[-4.6371716E-1,-7.856772E-1,-2.2442652E-1,-8.2321584E-1,-5.7657033E-2,-1.3241376E-1,-5.8764976E-1,-6.6839135E-1,-9.661015E-1,-6.134032E-1,6.715807E-3,-1.5839845E-1,7.6329815E-1,-9.682493E-1,-1.7383982E-1,3.462376E-2,-7.394013E-1,-9.7700936E-1,2.3626779E-1,-1.4205508E-1,-9.825234E-1,-5.5485684E-2,5.4941815E-1,-2.470709E-1,8.588777E-2,4.6334314E-1,1.1313423E0,-9.8729366E-1,1.3850188E0,-3.5169435E-1,-5.6877486E-2,-9.062574E-1,3.4047243E-1,-9.226014E-1,-5.431973E-1,-9.8088074E-1,1.1666609E0,-2.2188605E-1,1.4187999E0,-5.9300417E-1,3.1912097E-1,2.0428377E-1,-2.756946E-1,-4.7138688E-1,8.98647E-1,-4.924896E-1,-1.05990596E-1,1.7958914E-1,-3.3890185E-1,6.6694605E-1,-3.456519E-1,1.5972763E0,7.2356844E-1,-1.0332355E0,-7.5602454E-1,-2.4999121E-1,-7.6709956E-1,-2.2744742E-1,1.2110224E-1,-9.780802E-1,-3.247377E-1,5.7162005E-1,-6.862167E-1,-9.5209163E-1,5.8307193E-2,-6.250986E-1,3.5794672E-1,-9.0476537E-1,-1.0711762E0,-6.039056E-1,5.2570206E-1,5.769191E-1,-1.2934698E-1,3.211208E-1,-5.045874E-1,-3.536558E-1,5.696023E-1,3.531163E-1,1.3489513E0,-5.471408E-1,6.2997824E-1,7.3656805E-2,-2.2111158E-1,2.4485007E-1,-5.300311E-1,-5.1202005E-1,2.6785368E-1,3.8044143E-1,1.0517029E0,4.8360693E-1,-6.421115E-1,7.179686E-1,2.167955E0,9.739344E-1,-5.343626E-1,-9.6960545E-2,-8.8381726E-1,3.742226E-2,-4.1892105E-1,-8.868885E-1,9.840109E-2,-4.033089E-1,8.214614E-2,2.0960264E-1,-9.9798477E-1],"categories":[],"categories_nodes":[],"categories_segments":[],"categories_sizes":[],"default_left":[1,1,1,1,1,1,1,1,1,1,1,1,1,1,1,1,1,1,1,1,0,1,1,1,1,1,1,1,0,1,1,1,1,1,1,1,0,1,0,0,1,1,1,0,1,1,1,1,1,1,1,1,1,0,1,1,1,1,1,0,0,0,0,0,0,0,0,0,0,0,0,0,0,0,0,0,0,0,0,0,0,0,0,0,0,0,0,0,0,0,0,0,0,0,0,0,0,0,0,0,0,0,0,0,0],"id":6,"left_children":[1,3,5,7,9,11,13,15,17,19,21,23,25,27,29,31,33,35,37,39,-1,41,43,45,47,49,51,53,-1,55,57,59,61,63,65,67,-1,69,-1,-1,71,73,75,-1,77,79,81,83,85,87,89,91,93,-1,95,97,99,101,103,-1,-1,-1,-1,-1,-1,-1,-1,-1,-1,-1,-1,-1,-1,-1,-1,-1,-1,-1,-1,-1,-1,-1,-1,-1,-1,-1,-1,-1,-1,-1,-1,-1,-1,-1,-1,-1,-1,-1,-1,-1,-1,-1,-1,-1,-1],"loss_changes":[3.3050104E2,4.995276E1,8.225833E1,3.7842285E1,3.2520332E0,4.5901005E1,7.8209946E1,4.187216E1,1.206781E1,1.5020049E0,2.810437E0,4.1444748E1,5.616535E0,1.2975342E1,4.965118E0,2.2713469E1,2.6866974E1,8.568787E0,5.1471853E0,1.2941295E0,0E0,4.334702E0,3.4751658E0,4.853501E1,2.0361515E1,5.5574803E0,3.4580421E0,1.9549255E0,0E0,3.8167381E0,4.452606E0,4.9153137E-1,1.4508934E1,1.1404114E1,2.7537628E1,5.172058E0,0E0,2.4004402E0,0E0,0E0,4.534624E-1,3.0515637E0,2.897029E0,0E0,1.1749549E0,3.1750244E1,1.8470829E1,1.9510988E1,9.855223E0,2.4857502E0,2.0710952E0,3.7151108E0,5.174731E0,0E0,3.8226852E0,3.7883706E0,1.9718475E0,4.1044703E0,7.3385E0,0E0,0E0,0E0,0E0,0E0,0E0,0E0,0E0,0E0,0E0,0E0,0E0,0E0,0E0,0E0,0E0,0E0,0E0,0E0,0E0,0E0,0E0,0E0,0E0,0E0,0E0,0E0,0E0,0E0,0E0,0E0,0E0,0E0,0E0,0E0,0E0,0E0,0E0,0E0,0E0,0E0,0E0,0E0,0E0,0E0,0E0],"parents":[2147483647,0,0,1,1,2,2,3,3,4,4,5,5,6,6,7,7,8,8,9,9,10,10,11,11,12,12,13,13,14,14,15,15,16,16,17,17,18,18,19,19,21,21,22,22,23,23,24,24,25,25,26,26,27,27,29,29,30,30,31,31,32,32,33,33,34,34,35,35,37,37,40,40,41,41,42,42,44,44,45,45,46,46,47,47,48,48,49,49,50,50,51,51,52,52,54,54,55,55,56,56,57,57,58,58],"right_children":[2,4,6,8,10,12,14,16,18,20,22,24,26,28,30,32,34,36,38,40,-1,42,44,46,48,50,52,54,-1,56,58,60,62,64,66,68,-1,70,-1,-1,72,74,76,-1,78,80,82,84,86,88,90,92,94,-1,96,98,100,102,104,-1,-1,-1,-1,-1,-1,-1,-1,-1,-1,-1,-1,-1,-1,-1,-1,-1,-1,-1,-1,-1,-1,-1,-1,-1,-1,-1,-1,-1,-1,-1,-1,-1,-1,-1,-1,-1,-1,-1,-1,-1,-1,-1,-1,-1,-1],"split_conditions":[2.055E2,5E-1,5E-1,5E-1,8E1,5E-1,4.665E2,2.85E1,5E-1,1.5E0,5E-1,1.6035E3,9.5E0,5E-1,6.685E2,8.65E1,1.245E2,6.45E1,1.81E2,5.135E2,-2.9475704E-1,8.09E2,7.5E0,3.295E2,5E-1,6.35E1,3.01E2,3.915E2,4.1550568E-1,1.4695E3,1.55E1,7.85E1,2.75E1,5E-1,1.5E0,5E-1,3.499983E-1,5E-1,4.2564E-1,-1.7790125E-1,2.0585E3,5E-1,5E-1,-1.4141607E-1,1.638E3,5E-1,1.5E0,5E-1,2.05E1,5E-1,3.15E2,9.615E2,3.985E3,-3.0997068E-1,3.05E1,5E-1,3.5E0,7.5E2,5E-1,-2.9342407E-1,-9.742131E-2,1.7148602E-1,-2.0586503E-1,-2.856275E-1,1.7492158E-2,-1.8752958E-1,1.0738402E-1,-2.7142963E-1,-3.2135287E-1,-1.8117169E-1,1.5771063E-1,1.7307574E-1,-3.8804095E-2,9.6336246E-2,-1.5137623E-1,-1.0609674E-1,1.708807E-1,1.05934896E-1,4.046854E-1,-1.6414224E-1,1.8899348E-1,2.2097042E-2,-6.633348E-2,7.345502E-2,-1.5900934E-1,-1.5360603E-1,8.0356106E-2,1.14132434E-1,3.1551087E-1,1.4508209E-1,-1.9263345E-1,2.1539058E-1,6.503865E-1,2.9218033E-1,-1.603088E-1,-2.9088164E-2,-2.6514518E-1,1.1226678E-2,-1.2567632E-1,-2.6606655E-1,2.952033E-2,-1.20992675E-1,2.4643842E-2,6.288079E-2,-2.9939544E-1],"split_indices":[6,37,24,3,6,35,6,0,35,40,35,2,5,34,6,6,6,0,6,2,0,2,5,6,33,0,6,6,0,2,5,6,5,31,40,32,0,19,0,0,2,30,30,0,2,30,39,4,5,38,6,2,2,0,0,32,39,2,22,0,0,0,0,0,0,0,0,0,0,0,0,0,0,0,0,0,0,0,0,0,0,0,0,0,0,0,0,0,0,0,0,0,0,0,0,0,0,0,0,0,0,0,0,0,0],"split_type":[0,0,0,0,0,0,0,0,0,0,0,0,0,0,0,0,0,0,0,0,0,0,0,0,0,0,0,0,0,0,0,0,0,0,0,0,0,0,0,0,0,0,0,0,0,0,0,0,0,0,0,0,0,0,0,0,0,0,0,0,0,0,0,0,0,0,0,0,0,0,0,0,0,0,0,0,0,0,0,0,0,0,0,0,0,0,0,0,0,0,0,0,0,0,0,0,0,0,0,0,0,0,0,0,0],"sum_hessian":[4.29117E3,1.8285775E3,2.4625923E3,1.7387902E3,8.9787346E1,1.9659395E3,4.9665283E2,8.372556E2,9.015346E2,8.435214E0,8.1352135E1,1.9113152E3,5.4624264E1,2.5800983E2,2.3864302E2,7.685776E1,7.603978E2,8.936152E2,7.9194126E0,4.3128133E0,4.1224003E0,7.3792244E1,7.559892E0,1.4022917E3,5.0902347E2,3.1340647E1,2.3283617E1,2.5651437E2,1.4954444E0,9.388036E1,1.4476266E2,1.8373215E1,5.848454E1,3.913154E2,3.6908246E2,8.925457E2,1.0694771E0,6.293469E0,1.6259439E0,2.0360563E0,2.276757E0,3.3888268E1,3.9903976E1,1.8378922E0,5.7219996E0,5.1095688E2,8.9133484E2,4.1750598E2,9.151749E1,2.5179268E1,6.161378E0,9.5054035E0,1.3778214E1,2.1110953E2,4.540485E1,7.670305E1,1.7177313E1,7.377815E1,7.0984505E1,1.574645E1,2.6267636E0,4.8098858E1,1.0385683E1,3.799227E2,1.1392678E1,3.386136E2,3.046887E1,4.9027957E2,4.022661E2,4.292291E0,2.0011775E0,1.2638316E0,1.0129254E0,2.9562704E1,4.3255644E0,3.7066936E1,2.8370395E0,3.3941984E0,2.3278012E0,4.87723E2,2.3233892E1,3.4824902E2,5.430858E2,3.8294318E2,3.456279E1,7.13237E1,2.0193792E1,1.5572311E1,9.6069565E0,1.4563608E0,4.705017E0,4.629821E0,4.875582E0,1.1679424E1,2.0987904E0,7.659797E0,3.7745052E1,2.8682226E1,4.802082E1,1.5067233E1,2.1100805E0,4.6858154E1,2.692E1,6.653541E1,4.4490967E0],"tree_param":{"num_deleted":"0","num_feature":"41","num_nodes":"105","size_leaf_vector":"0"}},{"base_weights":[-3.7672478E-1,-6.995007E-1,-1.724134E-1,-9.5889837E-1,-5.762348E-1,-9.864184E-2,-4.9739286E-1,-9.777671E-1,-2.4856895E-1,-3.7071532E-1,-8.160145E-1,-3.3737604E-2,-4.0170404E-1,-9.1564095E-1,-1.3564233E-1,-9.8733896E-1,-3.650305E-1,-5.2686316E-1,1.7836201E-1,-6.387229E-2,-5.821948E-1,-8.410231E-1,6.742991E-1,2.4531757E-2,-4.1944444E-1,-6.294911E-1,-1.1656514E-1,-9.3633103E-1,1.1630973E0,2.9186338E-2,-2.535951E-1,-1.0049055E0,-6.9715434E-1,-7.798414E-1,2.050961E-1,-1.1441677E-1,-8.9928144E-1,-2.9525074E-1,7.285392E-1,6.7428924E-2,-8.7201947E-1,-2.728002E-2,-7.056018E-1,-6.995975E-1,-1.026118E0,-1.2302601E-1,1.1029153E0,8.28473E-1,-7.7417567E-3,-5.7330465E-1,2.8996867E-1,-6.562961E-1,1.0835031E0,9.388018E-1,-1.5010071E-1,-9.852801E-1,-6.824487E-1,1.10723004E-1,-3.932504E-1,-7.4302703E-1,-1.9072598E-1,-1.0341852E0,-9.1199064E-1,-9.562462E-1,1.5671208E0,-2.0763302E-1,-9.0684617E-1,1.129972E0,-6.2635165E-1,2.5490955E-1,-6.698721E-1,1.4812425E-1,-7.131813E-1,1.7161863E-1,9.133567E-1,2.098571E-1,-8.7518E-1,-1.0005877E0,-2.62155E-1,8.269076E-2,-9.1116446E-1,6.985421E-1,-7.61242E-1,-5.084928E-1,-8.5924256E-1,-1.0331266E0,-3.725833E-1,-5.790142E-1,4.7599E-1,1.7593244E0,2.4910691E-1,1.6833125E-1,1.104619E0,2.4745382E-1,-1.11488216E-1,1.7408022E0,-6.018089E-1,3.6424863E-1,-7.1921515E-1,-6.7732996E-1,9.471258E-1,1.5533097E0,1.2631561E-1,-3.241151E-1,1.3958288E0,-2.034675E-1,4.4415525E-1,-8.4284955E-1,-1.048261E0,-1.1042825E-1,-8.1326663E-1,-1.591995E-1,3.0869555E-1,-4.5253534E-2,-1.2229149E0,-8.5226494E-1,3.0897135E-1,1.2103741E0,-2.128772E-1],"categories":[],"categories_nodes":[],"categories_segments":[],"categories_sizes":[],"default_left":[1,1,1,1,1,1,1,1,1,1,1,1,1,1,1,1,1,1,1,1,1,1,1,1,1,1,1,1,0,1,1,1,1,1,1,1,0,1,1,1,1,1,1,1,1,1,1,1,1,1,1,1,1,1,1,1,1,1,1,1,1,0,0,0,0,0,0,0,0,0,0,0,0,0,0,0,0,0,0,0,0,0,0,0,0,0,0,0,0,0,0,0,0,0,0,0,0,0,0,0,0,0,0,0,0,0,0,0,0,0,0,0,0,0,0,0,0,0,0],"id":7,"left_children":[1,3,5,7,9,11,13,15,17,19,21,23,25,27,29,31,33,35,37,39,41,43,45,47,49,51,53,55,-1,57,59,61,63,65,67,69,-1,71,73,75,77,79,81,83,85,87,89,91,93,95,97,99,101,103,105,107,109,111,113,115,117,-1,-1,-1,-1,-1,-1,-1,-1,-1,-1,-1,-1,-1,-1,-1,-1,-1,-1,-1,-1,-1,-1,-1,-1,-1,-1,-1,-1,-1,-1,-1,-1,-1,-1,-1,-1,-1,-1,-1,-1,-1,-1,-1,-1,-1,-1,-1,-1,-1,-1,-1,-1,-1,-1,-1,-1,-1,-1],"loss_changes":[2.5459375E2,4.7308655E1,5.6687973E1,6.19928E0,4.982318E1,3.7949543E1,6.6083206E1,2.383789E0,1.731033E0,3.562358E1,1.803305E1,3.5760296E1,2.20316E1,9.810089E0,4.592112E0,1.6448059E0,2.237135E0,1.2171979E0,1.8265598E0,2.3970125E1,2.2250938E1,1.1358582E1,2.9684587E0,3.5885674E1,2.2959137E1,9.387825E0,5.5335402E0,1.8295441E0,0E0,3.4624267E0,4.0908976E0,2.3092651E-1,1.882138E1,1.9632244E-1,4.1611786E0,1.2423742E0,0E0,8.5332966E-1,1.6740513E-1,2.6333208E1,2.2128105E0,5.927339E0,2.1313522E1,7.6375732E0,5.2049255E-1,1.312925E0,2.6393824E0,9.544956E0,3.5252457E1,1.2389038E1,3.1016912E0,6.937439E0,1.282661E0,3.2404447E0,4.800997E0,6.1032104E-1,2.5887985E0,4.536826E0,4.64462E0,2.0230455E0,4.082637E0,0E0,0E0,0E0,0E0,0E0,0E0,0E0,0E0,0E0,0E0,0E0,0E0,0E0,0E0,0E0,0E0,0E0,0E0,0E0,0E0,0E0,0E0,0E0,0E0,0E0,0E0,0E0,0E0,0E0,0E0,0E0,0E0,0E0,0E0,0E0,0E0,0E0,0E0,0E0,0E0,0E0,0E0,0E0,0E0,0E0,0E0,0E0,0E0,0E0,0E0,0E0,0E0,0E0,0E0,0E0,0E0,0E0,0E0],"parents":[2147483647,0,0,1,1,2,2,3,3,4,4,5,5,6,6,7,7,8,8,9,9,10,10,11,11,12,12,13,13,14,14,15,15,16,16,17,17,18,18,19,19,20,20,21,21,22,22,23,23,24,24,25,25,26,26,27,27,29,29,30,30,31,31,32,32,33,33,34,34,35,35,37,37,38,38,39,39,40,40,41,41,42,42,43,43,44,44,45,45,46,46,47,47,48,48,49,49,50,50,51,51,52,52,53,53,54,54,55,55,56,56,57,57,58,58,59,59,60,60],"right_children":[2,4,6,8,10,12,14,16,18,20,22,24,26,28,30,32,34,36,38,40,42,44,46,48,50,52,54,56,-1,58,60,62,64,66,68,70,-1,72,74,76,78,80,82,84,86,88,90,92,94,96,98,100,102,104,106,108,110,112,114,116,118,-1,-1,-1,-1,-1,-1,-1,-1,-1,-1,-1,-1,-1,-1,-1,-1,-1,-1,-1,-1,-1,-1,-1,-1,-1,-1,-1,-1,-1,-1,-1,-1,-1,-1,-1,-1,-1,-1,-1,-1,-1,-1,-1,-1,-1,-1,-1,-1,-1,-1,-1,-1,-1,-1,-1,-1,-1,-1],"split_conditions":[2.035E2,9.25E1,5E-1,5E-1,5E-1,5E-1,4.595E2,5E-1,8E1,1.5E0,5E-1,5E-1,4.75E2,5E-1,5E-1,5E-1,7.9E1,1.5E0,2.5E0,5E-1,5E-1,5E-1,6.5E0,2.55E1,7.195E2,5E-1,-3.63E2,3.915E2,3.489292E-1,5E-1,5.175E2,7.75E1,1.55E1,3.3E1,8.35E1,5E-1,-2.6978445E-1,3.5E1,8.75E1,5E-1,5E-1,5E-1,2.55E1,1.65E1,5E-1,4E0,5E-1,3.15E2,5E-1,1.5E0,5E-1,5E-1,5E-1,1.25E1,5E-1,5E-1,3.05E1,2.795E2,5E-1,4.5E0,5.225E2,-3.1025556E-1,-2.735972E-1,-2.8687388E-1,4.7013626E-1,-6.228991E-2,-2.7205387E-1,3.389916E-1,-1.879055E-1,7.647286E-2,-2.0096163E-1,4.4437274E-2,-2.139544E-1,5.148559E-2,2.7400702E-1,6.295714E-2,-2.6255402E-1,-3.0017632E-1,-7.86465E-2,2.480723E-2,-2.7334934E-1,2.0956264E-1,-2.283726E-1,-1.5254785E-1,-2.5777277E-1,-3.0993798E-1,-1.11774996E-1,-1.7370427E-1,1.4279701E-1,5.2779734E-1,7.473208E-2,5.0499376E-2,3.3138573E-1,7.423615E-2,-3.3446465E-2,5.222407E-1,-1.8054268E-1,1.09274596E-1,-2.1576455E-1,-2.03199E-1,2.8413776E-1,4.6599293E-1,3.7894685E-2,-9.723453E-2,4.1874868E-1,-6.1040252E-2,1.3324659E-1,-2.5285488E-1,-3.1447834E-1,-3.3128478E-2,-2.4398E-1,-4.7759853E-2,9.260867E-2,-1.35760605E-2,-3.668745E-1,-2.556795E-1,9.269141E-2,3.6311224E-1,-6.3863166E-2],"split_indices":[6,6,24,37,3,7,6,31,6,39,35,4,6,34,18,27,6,40,40,24,38,32,5,0,6,35,2,6,0,4,6,6,5,0,6,32,0,0,6,29,19,23,0,5,37,40,40,2,38,5,27,31,18,5,25,32,0,2,15,39,6,0,0,0,0,0,0,0,0,0,0,0,0,0,0,0,0,0,0,0,0,0,0,0,0,0,0,0,0,0,0,0,0,0,0,0,0,0,0,0,0,0,0,0,0,0,0,0,0,0,0,0,0,0,0,0,0,0,0],"split_type":[0,0,0,0,0,0,0,0,0,0,0,0,0,0,0,0,0,0,0,0,0,0,0,0,0,0,0,0,0,0,0,0,0,0,0,0,0,0,0,0,0,0,0,0,0,0,0,0,0,0,0,0,0,0,0,0,0,0,0,0,0,0,0,0,0,0,0,0,0,0,0,0,0,0,0,0,0,0,0,0,0,0,0,0,0,0,0,0,0,0,0,0,0,0,0,0,0,0,0,0,0,0,0,0,0,0,0,0,0,0,0,0,0,0,0,0,0,0,0],"sum_hessian":[3.8614216E3,1.495838E3,2.3655835E3,4.7966452E2,1.01617346E3,1.9289976E3,4.3658603E2,4.66886E2,1.2778531E1,5.4854865E2,4.6762482E2,1.5896641E3,3.3933347E2,2.017713E2,2.3481473E2,4.5910275E2,7.7832494E0,7.5941963E0,5.1843348E0,2.2434322E2,3.2420544E2,4.6033572E2,7.2891016E0,1.3818433E3,2.078209E2,1.8796634E2,1.5136711E2,2.0032698E2,1.4443238E0,9.825899E1,1.3655576E2,4.3057462E2,2.852812E1,4.2923765E0,3.4908729E0,4.223725E0,3.3704715E0,3.0350263E0,2.1493087E0,1.9377654E2,3.0566679E1,5.92048E1,2.6500064E2,2.6366034E2,1.966754E2,2.7977011E0,4.4914007E0,5.2379772E1,1.3294634E3,1.7093889E2,3.688202E1,1.8567773E2,2.288618E0,3.8303838E0,1.4753673E2,1.6553134E2,3.4795643E1,8.298041E1,1.5278576E1,1.4312818E1,1.2224293E2,3.1969925E2,1.1087536E2,2.6117304E1,2.4108162E0,1.2582572E0,3.0341196E0,1.4826164E0,2.0082564E0,2.861904E0,1.361821E0,1.785936E0,1.2490902E0,1.0160809E0,1.1332278E0,1.6901564E2,2.4760893E1,2.4715601E1,5.851078E0,5.3459892E1,5.7449055E0,9.660177E0,2.5534045E2,1.2191087E2,1.4174947E2,1.9401396E2,2.661433E0,1.6074529E0,1.1902481E0,1.9396411E0,2.5517597E0,1.5923467E1,3.6456306E1,3.838598E2,9.4560364E2,1.3490012E0,1.6958989E2,3.494872E1,1.9333E0,1.8384361E2,1.8341081E0,1.117394E0,1.1712242E0,1.0950942E0,2.7352896E0,1.359825E2,1.1554219E1,5.5163174E1,1.10368164E2,6.8196907E0,2.7975954E1,3.519297E1,4.7787437E1,1.1506712E1,3.771864E0,1.3138407E1,1.1744113E0,1.0677009E0,1.2117523E2],"tree_param":{"num_deleted":"0","num_feature":"41","num_nodes":"119","size_leaf_vector":"0"}},{"base_weights":[-3.023955E-1,-7.0191306E-1,-1.654951E-1,-7.365933E-1,2.8488407E-1,-9.611527E-2,-4.9737537E-1,-7.658121E-1,2.0385234E-1,-3.563411E-1,9.439186E-1,-2.6672078E-2,-3.8355786E-1,-9.0451723E-1,-1.0024634E-1,-8.0083215E-1,-1.268971E-1,-1.1592746E-1,9.840608E-1,-6.9951606E-1,4.8737538E-1,-4.658145E-1,1.2162416E0,-6.0328074E-2,7.558243E-1,1.133013E0,-4.953761E-1,-9.3053794E-1,2.2555518E0,-6.902023E-2,-6.176421E-1,-8.259056E-1,-9.183275E-3,-2.8532451E-2,-8.631888E-1,-4.5246232E-1,1.0443646E0,1.3115201E0,-6.0356E-1,-9.957374E-1,-1.7462285E-1,9.997122E-1,-1.6927015E-2,-7.614714E-2,-6.152265E-1,1.3664392E0,-3.0256197E-1,6.029301E-2,-2.2730054E-1,1.3639071E0,-9.116473E-1,1.839629E0,2.9834116E-1,-8.05252E-1,1.9574823E-2,-9.468123E-1,1.0020695E0,8.687516E-2,-1.6628411E-1,-9.3291664E-1,8.29371E-1,-8.625039E-1,-3.2638088E-1,3.7961295E-1,-3.3830452E-1,3.605374E-2,-9.6189976E-1,-1.0185798E0,-1.0588721E-1,-5.8854043E-1,7.6416373E-1,-6.5429807E-1,1.696737E0,3.1894514E-1,2.151123E0,9.139569E-1,-6.1248463E-1,-4.8913783E-1,5.6153345E-1,1.5982106E0,-7.683464E-2,2.237061E-1,-2.84718E-1,-3.667124E-1,2.6222833E-2,2.1467571E-1,1.590364E0,-1.0376024E0,3.1064686E-1,-4.7597322E-1,2.1170712E0,-2.2332633E-1,6.793361E-1,2.4277036E0,-8.7711674E-1,-1.9866161E-1,2.9331625E-1,-9.9765694E-1,-5.928595E-1,1.919364E-1,-4.3529215E-1,-5.7192117E-1,-9.569794E-2,-1.1264896E0,4.653085E-2],"categories":[],"categories_nodes":[],"categories_segments":[],"categories_sizes":[],"default_left":[1,1,1,1,1,1,1,1,1,1,1,1,1,1,1,1,1,1,1,1,1,1,1,1,1,1,1,1,0,1,1,1,1,1,1,1,1,1,0,0,1,0,1,0,0,1,0,1,1,1,1,1,1,1,1,1,0,1,1,1,0,0,0,0,0,0,0,0,0,0,0,0,0,0,0,0,0,0,0,0,0,0,0,0,0,0,0,0,0,0,0,0,0,0,0,0,0,0,0,0,0,0,0,0,0],"id":8,"left_children":[1,3,5,7,9,11,13,15,17,19,21,23,25,27,29,31,33,35,37,39,41,43,45,47,49,51,53,55,-1,57,59,61,63,65,67,69,71,73,-1,-1,75,-1,77,-1,-1,79,-1,81,83,85,87,89,91,93,95,97,-1,99,101,103,-1,-1,-1,-1,-1,-1,-1,-1,-1,-1,-1,-1,-1,-1,-1,-1,-1,-1,-1,-1,-1,-1,-1,-1,-1,-1,-1,-1,-1,-1,-1,-1,-1,-1,-1,-1,-1,-1,-1,-1,-1,-1,-1,-1,-1],"loss_changes":[1.929248E2,3.1025513E1,6.0510307E1,2.4066986E1,1.3560226E1,4.343492E1,7.339681E1,1.8786072E1,6.8529963E0,5.1434164E0,6.5961123E0,4.624043E1,7.236711E1,2.0542221E1,3.6927779E0,1.5873901E1,3.2383642E0,8.302668E0,4.928581E0,1.7232409E0,1.4082962E0,1.4329326E-1,3.4794064E0,3.3903336E1,7.466172E1,1.6779556E1,6.3054573E1,7.9680023E0,0E0,3.337737E0,6.7198234E0,1.3896362E1,3.400947E0,2.492885E0,5.129404E-1,3.1386852E0,6.4412675E0,5.0742245E0,0E0,0E0,3.2358553E0,0E0,1.2845774E0,0E0,0E0,4.2746964E0,0E0,5.5187023E1,2.4960705E1,1.3571381E1,3.3934631E0,1.1105118E1,3.066082E0,5.94373E1,8.982991E0,3.4006042E0,0E0,4.739066E0,3.8194773E0,2.1706896E0,0E0,0E0,0E0,0E0,0E0,0E0,0E0,0E0,0E0,0E0,0E0,0E0,0E0,0E0,0E0,0E0,0E0,0E0,0E0,0E0,0E0,0E0,0E0,0E0,0E0,0E0,0E0,0E0,0E0,0E0,0E0,0E0,0E0,0E0,0E0,0E0,0E0,0E0,0E0,0E0,0E0,0E0,0E0,0E0,0E0],"parents":[2147483647,0,0,1,1,2,2,3,3,4,4,5,5,6,6,7,7,8,8,9,9,10,10,11,11,12,12,13,13,14,14,15,15,16,16,17,17,18,18,19,19,20,20,21,21,22,22,23,23,24,24,25,25,26,26,27,27,29,29,30,30,31,31,32,32,33,33,34,34,35,35,36,36,37,37,40,40,42,42,45,45,47,47,48,48,49,49,50,50,51,51,52,52,53,53,54,54,55,55,57,57,58,58,59,59],"right_children":[2,4,6,8,10,12,14,16,18,20,22,24,26,28,30,32,34,36,38,40,42,44,46,48,50,52,54,56,-1,58,60,62,64,66,68,70,72,74,-1,-1,76,-1,78,-1,-1,80,-1,82,84,86,88,90,92,94,96,98,-1,100,102,104,-1,-1,-1,-1,-1,-1,-1,-1,-1,-1,-1,-1,-1,-1,-1,-1,-1,-1,-1,-1,-1,-1,-1,-1,-1,-1,-1,-1,-1,-1,-1,-1,-1,-1,-1,-1,-1,-1,-1,-1,-1,-1,-1,-1,-1],"split_conditions":[1.575E2,5E-1,5E-1,6.05E1,2.05E1,5E-1,4.595E2,5E-1,5E-1,1.355E2,9.45E1,2.95E1,5E-1,5E-1,5.932E3,5E-1,5E-1,5E-1,4.3215E3,4.65E1,3.3E1,2.55E1,8.902E3,5E-1,5E-1,5E-1,5.305E2,5E-1,6.7666554E-1,5E-1,1.223E3,5E-1,6.735E2,2.95E1,3.007E3,5.0245E3,9.25E1,6.75E1,-1.81068E-1,-2.9872122E-1,5.45E1,2.9991367E-1,5.55E1,-2.2844143E-2,-1.8456796E-1,1.505E2,-9.076859E-2,5E-1,5.235E2,2.155E2,8.95E2,5.5E0,3.07E2,3.5E0,8.01E2,3.915E2,3.0062085E-1,2.0015E3,5.375E2,5.05E1,2.488113E-1,-2.5875118E-1,-9.791427E-2,1.1388389E-1,-1.0149136E-1,1.0816122E-2,-2.8856993E-1,-3.0557397E-1,-3.1766165E-2,-1.7656213E-1,2.2924913E-1,-1.9628944E-1,5.0902116E-1,9.5683545E-2,6.453369E-1,2.741871E-1,-1.837454E-1,-1.4674136E-1,1.6846004E-1,4.794632E-1,-2.3050394E-2,6.7111835E-2,-8.541541E-2,-1.1001372E-1,7.86685E-3,6.4402714E-2,4.7710922E-1,-3.1128073E-1,9.319406E-2,-1.4279197E-1,6.3512135E-1,-6.69979E-2,2.0380083E-1,7.283111E-1,-2.6313505E-1,-5.9598487E-2,8.799487E-2,-2.992971E-1,-1.7785786E-1,5.758092E-2,-1.3058765E-1,-1.7157635E-1,-2.8709384E-2,-3.379469E-1,1.3959256E-2],"split_indices":[6,34,24,0,5,29,6,37,21,6,6,5,38,33,2,31,32,27,2,0,0,5,2,3,28,37,6,34,0,32,6,27,2,5,2,2,6,0,0,0,0,0,0,0,0,6,0,25,6,6,6,5,6,5,6,6,0,2,6,0,0,0,0,0,0,0,0,0,0,0,0,0,0,0,0,0,0,0,0,0,0,0,0,0,0,0,0,0,0,0,0,0,0,0,0,0,0,0,0,0,0,0,0,0,0],"split_type":[0,0,0,0,0,0,0,0,0,0,0,0,0,0,0,0,0,0,0,0,0,0,0,0,0,0,0,0,0,0,0,0,0,0,0,0,0,0,0,0,0,0,0,0,0,0,0,0,0,0,0,0,0,0,0,0,0,0,0,0,0,0,0,0,0,0,0,0,0,0,0,0,0,0,0,0,0,0,0,0,0,0,0,0,0,0,0,0,0,0,0,0,0,0,0,0,0,0,0,0,0,0,0,0,0],"sum_hessian":[3.5284656E3,8.994539E2,2.6290115E3,8.6916144E2,3.0292467E1,2.1755093E3,4.535023E2,8.4315125E2,2.6010235E1,1.5586483E1,1.4705984E1,1.7530767E3,4.2243262E2,2.2329732E2,2.3020497E2,7.9909784E2,4.4053364E1,1.9052647E1,6.957589E0,1.1201339E1,4.385144E0,2.2658498E0,1.2440135E1,1.6816692E3,7.1407455E1,2.8380493E1,3.9405212E2,2.2217342E2,1.1238923E0,2.1817119E2,1.2033772E1,7.745235E2,2.4574356E1,3.977799E1,4.275376E0,1.5241884E1,3.810761E0,5.912084E0,1.0455054E0,6.5869775E0,4.6143613E0,1.6879429E0,2.6972015E0,1.0464216E0,1.2194283E0,1.1411906E1,1.0282285E0,9.767226E2,7.0494653E2,5.2459076E1,1.8948383E1,1.47172E1,1.3663293E1,2.4566031E2,1.4839183E2,2.2082396E2,1.3494565E0,8.3862495E1,1.343087E2,1.0172643E1,1.8611294E0,7.209739E2,5.3549633E1,1.1195508E1,1.3378847E1,3.8102764E1,1.6752235E0,3.2611969E0,1.0141789E0,1.4172914E1,1.0689707E0,1.0566025E0,2.7541585E0,3.34157E0,2.570514E0,1.011737E0,3.6026244E0,1.5699935E0,1.127208E0,9.7403755E0,1.6715301E0,6.6303186E2,3.136908E2,4.5454626E2,2.5040028E2,8.956137E0,4.3502937E1,1.731519E1,1.6331948E0,1.4981005E0,1.3219099E1,5.9416604E0,7.7216325E0,4.629136E0,2.4103117E2,8.2719315E1,6.5672516E1,1.9149712E2,2.9326845E1,7.034196E1,1.3520536E1,1.8854609E1,1.1545409E2,8.368589E0,1.8040534E0],"tree_param":{"num_deleted":"0","num_feature":"41","num_nodes":"105","size_leaf_vector":"0"}},{"base_weights":[-2.416733E-1,-7.165093E-1,-1.4545487E-1,-9.5277417E-1,-5.573031E-1,-8.6280085E-2,-4.5412403E-1,-9.678679E-1,-3.5905558E-1,-4.4832522E-1,-9.699249E-1,-3.455226E-1,-3.1488024E-2,-8.6494744E-1,-7.484627E-2,-9.760092E-1,-4.5071334E-1,4.6548307E-2,-8.0001605E-1,4.0738842E-1,-5.099721E-1,-9.836721E-1,-3.5885036E-2,-5.207686E-1,5.6033015E-2,7.772085E-2,-2.0243432E-1,-8.9611876E-1,1.5812508E0,-1.3986424E-1,1.3968205E-1,-9.792433E-1,-1.5593404E-1,4.7995102E-1,-7.9008454E-1,-4.6745688E-1,5.371166E-1,7.111725E-1,-8.263332E-1,-2.0557754E-1,-7.001807E-1,-9.9702525E-1,-4.465819E-1,-5.790695E-1,6.7919445E-1,-1.3535303E-1,6.092351E-1,1.2598288E-1,-3.8286123E-1,-3.9879155E-1,-5.555525E-2,-9.1857016E-1,1.013142E0,-4.3189725E-1,-5.8614053E-2,4.529373E-1,2.1421973E-2,-4.4538942E-1,-9.832953E-1,-1.4266843E-1,1.075725E0,-7.6611197E-1,2.820991E-2,-7.415796E-1,5.7001054E-1,-1.0112312E0,-4.574099E-1,-2.3243634E-2,-6.122221E-1,-6.1826265E-1,9.680951E-1,8.549325E-1,-6.818663E-1,-1.8163244E-1,1.0538843E0,1.0471898E0,1.6934313E-1,2.2289181E-1,-1.6791798E-1,5.489785E-1,-4.8261037E-1,-4.5134965E-1,1.172708E0,-8.4116355E-2,6.5138936E-1,-9.7881854E-1,-5.2342695E-1,-5.471146E-1,5.578895E-1,-1.1536547E-2,-7.735911E-1,-1.9141023E-1,7.649207E-1,-1.1292583E0,1.5022841E-1],"categories":[],"categories_nodes":[],"categories_segments":[],"categories_sizes":[],"default_left":[1,1,1,1,1,1,1,1,1,1,1,1,1,1,1,1,1,1,0,1,1,1,0,1,1,1,1,1,0,1,1,1,0,0,0,0,0,1,0,1,1,1,1,1,1,1,1,1,1,1,1,1,0,1,1,1,1,0,0,0,0,0,0,0,0,0,0,0,0,0,0,0,0,0,0,0,0,0,0,0,0,0,0,0,0,0,0,0,0,0,0,0,0,0,0],"id":9,"left_children":[1,3,5,7,9,11,13,15,17,19,21,23,25,27,29,31,33,35,-1,37,39,41,-1,43,45,47,49,51,-1,53,55,57,-1,-1,-1,-1,-1,59,-1,61,63,65,67,69,71,73,75,77,79,81,83,85,-1,87,89,91,93,-1,-1,-1,-1,-1,-1,-1,-1,-1,-1,-1,-1,-1,-1,-1,-1,-1,-1,-1,-1,-1,-1,-1,-1,-1,-1,-1,-1,-1,-1,-1,-1,-1,-1,-1,-1,-1,-1],"loss_changes":[1.4847736E2,2.0070618E1,4.937601E1,1.6157532E0,1.4387016E1,3.2253273E1,6.771221E1,4.5713806E-1,1.2930222E0,1.4061043E1,8.379555E-1,2.7910946E1,3.504229E1,1.7331512E1,3.1895204E0,4.0133667E-1,2.0089707E0,1.4115565E0,0E0,7.4100494E0,1.4064789E1,3.514099E-2,0E0,1.9697075E1,1.2923123E1,2.5512295E1,2.1079216E1,9.791992E0,0E0,4.124881E0,1.9670236E0,1.1764526E-2,0E0,0E0,0E0,0E0,0E0,4.867412E0,0E0,1.2574714E1,8.342789E0,3.225708E-2,2.2672635E-1,1.658789E1,3.7510872E0,5.1957173E0,5.863373E0,2.959147E1,1.038714E1,2.637569E1,8.529444E0,4.36438E0,0E0,4.6290016E0,4.6358867E0,3.0761383E0,6.066442E0,0E0,0E0,0E0,0E0,0E0,0E0,0E0,0E0,0E0,0E0,0E0,0E0,0E0,0E0,0E0,0E0,0E0,0E0,0E0,0E0,0E0,0E0,0E0,0E0,0E0,0E0,0E0,0E0,0E0,0E0,0E0,0E0,0E0,0E0,0E0,0E0,0E0,0E0],"parents":[2147483647,0,0,1,1,2,2,3,3,4,4,5,5,6,6,7,7,8,8,9,9,10,10,11,11,12,12,13,13,14,14,15,15,16,16,17,17,19,19,20,20,21,21,23,23,24,24,25,25,26,26,27,27,29,29,30,30,31,31,37,37,39,39,40,40,41,41,42,42,43,43,44,44,45,45,46,46,47,47,48,48,49,49,50,50,51,51,53,53,54,54,55,55,56,56],"right_children":[2,4,6,8,10,12,14,16,18,20,22,24,26,28,30,32,34,36,-1,38,40,42,-1,44,46,48,50,52,-1,54,56,58,-1,-1,-1,-1,-1,60,-1,62,64,66,68,70,72,74,76,78,80,82,84,86,-1,88,90,92,94,-1,-1,-1,-1,-1,-1,-1,-1,-1,-1,-1,-1,-1,-1,-1,-1,-1,-1,-1,-1,-1,-1,-1,-1,-1,-1,-1,-1,-1,-1,-1,-1,-1,-1,-1,-1,-1,-1],"split_conditions":[1.305E2,7.75E1,5E-1,5E-1,5E-1,3.55E1,4.595E2,9.356E3,1.5E0,2.65E1,5E-1,5.315E2,5E-1,5E-1,1.0095E3,7.05E1,1.1194E4,6.15E1,-2.4000482E-1,5E-1,1.5E0,5E-1,-1.0765512E-2,5E-1,5E-1,5E-1,3.405E2,5E-1,4.7437525E-1,3.15E1,1.33E2,2.35E1,-4.6780214E-2,1.4398532E-1,-2.3702537E-1,-1.4023706E-1,1.6113499E-1,5E-1,-2.4789998E-1,1.955E2,5E-1,5E-1,9.25E1,5E-1,2.5E0,5E-1,1.55E1,5E-1,2.65E1,5E-1,5.75E1,3.815E2,3.0394262E-1,5E-1,5.932E3,7E0,2.1E2,-1.3361683E-1,-2.949886E-1,-4.280053E-2,3.227175E-1,-2.298336E-1,8.462973E-3,-2.2247389E-1,1.7100316E-1,-3.0336937E-1,-1.3722298E-1,-6.9730906E-3,-1.8366663E-1,-1.854788E-1,2.9042855E-1,2.5647977E-1,-2.0455989E-1,-5.4489736E-2,3.161653E-1,3.1415695E-1,5.0802942E-2,6.6867545E-2,-5.03754E-2,1.6469356E-1,-1.4478312E-1,-1.354049E-1,3.5181242E-1,-2.5234908E-2,1.9541682E-1,-2.9364556E-1,-1.570281E-1,-1.6413438E-1,1.6736686E-1,-3.4609642E-3,-2.3207735E-1,-5.742307E-2,2.2947623E-1,-3.3877748E-1,4.5068525E-2],"split_indices":[6,6,24,37,32,2,6,2,40,0,16,6,3,33,6,0,2,6,0,3,39,36,0,37,19,4,6,34,0,2,2,0,0,0,0,0,0,38,0,2,35,22,6,35,39,12,5,25,0,30,0,6,0,1,2,5,2,0,0,0,0,0,0,0,0,0,0,0,0,0,0,0,0,0,0,0,0,0,0,0,0,0,0,0,0,0,0,0,0,0,0,0,0,0,0],"split_type":[0,0,0,0,0,0,0,0,0,0,0,0,0,0,0,0,0,0,0,0,0,0,0,0,0,0,0,0,0,0,0,0,0,0,0,0,0,0,0,0,0,0,0,0,0,0,0,0,0,0,0,0,0,0,0,0,0,0,0,0,0,0,0,0,0,0,0,0,0,0,0,0,0,0,0,0,0,0,0,0,0,0,0,0,0,0,0,0,0,0,0,0,0,0,0],"sum_hessian":[3.2510933E3,5.466989E2,2.7043945E3,2.180799E2,3.2861902E2,2.2704143E3,4.339802E2,2.1205867E2,6.021222E0,2.6161124E2,6.7007805E1,3.9521106E2,1.8752032E3,2.0771184E2,2.2626834E2,2.0789857E2,4.160098E0,3.602246E0,2.4189763E0,1.7203459E1,2.4440778E2,6.598352E1,1.0242822E0,2.7492993E2,1.20281136E2,1.1445524E3,7.306508E2,2.0572403E2,1.9878197E0,1.7390906E2,5.2359287E1,2.068886E2,1.0099837E0,1.0009465E0,3.1591516E0,1.7821087E0,1.8201374E0,1.4144227E1,3.059233E0,9.479164E1,1.4961613E2,6.3547264E1,2.4362571E0,2.6268466E2,1.224527E1,8.992572E1,3.0355415E1,1.0366533E3,1.0789912E2,3.119291E2,4.187217E2,2.0384584E2,1.8781823E0,3.691432E1,1.3699474E2,1.3573878E1,3.8785408E1,2.3940265E0,2.0449457E2,4.4141707E0,9.730056E0,2.7229227E1,6.756241E1,1.4529669E2,4.31944E0,6.1065655E1,2.4816098E0,1.0058534E0,1.4304038E0,2.567802E2,5.904421E0,1.1174322E1,1.0709481E0,8.737286E1,2.5528631E0,1.45194E1,1.5836016E1,7.7977655E2,2.5687674E2,9.997797E0,9.790132E1,3.025241E2,9.404992E0,4.0330875E2,1.541297E1,1.7559532E2,2.8250525E1,3.346592E1,3.4484017E0,1.2948497E2,7.5097737E0,4.5542793E0,9.019599E0,3.1226258E0,3.566278E1],"tree_param":{"num_deleted":"0","num_feature":"41","num_nodes":"95","size_leaf_vector":"0"}},{"base_weights":[-1.8967104E-1,-6.387471E-1,-1.10889465E-1,-9.160558E-1,-4.733589E-1,-1.3237804E-1,4.7731638E-1,-9.34885E-1,-3.1165278E-1,-3.6779612E-1,-9.376038E-1,-2.7359542E-1,-3.1906758E-2,-5.6223117E-2,7.7191126E-1,-9.451854E-1,-3.54394E-1,3.24716E-2,-7.355981E-1,-2.5937706E-1,-8.773467E-1,-9.548764E-1,-3.061546E-2,-1.9291624E-1,-9.002879E-1,-4.352618E-2,9.306116E-1,5.2678686E-1,-4.7735012E-1,8.657272E-1,-9.3439627E-1,-5.0881106E-2,-9.5083755E-1,-7.2477996E-1,3.836987E-1,-4.5442536E-1,4.6471095E-1,-1.0590089E-1,-7.2953475E-1,-1.6534674E-1,-9.6198803E-1,-9.715126E-1,-4.0120122E-1,-1.0645381E-1,-6.6446334E-1,-9.5326465E-1,1.0372909E0,-9.052278E-2,1.3807513E-1,1.1778868E0,-8.818368E-1,7.795555E-1,-8.551915E-1,-7.9676396E-1,1.2446753E-1,6.17183E-1,1.328039E0,-1.01861306E-1,-1.2641104E0,-9.549161E-1,-2.3520434E-1,1.1371941E-2,-6.285709E-1,-8.512759E-1,2.5474532E-2,-6.818287E-1,2.5405717E-1,-9.8641837E-1,-3.444743E-1,-9.8961085E-1,-3.9927414E-1,-2.2481311E-2,-5.646969E-1,-2.6824978E-1,1.1025214E-1,5.8383286E-1,-8.4319067E-1,-5.4434603E-1,-9.67285E-1,1.9657457E0,-6.4528173E-1,4.8305154E-2,-1.873364E-1,1.6047394E-1,-4.1273114E-1,1.4368104E0,7.033159E-2,-2.8126445E-1,9.939484E-1,9.7503334E-2,-9.478016E-1,5.52724E-1,-6.605583E-1,1.0901604E0,2.1635754E-1,-1.3035612E-1,1.4435003E0],"categories":[],"categories_nodes":[],"categories_segments":[],"categories_sizes":[],"default_left":[1,1,1,1,1,1,1,1,1,1,1,1,1,1,1,1,1,1,0,1,1,1,0,1,1,1,1,1,1,1,1,0,1,0,0,0,0,1,1,1,1,1,1,1,1,1,1,1,1,1,0,1,0,1,1,1,1,0,0,0,0,0,0,0,0,0,0,0,0,0,0,0,0,0,0,0,0,0,0,0,0,0,0,0,0,0,0,0,0,0,0,0,0,0,0,0,0],"id":10,"left_children":[1,3,5,7,9,11,13,15,17,19,21,23,25,27,29,31,33,35,-1,37,39,41,-1,43,45,47,49,51,53,55,57,-1,59,-1,-1,-1,-1,61,63,65,67,69,71,73,75,77,79,81,83,85,-1,87,-1,89,91,93,95,-1,-1,-1,-1,-1,-1,-1,-1,-1,-1,-1,-1,-1,-1,-1,-1,-1,-1,-1,-1,-1,-1,-1,-1,-1,-1,-1,-1,-1,-1,-1,-1,-1,-1,-1,-1,-1,-1,-1,-1],"loss_changes":[1.0775854E2,2.0419342E1,3.285273E1,1.6295776E0,1.3714287E1,3.5511948E1,1.4448477E1,6.4082336E-1,9.867137E-1,1.27759E1,7.932663E-1,5.2439888E1,1.6412916E1,8.484872E0,1.0271801E1,7.5909424E-1,1.4933037E0,1.1793793E0,0E0,1.4029794E1,2.3043137E0,8.4487915E-2,0E0,3.756846E1,1.3143433E1,1.2365708E1,8.8845415E0,5.7455997E0,3.9427805E0,5.678463E0,8.4892464E-1,0E0,2.3857117E-1,0E0,0E0,0E0,0E0,9.1130705E0,4.428423E0,1.3755502E0,2.082138E-1,1.1526489E-1,1.8578017E-1,2.7424625E1,3.2363785E1,1.3725281E-1,6.939724E0,1.5471648E1,3.7423558E0,4.4393272E0,0E0,3.193983E0,0E0,1.8749495E0,2.9866138E0,7.0909595E0,3.3714943E0,0E0,0E0,0E0,0E0,0E0,0E0,0E0,0E0,0E0,0E0,0E0,0E0,0E0,0E0,0E0,0E0,0E0,0E0,0E0,0E0,0E0,0E0,0E0,0E0,0E0,0E0,0E0,0E0,0E0,0E0,0E0,0E0,0E0,0E0,0E0,0E0,0E0,0E0,0E0,0E0],"parents":[2147483647,0,0,1,1,2,2,3,3,4,4,5,5,6,6,7,7,8,8,9,9,10,10,11,11,12,12,13,13,14,14,15,15,16,16,17,17,19,19,20,20,21,21,23,23,24,24,25,25,26,26,27,27,28,28,29,29,30,30,32,32,37,37,38,38,39,39,40,40,41,41,42,42,43,43,44,44,45,45,46,46,47,47,48,48,49,49,51,51,53,53,54,54,55,55,56,56],"right_children":[2,4,6,8,10,12,14,16,18,20,22,24,26,28,30,32,34,36,-1,38,40,42,-1,44,46,48,50,52,54,56,58,-1,60,-1,-1,-1,-1,62,64,66,68,70,72,74,76,78,80,82,84,86,-1,88,-1,90,92,94,96,-1,-1,-1,-1,-1,-1,-1,-1,-1,-1,-1,-1,-1,-1,-1,-1,-1,-1,-1,-1,-1,-1,-1,-1,-1,-1,-1,-1,-1,-1,-1,-1,-1,-1,-1,-1,-1,-1,-1,-1],"split_conditions":[1.305E2,7.75E1,5E-1,5E-1,5E-1,3.135E2,1.55E1,5E-1,1.5E0,5E-1,5E-1,5E-1,5E-1,3.75E1,1.011E3,2.35E1,2.85E1,5.135E2,-2.2067943E-1,5E-1,2.85E1,5E-1,-9.184638E-3,5E-1,5E-1,8.535E2,9.425E2,5.14E2,1.5E0,3.385E2,5.7E1,-1.5264332E-2,6.95E1,-2.17434E-1,1.15109615E-1,-1.3632761E-1,1.394133E-1,5E-1,5E-1,9.8E1,5.85E1,5E-1,3.55E1,8.95E2,5E-1,2.65E1,5E1,1.5E0,5E-1,5E-1,-2.6455104E-1,4E0,-2.5655746E-1,4.05E1,5E-1,9.005E2,2.6E1,-3.0558392E-2,-3.7923315E-1,-2.8647485E-1,-7.0561305E-2,3.4115824E-3,-1.8857129E-1,-2.5538278E-1,7.64236E-3,-2.0454861E-1,7.621715E-2,-2.9592553E-1,-1.0334229E-1,-2.9688326E-1,-1.1978225E-1,-6.7443936E-3,-1.6940908E-1,-8.0474935E-2,3.3075646E-2,1.7514986E-1,-2.5295722E-1,-1.6330382E-1,-2.901855E-1,5.897237E-1,-1.9358453E-1,1.4491547E-2,-5.620092E-2,4.8142184E-2,-1.23819344E-1,4.3104312E-1,2.1099478E-2,-8.437934E-2,2.9818454E-1,2.9251002E-2,-2.843405E-1,1.658172E-1,-1.9816749E-1,3.2704812E-1,6.490727E-2,-3.910684E-2,4.330501E-1],"split_indices":[6,6,34,37,32,6,5,14,40,29,16,24,26,0,6,0,0,2,0,25,0,36,0,29,33,6,6,6,39,6,0,0,0,0,0,0,0,33,40,2,0,22,0,2,38,0,0,39,22,37,0,5,0,0,11,2,0,0,0,0,0,0,0,0,0,0,0,0,0,0,0,0,0,0,0,0,0,0,0,0,0,0,0,0,0,0,0,0,0,0,0,0,0,0,0,0,0],"split_type":[0,0,0,0,0,0,0,0,0,0,0,0,0,0,0,0,0,0,0,0,0,0,0,0,0,0,0,0,0,0,0,0,0,0,0,0,0,0,0,0,0,0,0,0,0,0,0,0,0,0,0,0,0,0,0,0,0,0,0,0,0,0,0,0,0,0,0,0,0,0,0,0,0,0,0,0,0,0,0,0,0,0,0,0,0,0,0,0,0,0,0,0,0,0,0,0,0],"sum_hessian":[3.0468425E3,4.536736E2,2.593169E3,1.6779337E2,2.8588028E2,2.5025208E3,9.064819E1,1.6219366E2,5.5996866E0,2.343782E2,5.1502068E1,1.0395951E3,1.4629257E3,3.253441E1,5.811378E1,1.5874854E2,3.445132E0,3.6004996E0,1.9991872E0,1.9450223E2,3.9875965E1,5.0487778E1,1.0142871E0,9.2218286E2,1.1741223E2,1.4464194E3,1.650625E1,1.3539447E1,1.8994963E1,5.5552055E1,2.5617247E0,1.0598316E0,1.576887E2,2.305989E0,1.1391431E0,1.6690578E0,1.9314418E0,1.4755898E2,4.6943253E1,4.5505357E0,3.5325428E1,4.8282383E1,2.2053974E0,7.8032837E2,1.418545E2,1.14781906E2,2.6303234E0,1.1494537E3,2.969656E2,1.4832712E1,1.6735375E0,1.1814455E1,1.7249913E0,1.2197323E1,6.7976403E0,3.764738E1,1.7904675E1,1.0980542E0,1.4636705E0,1.5646263E2,1.2260748E0,1.2131702E2,2.624197E1,4.0315147E1,6.6281037E0,1.7588551E0,2.7916803E0,3.3406387E1,1.9190394E0,4.609516E1,2.1872196E0,1.0079938E0,1.1974034E0,4.4662988E2,3.3369852E2,1.7482662E1,1.2437185E2,5.1252007E0,1.0965671E2,1.5865543E0,1.043769E0,4.7246033E2,6.7699347E2,2.8604224E2,1.0923393E1,1.1781223E1,3.0514889E0,1.9338448E0,9.88061E0,1.813623E0,1.03837E1,4.5897193E0,2.207921E0,1.6480486E1,2.1166897E1,1.3040584E0,1.6600615E1],"tree_param":{"num_deleted":"0","num_feature":"41","num_nodes":"97","size_leaf_vector":"0"}},{"base_weights":[-1.470278E-1,-7.46168E-1,-1.02956876E-1,-8.7526053E-1,-4.88475E-1,-5.8522016E-2,-3.6556113E-1,-8.939672E-1,-8.813951E-2,-5.7849556E-1,4.887412E-1,-3.4273937E-2,-5.4271245E-1,-8.023456E-1,-7.325908E-2,-9.117179E-1,-3.797688E-1,8.152217E-1,-6.8972003E-1,-6.331815E-1,5.372862E-1,-6.487361E-1,2.6368544E0,8.76086E-3,-3.5551497E-1,1.5477695E0,-8.1744933E-1,-8.436525E-1,8.6779636E-1,-5.1240306E-2,-7.509539E-1,-9.686142E-1,-7.48635E-1,-6.3739854E-1,9.255038E-2,-3.1040916E-1,-8.2246786E-1,-2.8304917E-1,1.0336752E0,-3.3592157E-2,-8.015228E-1,8.2609974E-2,-2.8846878E-1,1.3768111E0,-6.444727E-1,5.0418156E-1,2.361355E0,-8.954683E-1,4.5425984E-1,-8.7111527E-1,8.3538294E-1,2.3769464E0,-5.1852167E-1,7.818685E-2,-1.474466E-1,-1.1761434E0,-1.319324E-1,-9.7677284E-1,-1.3532096E-1,-8.098456E-1,-1.4245829E-1,-7.6179034E-1,-1.4589712E-1,5.367506E-1,-4.6134958E-1,-5.4853404E-1,-9.580421E-1,-1.209549E-2,4.3710378E-1,5.6755966E-1,-3.711182E-1,1.823043E0,1.9739921E-1,-9.4219786E-1,-2.2573704E-1,8.38718E-1,-7.00502E-1,9.5182973E-1,2.8585613E0,-1.5817177E-1,-9.6156156E-1,-3.30598E-1,8.140315E-1,-6.82525E-1,-9.905082E-1,-6.252793E-1,-1.5901053E-1,1.8385972E-1,-1.8900938E-1,-2.873966E-1,5.8526304E-2,-3.9315704E-1,2.8821093E-1],"categories":[],"categories_nodes":[],"categories_segments":[],"categories_sizes":[],"default_left":[1,1,1,1,1,1,1,1,1,1,1,1,1,1,1,1,1,0,0,1,1,1,0,1,1,1,1,1,1,1,1,1,1,1,0,1,1,0,0,0,0,1,1,1,1,1,1,1,1,1,0,0,1,1,1,0,1,0,0,0,0,0,0,0,0,0,0,0,0,0,0,0,0,0,0,0,0,0,0,0,0,0,0,0,0,0,0,0,0,0,0,0,0],"id":11,"left_children":[1,3,5,7,9,11,13,15,17,19,21,23,25,27,29,31,33,-1,-1,35,37,39,-1,41,43,45,47,49,51,53,55,57,59,61,-1,63,65,-1,-1,-1,-1,67,69,71,73,75,77,79,81,83,-1,-1,85,87,89,-1,91,-1,-1,-1,-1,-1,-1,-1,-1,-1,-1,-1,-1,-1,-1,-1,-1,-1,-1,-1,-1,-1,-1,-1,-1,-1,-1,-1,-1,-1,-1,-1,-1,-1,-1,-1,-1],"loss_changes":[7.64467E1,6.172806E0,3.1492453E1,1.8490143E0,6.3072033E0,2.7114609E1,4.9817387E1,8.200302E-1,2.816877E0,4.194376E0,1.7149643E1,3.0443258E1,6.4527405E1,1.1530144E1,3.4702253E0,4.14299E-1,7.8638244E-1,0E0,0E0,3.4515934E0,1.714593E0,4.367664E-1,0E0,4.2667274E1,1.3111086E2,9.966114E0,1.0130959E1,7.794159E0,1.0167378E1,2.8606048E0,1.7730684E0,4.6361542E-1,1.2264977E0,1.3308978E-1,0E0,3.3209217E0,8.7231255E-1,0E0,0E0,0E0,0E0,5.227396E1,2.7580452E1,1.938099E1,2.7668297E1,3.4198422E0,2.2636147E0,4.3642426E0,2.056147E0,2.7300491E0,0E0,0E0,1.7512977E-2,2.8078692E0,3.810191E0,0E0,5.6433064E-1,0E0,0E0,0E0,0E0,0E0,0E0,0E0,0E0,0E0,0E0,0E0,0E0,0E0,0E0,0E0,0E0,0E0,0E0,0E0,0E0,0E0,0E0,0E0,0E0,0E0,0E0,0E0,0E0,0E0,0E0,0E0,0E0,0E0,0E0,0E0,0E0],"parents":[2147483647,0,0,1,1,2,2,3,3,4,4,5,5,6,6,7,7,8,8,9,9,10,10,11,11,12,12,13,13,14,14,15,15,16,16,19,19,20,20,21,21,23,23,24,24,25,25,26,26,27,27,28,28,29,29,30,30,31,31,32,32,33,33,35,35,36,36,41,41,42,42,43,43,44,44,45,45,46,46,47,47,48,48,49,49,52,52,53,53,54,54,56,56],"right_children":[2,4,6,8,10,12,14,16,18,20,22,24,26,28,30,32,34,-1,-1,36,38,40,-1,42,44,46,48,50,52,54,56,58,60,62,-1,64,66,-1,-1,-1,-1,68,70,72,74,76,78,80,82,84,-1,-1,86,88,90,-1,92,-1,-1,-1,-1,-1,-1,-1,-1,-1,-1,-1,-1,-1,-1,-1,-1,-1,-1,-1,-1,-1,-1,-1,-1,-1,-1,-1,-1,-1,-1,-1,-1,-1,-1,-1,-1],"split_conditions":[9.35E1,7.75E1,5E-1,9.356E3,5E-1,5E-1,4.115E2,5E-1,1.2E1,5E-1,1.4E1,5E-1,1.65E1,5E-1,5E-1,5E-1,4.25E1,2.4456653E-1,-2.0691602E-1,5E-1,3.55E1,8.15E1,7.9105633E-1,5E-1,1.65E1,5E-1,9.67E2,5E-1,1.55E1,5E-1,5.71E2,6.95E1,5E-1,1.95E1,2.7765116E-2,5.5E0,1.5E0,-8.491475E-2,3.1010258E-1,-1.0077648E-2,-2.4045685E-1,2.05E1,5E-1,5.85E1,4.525E2,2.887E3,1.5E0,2.75E1,1.515E2,5E-1,2.5061488E-1,7.13084E-1,1.038E3,1.0635E3,1.75E1,-3.5284305E-1,5.2E1,-2.9303187E-1,-4.059629E-2,-2.429537E-1,-4.2737488E-2,-2.2853711E-1,-4.3769136E-2,1.610252E-1,-1.3840488E-1,-1.6456021E-1,-2.8741264E-1,-3.628647E-3,1.3113114E-1,1.7026791E-1,-1.11335464E-1,5.469129E-1,5.9219766E-2,-2.8265938E-1,-6.772111E-2,2.516154E-1,-2.101506E-1,2.8554893E-1,8.5756844E-1,-4.7451533E-2,-2.8846848E-1,-9.91794E-2,2.4420945E-1,-2.047575E-1,-2.9715246E-1,-1.875838E-1,-4.770316E-2,5.515792E-2,-5.670282E-2,-8.621898E-2,1.7557891E-2,-1.1794712E-1,8.646328E-2],"split_indices":[6,6,24,2,27,28,6,37,5,35,5,33,5,33,9,19,0,0,0,18,0,6,0,29,5,38,6,34,5,18,2,0,27,5,0,5,39,0,0,0,0,5,38,0,6,2,39,5,2,32,0,0,2,2,5,0,0,0,0,0,0,0,0,0,0,0,0,0,0,0,0,0,0,0,0,0,0,0,0,0,0,0,0,0,0,0,0,0,0,0,0,0,0],"split_type":[0,0,0,0,0,0,0,0,0,0,0,0,0,0,0,0,0,0,0,0,0,0,0,0,0,0,0,0,0,0,0,0,0,0,0,0,0,0,0,0,0,0,0,0,0,0,0,0,0,0,0,0,0,0,0,0,0,0,0,0,0,0,0,0,0,0,0,0,0,0,0,0,0,0,0,0,0,0,0,0,0,0,0,0,0,0,0,0,0,0,0,0,0],"sum_hessian":[2.8971062E3,1.974096E2,2.6996965E3,1.2992604E2,6.7483574E1,2.3100408E3,3.896556E2,1.2677731E2,3.1487255E0,6.2164993E1,5.3185854E0,2.2008918E3,1.09149055E2,1.5551941E2,2.3413622E2,1.2179958E2,4.9777308E0,1.1167015E0,2.032024E0,5.9672867E1,2.4921243E0,3.933631E0,1.3849545E0,1.9417408E3,2.5915103E2,1.21402025E1,9.700885E1,1.5224876E2,3.270644E0,2.2781012E2,6.3260984E0,8.663498E1,3.5164597E1,2.9947278E0,1.9830031E0,2.303438E1,3.663849E1,1.1015236E0,1.3906008E0,1.0253336E0,2.9082973E0,1.5558895E3,3.858513E2,3.650939E1,2.2264163E2,6.027902E0,6.1123004E0,9.168016E1,5.328692E0,1.5027205E2,1.9767087E0,1.2238173E0,2.0468266E0,9.721425E1,1.3059587E2,3.2166579E0,3.1094408E0,8.562446E1,1.0105213E0,3.1634241E1,3.5303564E0,1.9510264E0,1.0437013E0,3.0968926E0,1.9937487E1,1.3800322E1,2.2838167E1,1.2286208E3,3.2726865E2,3.3457134E1,3.5239417E2,2.6091805E1,1.0417587E1,1.2939232E2,9.3249306E1,4.9555492E0,1.0723529E0,2.3538234E0,3.758477E0,7.8214974E0,8.3858665E1,1.7003632E0,3.6283288E0,6.0858315E1,8.9413734E1,1.0081928E0,1.038634E0,6.988677E1,2.732748E1,7.752532E1,5.3070545E1,1.9569414E0,1.1524996E0],"tree_param":{"num_deleted":"0","num_feature":"41","num_nodes":"93","size_leaf_vector":"0"}},{"base_weights":[-1.1389223E-1,-4.699126E-1,-5.49866E-2,-8.29085E-1,-3.4242404E-1,-7.117526E-2,6.115415E-1,-8.513861E-1,-7.0895456E-2,-2.4571785E-1,-8.92485E-1,3.7625846E-2,-1.5258025E-1,8.378594E-1,-1.0798188E-1,-8.734628E-1,-3.30448E-1,6.0409856E-1,-6.402898E-1,-1.6367146E-1,-7.6083153E-1,-9.946642E-1,-5.154763E-1,2.0622635E-1,-4.3190237E-2,-3.7561828E-1,-7.624074E-2,1.2033883E0,3.1613213E-1,-6.679005E-1,1.9793193E-1,-9.4548374E-1,-6.8103135E-1,-5.7289344E-1,7.326099E-2,-2.6435226E-2,-6.40862E-1,2.0066209E-3,-9.009617E-1,8.910703E-2,-8.949536E-1,-2.7992936E-2,2.9444563E-1,-1.4526828E-1,1.6216479E-1,-5.2367292E-2,-5.1879686E-1,-1.05200835E-1,3.6947662E-1,1.3866291E0,-6.625666E-1,-9.9675345E-1,5.9755605E-1,5.6627538E-2,-9.977082E-1,7.495958E-1,-2.0660596E-1,-9.5606935E-1,-1.4249012E-1,-8.277777E-1,-2.9331732E-1,-7.092263E-1,-1.3967147E-1,-4.5093492E-1,1.5141763E-1,-8.421469E-1,2.9461858E-1,-6.8449503E-1,4.3005928E-1,-2.2291097E-1,-9.2594194E-1,9.293146E-1,-7.101775E-1,2.0294155E-1,-7.1930575E-1,2.2994031E-1,1.7356291E0,-2.927461E-1,9.57187E-2,2.2145481E-1,-3.355665E-1,-1.783148E-1,9.652924E-1,-3.8992053E-1,-8.5114735E-1,-1.1585203E-1,8.671138E-1,-1.0129917E-1,6.1431456E-1,4.6494952E-1,1.4389362E0,-1.3102958E0,-1.5938815E-1,1.3874289E0,3.1706208E-1,1.4821695E-1,1.1913793E0,7.6943016E-1,-6.337359E-1],"categories":[],"categories_nodes":[],"categories_segments":[],"categories_sizes":[],"default_left":[1,1,1,1,1,1,1,1,1,1,1,1,1,1,1,1,1,0,0,1,1,0,1,1,1,1,1,1,1,1,1,1,1,1,0,1,1,1,1,1,0,1,1,1,1,1,1,1,1,1,0,1,1,0,0,1,1,0,0,0,0,0,0,0,0,0,0,0,0,0,0,0,0,0,0,0,0,0,0,0,0,0,0,0,0,0,0,0,0,0,0,0,0,0,0,0,0,0,0],"id":12,"left_children":[1,3,5,7,9,11,13,15,17,19,21,23,25,27,29,31,33,-1,-1,35,37,-1,39,41,43,45,47,49,51,53,55,57,59,61,-1,63,65,67,69,71,-1,73,75,77,79,81,83,85,87,89,-1,91,93,-1,-1,95,97,-1,-1,-1,-1,-1,-1,-1,-1,-1,-1,-1,-1,-1,-1,-1,-1,-1,-1,-1,-1,-1,-1,-1,-1,-1,-1,-1,-1,-1,-1,-1,-1,-1,-1,-1,-1,-1,-1,-1,-1,-1,-1],"loss_changes":[5.833431E1,1.78003E1,2.5820042E1,1.6770859E0,1.5376144E1,2.0670189E1,9.331654E0,8.5829926E-1,1.934487E0,1.0471788E1,1.1613388E0,1.3625596E1,2.2698307E1,7.8742924E0,2.6098158E0,6.7362213E-1,5.962597E-1,0E0,0E0,1.4229821E1,3.6548595E0,0E0,2.6819422E0,6.702551E0,1.42016325E1,1.5713955E1,1.2891132E1,9.49963E0,7.685413E0,1.3323364E0,2.4145637E0,4.2988586E-1,1.4336538E0,1.166141E-1,0E0,1.2903055E1,9.38957E0,2.146018E0,2.8263664E-1,4.208043E0,0E0,1.4443168E1,2.1487097E1,1.6103409E1,6.715577E0,1.3696099E1,9.759121E0,9.790991E0,7.089649E0,4.4826508E-1,0E0,7.788532E-1,3.199523E0,0E0,0E0,1.018929E0,3.2498107E0,0E0,0E0,0E0,0E0,0E0,0E0,0E0,0E0,0E0,0E0,0E0,0E0,0E0,0E0,0E0,0E0,0E0,0E0,0E0,0E0,0E0,0E0,0E0,0E0,0E0,0E0,0E0,0E0,0E0,0E0,0E0,0E0,0E0,0E0,0E0,0E0,0E0,0E0,0E0,0E0,0E0,0E0],"parents":[2147483647,0,0,1,1,2,2,3,3,4,4,5,5,6,6,7,7,8,8,9,9,10,10,11,11,12,12,13,13,14,14,15,15,16,16,19,19,20,20,22,22,23,23,24,24,25,25,26,26,27,27,28,28,29,29,30,30,31,31,32,32,33,33,35,35,36,36,37,37,38,38,39,39,41,41,42,42,43,43,44,44,45,45,46,46,47,47,48,48,49,49,51,51,52,52,55,55,56,56],"right_children":[2,4,6,8,10,12,14,16,18,20,22,24,26,28,30,32,34,-1,-1,36,38,-1,40,42,44,46,48,50,52,54,56,58,60,62,-1,64,66,68,70,72,-1,74,76,78,80,82,84,86,88,90,-1,92,94,-1,-1,96,98,-1,-1,-1,-1,-1,-1,-1,-1,-1,-1,-1,-1,-1,-1,-1,-1,-1,-1,-1,-1,-1,-1,-1,-1,-1,-1,-1,-1,-1,-1,-1,-1,-1,-1,-1,-1,-1,-1,-1,-1,-1,-1],"split_conditions":[1.395E2,7.75E1,5E-1,9.356E3,5E-1,5E-1,2.45E1,5E-1,1.2E1,5E-1,2.4E1,3.05E1,2.415E2,1.3785E3,2.65E1,5E-1,4.25E1,1.8122958E-1,-1.9208695E-1,5E-1,2.85E1,-2.9839927E-1,1.5E0,7.5E0,5.735E2,5E-1,5E-1,5E-1,1.821E3,4.1E1,2.455E2,6.8E1,6.25E1,1.5E0,2.1978298E-2,6.5E0,5E-1,1.5E0,3.5E0,3.35E1,-2.6848608E-1,5E-1,5E-1,9.13E2,5E-1,5E-1,5E-1,5E-1,1.5E0,1.525E2,-1.9876999E-1,5E-1,4.5E0,1.6988263E-2,-2.9931247E-1,1.3975E3,2.8E1,-2.8682083E-1,-4.2747036E-2,-2.4833332E-1,-8.79952E-2,-2.127679E-1,-4.1901443E-2,-1.3528048E-1,4.542529E-2,-2.5264406E-1,8.8385575E-2,-2.0534852E-1,1.2901779E-1,-6.68733E-2,-2.777826E-1,2.787944E-1,-2.1305326E-1,6.0882468E-2,-2.1579173E-1,6.8982095E-2,5.206888E-1,-8.782383E-2,2.871561E-2,6.643645E-2,-1.0066995E-1,-5.3494442E-2,2.8958774E-1,-1.16976164E-1,-2.553442E-1,-3.475561E-2,2.6013416E-1,-3.038975E-2,1.8429437E-1,1.3948487E-1,4.316809E-1,-3.9308876E-1,-4.7816448E-2,4.1622868E-1,9.511863E-2,4.4465087E-2,3.574138E-1,2.3082906E-1,-1.9012077E-1],"split_indices":[6,6,31,2,32,18,5,37,5,29,5,0,6,2,5,19,0,0,0,25,0,0,39,5,6,38,37,14,2,0,6,0,6,39,0,5,40,39,5,0,0,27,27,2,33,25,25,26,40,6,0,38,5,0,0,2,5,0,0,0,0,0,0,0,0,0,0,0,0,0,0,0,0,0,0,0,0,0,0,0,0,0,0,0,0,0,0,0,0,0,0,0,0,0,0,0,0,0,0],"split_type":[0,0,0,0,0,0,0,0,0,0,0,0,0,0,0,0,0,0,0,0,0,0,0,0,0,0,0,0,0,0,0,0,0,0,0,0,0,0,0,0,0,0,0,0,0,0,0,0,0,0,0,0,0,0,0,0,0,0,0,0,0,0,0,0,0,0,0,0,0,0,0,0,0,0,0,0,0,0,0,0,0,0,0,0,0,0,0,0,0,0,0,0,0,0,0,0,0,0,0],"sum_hessian":[2.7818176E3,3.9393457E2,2.387883E3,1.01755775E2,2.921788E2,2.3321333E3,5.5749718E1,9.872888E1,3.0268977E0,2.4972192E2,4.2456882E1,9.983436E2,1.3337896E3,4.2284992E1,1.3464725E1,9.406578E1,4.663095E0,1.3571279E0,1.6697698E0,2.1654825E2,3.317368E1,3.2114666E1,1.0342216E1,3.22981E2,6.753627E2,3.3910876E2,9.9468085E2,2.409628E1,1.8188713E1,4.3392444E0,9.125481E0,6.560032E1,2.8465464E1,2.6516092E0,2.0114858E0,1.6900044E2,4.75478E1,5.3011355E0,2.7872545E1,4.2832794E0,6.058936E0,8.8554474E1,2.3442651E2,4.5131516E2,2.240475E2,1.04514496E2,2.3459425E2,9.3471265E2,5.9968155E1,2.2175478E1,1.9208001E0,2.761954E0,1.5426759E1,1.6164645E0,2.72278E0,3.499831E0,5.6256495E0,6.455863E1,1.041688E0,1.9826344E1,8.639119E0,1.5323037E0,1.1193054E0,4.9446342E1,1.1955411E2,3.9210705E1,8.337091E0,1.8058543E0,3.4952812E0,1.3429784E0,2.6529566E1,2.0088713E0,2.274408E0,6.6909615E1,2.1644857E1,2.254933E2,8.933209E0,2.798434E2,1.7147176E2,2.006956E2,2.33519E1,9.3738075E1,1.0776424E1,1.7060974E2,6.3984516E1,9.254556E2,9.257031E0,2.0717907E1,3.9250248E1,1.7219864E0,2.0453491E1,1.5985941E0,1.16336E0,3.008481E0,1.2418278E1,2.0477808E0,1.4520501E0,1.468524E0,4.157125E0],"tree_param":{"num_deleted":"0","num_feature":"41","num_nodes":"99","size_leaf_vector":"0"}},{"base_weights":[-8.6921126E-2,-7.6512426E-1,-6.4683944E-2,-8.79011E-1,-5.3936934E-1,-1.3101715E-1,6.961735E-2,-7.2949134E-2,-9.093096E-1,-8.055971E-1,1.6209444E-2,4.2496715E-3,-2.3446654E-1,9.3687125E-2,-5.198845E-1,-9.077622E-2,-1.8323466E-2,-8.478931E-2,-9.260804E-1,1.0661053E-1,-8.7972516E-1,9.6711457E-1,-2.3711358E-1,-4.0229727E-2,6.0620415E-1,-4.2427492E-1,-6.659776E-2,1.9047792E-1,-7.152079E-2,1.2001996E0,-8.249562E-1,-9.37843E-1,-1.9273978E-1,-9.254535E-1,-2.0791363E-2,1.6901533E-1,-6.274026E-1,8.19051E-3,-2.9960683E-1,-1.1886634E-1,8.7756395E-1,-4.594355E-1,6.741831E-1,-1.3319077E-1,2.4932495E-1,3.0923608E-1,-1.0522144E-1,-1.1374688E-1,5.8197355E-1,1.1699986E-1,1.6893736E0,-9.826625E-1,2.1244776E-1,-9.5516276E-1,-3.6097437E-1,-3.8880274E-1,6.5135753E-1,-1.1648057E-2,-7.7712363E-1,-2.0670448E-1,7.739606E-2,-6.287881E-1,-2.413339E-2,-2.965764E-1,8.012125E-1,6.58443E-1,2.1004515E0,-5.190865E-1,1.457746E-1,8.495838E-1,-7.561567E-1,-1.8871753E-1,1.0001064E-1,4.1829193E-1,-2.094058E-1,3.9478242E-1,-2.189106E-1,5.618313E-1,-2.8301314E-1,-4.953377E-1,-2.7280085E-2,2.724056E-2,2.9914558E0,-1.6897121E-1,-1.0519112E0,5.394459E-1,-2.9916078E-1],"categories":[],"categories_nodes":[],"categories_segments":[],"categories_sizes":[],"default_left":[1,1,1,1,1,1,1,1,1,1,1,1,1,1,1,0,0,0,1,0,1,0,1,1,1,1,1,1,1,1,1,1,0,0,0,1,1,1,1,1,1,1,1,1,1,1,1,1,1,0,0,1,1,0,0,0,0,0,0,0,0,0,0,0,0,0,0,0,0,0,0,0,0,0,0,0,0,0,0,0,0,0,0,0,0,0,0],"id":13,"left_children":[1,3,5,7,9,11,13,15,17,19,21,23,25,27,29,-1,-1,-1,31,-1,33,-1,35,37,39,41,43,45,47,49,51,53,-1,-1,-1,55,57,59,61,63,65,67,69,71,73,75,77,79,81,-1,-1,83,85,-1,-1,-1,-1,-1,-1,-1,-1,-1,-1,-1,-1,-1,-1,-1,-1,-1,-1,-1,-1,-1,-1,-1,-1,-1,-1,-1,-1,-1,-1,-1,-1,-1,-1],"loss_changes":[4.0456E1,1.7157822E0,2.3186089E1,1.2775612E0,4.620243E0,2.4374933E1,1.2262694E1,1.3366584E-3,6.536064E-1,1.5190535E0,2.896156E0,2.0261093E1,3.1420902E1,1.3251853E1,1.879003E1,0E0,0E0,0E0,2.6597977E-1,0E0,7.5065994E-1,0E0,1.6190208E0,8.853479E0,1.0348965E1,1.8193855E1,1.1077549E1,1.8374151E1,8.525874E0,2.7257733E0,5.0193443E0,1.6189575E-1,0E0,0E0,0E0,1.7237756E0,4.5925426E-1,8.862678E0,1.0040614E1,2.700123E0,8.801491E0,1.6295387E1,4.3472915E0,5.641611E0,7.198432E0,1.6934326E1,1.7996693E1,9.51544E0,2.5007568E1,0E0,0E0,1.2704525E0,9.4805646E-1,0E0,0E0,0E0,0E0,0E0,0E0,0E0,0E0,0E0,0E0,0E0,0E0,0E0,0E0,0E0,0E0,0E0,0E0,0E0,0E0,0E0,0E0,0E0,0E0,0E0,0E0,0E0,0E0,0E0,0E0,0E0,0E0,0E0,0E0],"parents":[2147483647,0,0,1,1,2,2,3,3,4,4,5,5,6,6,7,7,8,8,9,9,10,10,11,11,12,12,13,13,14,14,18,18,20,20,22,22,23,23,24,24,25,25,26,26,27,27,28,28,29,29,30,30,31,31,35,35,36,36,37,37,38,38,39,39,40,40,41,41,42,42,43,43,44,44,45,45,46,46,47,47,48,48,51,51,52,52],"right_children":[2,4,6,8,10,12,14,16,18,20,22,24,26,28,30,-1,-1,-1,32,-1,34,-1,36,38,40,42,44,46,48,50,52,54,-1,-1,-1,56,58,60,62,64,66,68,70,72,74,76,78,80,82,-1,-1,84,86,-1,-1,-1,-1,-1,-1,-1,-1,-1,-1,-1,-1,-1,-1,-1,-1,-1,-1,-1,-1,-1,-1,-1,-1,-1,-1,-1,-1,-1,-1,-1,-1,-1,-1],"split_conditions":[7.85E1,6.25E1,5E-1,2.5E0,5E-1,1.5E0,5E-1,3.945E2,2.45E1,6.35E1,6.55E1,5E-1,3.615E2,5E-1,1.65E1,-2.7232867E-2,-5.49704E-3,-2.5436794E-2,6.25E1,3.198316E-2,2.5E0,2.9013437E-1,1.65E1,5E-1,5.5E0,5E-1,9.82E2,5E-1,5E-1,2.545E2,7.95E2,3.05E1,-5.7821937E-2,-2.7763605E-1,-6.237409E-3,9.75E2,1.2E2,5E-1,4.725E2,7.92E2,5E-1,5.95E1,3.5E0,2.45E1,5E-1,5E-1,1.5E0,1.855E2,1.05E1,3.5099957E-2,5.068121E-1,1E0,5E-1,-2.8654885E-1,-1.0829232E-1,-1.1664083E-1,1.9540727E-1,-3.4944173E-3,-2.331371E-1,-6.2011346E-2,2.3218818E-2,-1.8863644E-1,-7.2400174E-3,-8.8972926E-2,2.4036376E-1,1.975329E-1,6.301355E-1,-1.5572596E-1,4.3732382E-2,2.5487515E-1,-2.2684701E-1,-5.661526E-2,3.0003194E-2,1.2548758E-1,-6.282174E-2,1.18434735E-1,-6.567319E-2,1.6854939E-1,-8.490394E-2,-1.4860131E-1,-8.184026E-3,8.172168E-3,8.974368E-1,-5.0691366E-2,-3.155734E-1,1.6183376E-1,-8.974823E-2],"split_indices":[6,6,21,5,21,39,28,2,0,6,6,25,6,3,5,0,0,0,0,0,40,0,5,24,5,35,6,25,27,6,6,5,0,0,0,2,2,20,6,6,7,0,39,5,19,33,39,6,5,0,0,2,18,0,0,0,0,0,0,0,0,0,0,0,0,0,0,0,0,0,0,0,0,0,0,0,0,0,0,0,0,0,0,0,0,0,0],"split_type":[0,0,0,0,0,0,0,0,0,0,0,0,0,0,0,0,0,0,0,0,0,0,0,0,0,0,0,0,0,0,0,0,0,0,0,0,0,0,0,0,0,0,0,0,0,0,0,0,0,0,0,0,0,0,0,0,0,0,0,0,0,0,0,0,0,0,0,0,0,0,0,0,0,0,0,0,0,0,0,0,0,0,0,0,0,0,0],"sum_hessian":[2.6848042E3,8.417505E1,2.6006292E3,5.4026577E1,3.0148466E1,1.740833E3,8.5979626E2,2.0806563E0,5.1945923E1,2.007751E1,1.0070956E1,7.54818E2,9.8601495E2,8.268754E2,3.2920826E1,1.069755E0,1.0109013E0,1.1562378E0,5.0789684E1,1.4759926E0,1.8601519E1,1.5258019E0,8.545155E0,7.0374994E2,5.1068066E1,4.6204996E2,5.2396497E2,5.2130444E2,3.0557098E2,4.5172243E0,2.84036E1,4.9713425E1,1.0762601E0,1.7587729E1,1.0137893E0,4.4654365E0,4.079718E0,5.9385767E2,1.0989229E2,1.4060507E1,3.700756E1,4.4828262E2,1.3767352E1,4.3322446E2,9.074052E1,3.7189783E2,1.494066E2,2.8780045E2,1.777053E1,1.790848E0,2.7263763E0,2.4701277E1,3.7023244E0,4.7627693E1,2.0857291E0,2.1606362E0,2.3048003E0,1.0087698E0,3.0709481E0,1.4417694E2,4.4968073E2,4.9481285E1,6.0411003E1,1.2352354E1,1.7081529E0,3.268872E1,4.3188396E0,4.0819247E2,4.0090137E1,1.262517E1,1.1421822E0,3.5006296E2,8.316151E1,6.637893E1,2.4361588E1,3.2027408E2,5.162375E1,3.0987026E1,1.18419586E2,5.2293377E1,2.3550708E2,1.5266942E1,2.5035892E0,2.207118E0,2.2494158E1,2.2254813E0,1.476843E0],"tree_param":{"num_deleted":"0","num_feature":"41","num_nodes":"87","size_leaf_vector":"0"}},{"base_weights":[-6.607925E-2,-7.182208E-1,-4.9052246E-2,-7.586313E-1,-9.4736785E-2,-2.3634782E-1,-1.1319388E-2,-8.748638E-1,-4.826184E-1,1.7807923E-1,-5.637164E-1,-4.8348543E-1,-2.802281E-2,6.525451E-2,-1.1952871E-1,-8.906816E-1,-1.1423208E-1,-8.881513E-1,-2.0717834E-1,-2.6187602E-1,4.7905937E-1,-3.9578017E-2,-6.144007E-1,3.9045122E-1,-9.455262E-2,8.626111E-2,-3.3723897E-1,-2.946682E-1,1.3370159E-2,-9.106971E-1,-2.5287172E-1,4.090018E-1,-4.3695137E-1,-6.8381834E-1,2.1433406E-1,-6.703298E-1,5.263064E-1,1.7357618E-1,1.1110942E0,-1.923103E-1,1.5351151E-1,2.061903E-1,-4.67552E-3,8.868429E-1,-6.291323E-1,-9.9269405E-2,-7.165274E-1,3.4232116E-1,-3.649082E-2,-9.3185914E-1,-2.5382954E-1,-3.6975038E-1,1.3627503E0,1.9193582E-2,-8.332043E-1,1.6846445E-1,-7.9274756E-1,4.0281248E-1,-6.5521604E-1,-7.0879096E-1,5.1414615E-1,9.191838E-1,-4.8837787E-1,-3.1973702E-1,4.5569673E-1,-2.4026959E-1,1.4009876E0,1.4665951E-1,-3.0901673E-1,3.9506748E-1,-2.5501315E-2,2.4243242E-1,-1.529267E-1,1.2931733E-1,-1.020794E-1,2.0471965E-1,1.2732764E0,-7.596953E-1,5.1987417E-2,1.8578662E-1,-3.0015486E-1,1.2342014E0,-7.730653E-1,1.0463841E-1,6.793367E-1,-4.8314966E-2,9.243666E-1],"categories":[],"categories_nodes":[],"categories_segments":[],"categories_sizes":[],"default_left":[1,1,1,1,1,1,1,1,1,1,0,1,1,1,1,1,0,0,1,0,0,1,1,1,1,1,1,1,1,1,0,1,1,1,1,1,1,1,1,1,1,1,1,1,1,1,1,1,1,0,0,0,0,0,0,0,0,0,0,0,0,0,0,0,0,0,0,0,0,0,0,0,0,0,0,0,0,0,0,0,0,0,0,0,0,0,0],"id":14,"left_children":[1,3,5,7,9,11,13,15,17,19,-1,21,23,25,27,29,-1,-1,31,-1,-1,33,35,37,39,41,43,45,47,49,-1,51,53,55,57,59,61,63,65,67,69,71,73,75,77,79,81,83,85,-1,-1,-1,-1,-1,-1,-1,-1,-1,-1,-1,-1,-1,-1,-1,-1,-1,-1,-1,-1,-1,-1,-1,-1,-1,-1,-1,-1,-1,-1,-1,-1,-1,-1,-1,-1,-1,-1],"loss_changes":[2.8964548E1,1.6005974E0,1.7992296E1,1.5731583E0,7.635493E-1,2.1965828E1,1.7577106E1,4.1002655E-1,2.1238236E0,6.6000605E-1,0E0,1.1319767E1,6.515674E0,1.0533029E1,2.0464016E1,2.9978943E-1,0E0,0E0,2.105392E0,0E0,0E0,7.593755E0,9.965805E0,4.8265424E0,4.918103E0,1.2886412E1,2.2648546E1,3.1193806E1,8.225527E0,3.177452E-1,0E0,3.6328042E0,1.8949726E0,1.3505797E0,5.7407E0,6.9279175E0,3.4796636E0,3.7463832E0,3.174551E0,5.7834005E0,2.4982786E0,6.668955E0,8.796219E0,2.9866533E0,4.531025E0,1.4966128E1,1.4178589E1,5.216175E0,4.995167E0,0E0,0E0,0E0,0E0,0E0,0E0,0E0,0E0,0E0,0E0,0E0,0E0,0E0,0E0,0E0,0E0,0E0,0E0,0E0,0E0,0E0,0E0,0E0,0E0,0E0,0E0,0E0,0E0,0E0,0E0,0E0,0E0,0E0,0E0,0E0,0E0,0E0,0E0],"parents":[2147483647,0,0,1,1,2,2,3,3,4,4,5,5,6,6,7,7,8,8,9,9,11,11,12,12,13,13,14,14,15,15,18,18,21,21,22,22,23,23,24,24,25,25,26,26,27,27,28,28,29,29,31,31,32,32,33,33,34,34,35,35,36,36,37,37,38,38,39,39,40,40,41,41,42,42,43,43,44,44,45,45,46,46,47,47,48,48],"right_children":[2,4,6,8,10,12,14,16,18,20,-1,22,24,26,28,30,-1,-1,32,-1,-1,34,36,38,40,42,44,46,48,50,-1,52,54,56,58,60,62,64,66,68,70,72,74,76,78,80,82,84,86,-1,-1,-1,-1,-1,-1,-1,-1,-1,-1,-1,-1,-1,-1,-1,-1,-1,-1,-1,-1,-1,-1,-1,-1,-1,-1,-1,-1,-1,-1,-1,-1,-1,-1,-1,-1,-1,-1],"split_conditions":[7.75E1,5E-1,3.75E1,5E-1,1.5E0,3.545E2,5E-1,6.65E1,1.875E2,5.135E2,-1.6911493E-1,5E-1,2.95E1,5E-1,3.805E2,5E-1,-3.4269623E-2,-2.664454E-1,2.95E1,-7.856281E-2,1.4371781E-1,-5E-1,6.05E1,2.5E0,5E-1,3.75E1,1.65E1,5E-1,1.76E2,9.356E3,-7.586152E-2,1.85E1,9.935E2,5E-1,5E-1,5E-1,5E-1,5E-1,-1.24E2,-1.525E2,5E-1,5E-1,1.5E0,5E-1,7.065E2,5E-1,4.5E0,1.15E2,5.95E1,-2.7955776E-1,-7.614887E-2,-1.10925116E-1,4.088251E-1,5.758075E-3,-2.499613E-1,5.0539337E-2,-2.3782428E-1,1.20843746E-1,-1.9656482E-1,-2.1263729E-1,1.5424386E-1,2.7575514E-1,-1.4651337E-1,-9.592111E-2,1.3670902E-1,-7.208088E-2,4.202963E-1,4.3997854E-2,-9.2705026E-2,1.1852025E-1,-7.6503945E-3,7.272973E-2,-4.587801E-2,3.87952E-2,-3.0623822E-2,6.1415896E-2,3.8198295E-1,-2.279086E-1,1.5596226E-2,5.5735987E-2,-9.0046465E-2,3.7026045E-1,-2.319196E-1,3.1391524E-2,2.0380102E-1,-1.4494491E-2,2.7730998E-1],"split_indices":[6,37,2,19,40,6,3,0,2,2,0,38,0,28,6,12,0,0,0,0,0,2,0,39,21,0,5,32,2,2,0,5,2,40,4,31,23,3,2,2,10,33,39,38,6,38,5,2,0,0,0,0,0,0,0,0,0,0,0,0,0,0,0,0,0,0,0,0,0,0,0,0,0,0,0,0,0,0,0,0,0,0,0,0,0,0,0],"split_type":[0,0,0,0,0,0,0,0,0,0,0,0,0,0,0,0,0,0,0,0,0,0,0,0,0,0,0,0,0,0,0,0,0,0,0,0,0,0,0,0,0,0,0,0,0,0,0,0,0,0,0,0,0,0,0,0,0,0,0,0,0,0,0,0,0,0,0,0,0,0,0,0,0,0,0,0,0,0,0,0,0,0,0,0,0,0,0],"sum_hessian":[2.610647E3,6.538011E1,2.5452668E3,6.1196926E1,4.183183E0,4.2590878E2,2.1193582E3,4.1535965E1,1.9660963E1,3.036858E0,1.1463252E0,1.9420319E2,2.317056E2,1.2413317E3,8.780265E2,4.05223E1,1.013663E0,7.0527105E0,1.2608253E1,1.2863984E0,1.7504597E0,4.4526173E1,1.4967702E2,3.1116056E1,2.0058954E2,1.1805054E3,6.082626E1,3.782872E2,4.997393E2,3.8874508E1,1.6477935E0,3.2127166E0,9.395536E0,1.210911E1,3.2417065E1,1.430744E2,6.6026115E0,2.4871828E1,6.2442293E0,1.4404767E2,5.6541878E1,5.0855057E2,6.7195483E2,1.1319333E1,4.9506924E1,2.593811E2,1.1890608E2,6.500594E1,4.3473337E2,3.725562E1,1.6188887E0,2.1056972E0,1.1070194E0,4.8100405E0,4.585496E0,1.3103251E0,1.0798785E1,2.7083387E1,5.3336744E0,1.389637E2,4.110696E0,4.8275447E0,1.7750669E0,9.00043E0,1.5871398E1,1.1331463E0,5.111083E0,3.6827328E1,1.0722034E2,2.3553024E1,3.2988853E1,4.6222745E2,4.6323105E1,2.8271402E2,3.8924084E2,4.6467557E0,6.6725774E0,4.1446697E1,8.06023E0,1.0725775E2,1.5212335E2,2.7624846E0,1.1614359E2,3.8889393E1,2.611655E1,4.303868E2,4.34655E0],"tree_param":{"num_deleted":"0","num_feature":"41","num_nodes":"87","size_leaf_vector":"0"}},{"base_weights":[-5.1088184E-2,-3.0454233E-1,-1.7166764E-2,-2.1896513E-1,-8.507167E-1,1.488319E-2,-1.6926637E-1,-7.5730044E-1,-1.5879183E-1,-8.9332515E-1,-9.765783E-2,4.329924E-2,-2.0817208E-1,-3.6105323E-1,6.0038245E-3,6.0280573E-2,-8.176328E-1,-7.285535E-2,-5.6258875E-1,-9.8008627E-1,-5.7840836E-1,-5.6030875E-1,4.5329928E-1,7.726957E-2,-1.3839258E-1,-6.375059E-1,-8.931823E-2,-4.2184642E-1,2.717594E-1,-1.2847771E-1,1.8629609E-1,-8.8175416E-1,-3.023204E-1,2.1937374E-2,-6.392653E-1,-7.787704E-1,1.3022909E-1,-1.8005191E-1,-8.54574E-1,9.6267514E-2,-2.7961403E-1,-3.0024245E-1,2.5368407E-1,-7.1269834E-1,6.3442314E-1,-1.1753573E-1,5.0144327E-1,3.0373472E-1,-4.7117037E-1,4.7379404E-1,-5.6733334E-1,-1.2093407E-2,-4.0068626E-1,4.825337E-2,5.570499E-1,-9.247221E-1,-5.2318048E-2,2.8687507E-1,-6.6371506E-1,-3.0427596E-1,1.4482829E-1,-7.201166E-1,3.7303084E-1,6.6942245E-1,-8.6166203E-1,1.3282919E0,-4.3324342E-1,-7.1857214E-1,3.822569E-1,7.468737E-2,6.0248053E-1,7.6047146E-1,-6.3874733E-1,4.7451836E-1,-4.2734617E-1,5.1749164E-1,-1.7915303E-1,-7.778949E-1,7.598748E-1,-3.4237945E-1,-5.1687066E-2,8.795665E-1,-7.631129E-1,9.656126E-1,-7.1661866E-1,-4.9746922E-1,1.1343457E0,-1.9036627E-1,6.786846E-1,-7.6551116E-1,-6.831751E-2,1.1230948E-1,-5.414584E-1,-5.2040625E-1,2.9096296E-1,1.0657177E0,-1.4085085E-2,-8.259462E-1,7.5656813E-1],"categories":[],"categories_nodes":[],"categories_segments":[],"categories_sizes":[],"default_left":[1,1,1,1,1,1,1,1,1,1,1,1,1,1,1,0,1,1,1,0,1,0,0,1,1,1,1,1,1,1,1,1,1,1,1,1,1,1,0,1,1,1,1,1,0,1,1,1,1,1,1,1,1,1,1,0,0,0,0,0,0,0,0,0,0,0,0,0,0,0,0,0,0,0,0,0,0,0,0,0,0,0,0,0,0,0,0,0,0,0,0,0,0,0,0,0,0,0,0],"id":15,"left_children":[1,3,5,7,9,11,13,15,17,19,21,23,25,27,29,-1,31,33,35,-1,37,-1,-1,39,41,43,45,47,49,51,53,55,57,59,61,63,65,67,-1,69,71,73,75,77,-1,79,81,83,85,87,89,91,93,95,97,-1,-1,-1,-1,-1,-1,-1,-1,-1,-1,-1,-1,-1,-1,-1,-1,-1,-1,-1,-1,-1,-1,-1,-1,-1,-1,-1,-1,-1,-1,-1,-1,-1,-1,-1,-1,-1,-1,-1,-1,-1,-1,-1,-1],"loss_changes":[2.1917107E1,1.3878757E1,1.0970406E1,8.350754E0,1.2095776E0,1.1793639E1,1.31677685E1,1.3330612E0,8.16501E0,4.7489357E-1,1.0918573E0,1.01946535E1,1.0672546E1,7.310066E0,5.009579E0,0E0,5.3656197E-1,1.0544578E1,6.2942142E0,0E0,1.0205951E0,0E0,0E0,9.456162E0,1.6591562E1,4.796623E0,2.8234806E0,6.2641964E0,3.1510048E0,3.745171E0,4.4902005E0,7.034111E-1,1.0871698E0,6.8182225E0,2.5726776E0,4.37706E0,7.792126E0,1.9818989E0,0E0,1.4387828E1,2.6837137E1,1.8388432E1,8.837757E0,4.7540436E0,0E0,2.3377523E0,4.3769917E0,8.454897E0,7.3428307E0,2.0679705E0,3.1897902E-1,5.5891795E0,3.0843878E0,4.163657E0,7.2061315E0,0E0,0E0,0E0,0E0,0E0,0E0,0E0,0E0,0E0,0E0,0E0,0E0,0E0,0E0,0E0,0E0,0E0,0E0,0E0,0E0,0E0,0E0,0E0,0E0,0E0,0E0,0E0,0E0,0E0,0E0,0E0,0E0,0E0,0E0,0E0,0E0,0E0,0E0,0E0,0E0,0E0,0E0,0E0,0E0],"parents":[2147483647,0,0,1,1,2,2,3,3,4,4,5,5,6,6,7,7,8,8,9,9,10,10,11,11,12,12,13,13,14,14,16,16,17,17,18,18,20,20,23,23,24,