{"learner":{"attributes":{"best_iteration":"99","best_ntree_limit":"100","scikit_learn":"{\"use_label_encoder\": false, \"n_estimators\": 100, \"objective\": \"binary:logistic\", \"max_depth\": null, \"max_leaves\": null, \"max_bin\": null, \"grow_policy\": null, \"learning_rate\": null, \"verbosity\": null, \"booster\": null, \"tree_method\": null, \"gamma\": null, \"min_child_weight\": null, \"max_delta_step\": null, \"subsample\": null, \"sampling_method\": null, \"colsample_bytree\": null, \"colsample_bylevel\": null, \"colsample_bynode\": null, \"reg_alpha\": null, \"reg_lambda\": null, \"scale_pos_weight\": null, \"base_score\": null, \"missing\": NaN, \"num_parallel_tree\": null, \"random_state\": null, \"n_jobs\": null, \"monotone_constraints\": null, \"interaction_constraints\": null, \"importance_type\": null, \"gpu_id\": null, \"validate_parameters\": null, \"predictor\": null, \"enable_categorical\": false, \"max_cat_to_onehot\": null, \"eval_metric\": null, \"early_stopping_rounds\": null, \"callbacks\": null, \"classes_\": [0, 1], \"n_classes_\": 2, \"_estimator_type\": \"classifier\"}"},"feature_names":[],"feature_types":[],"gradient_booster":{"model":{"gbtree_model_param":{"num_parallel_tree":"1","num_trees":"100","size_leaf_vector":"0"},"tree_info":[0,0,0,0,0,0,0,0,0,0,0,0,0,0,0,0,0,0,0,0,0,0,0,0,0,0,0,0,0,0,0,0,0,0,0,0,0,0,0,0,0,0,0,0,0,0,0,0,0,0,0,0,0,0,0,0,0,0,0,0,0,0,0,0,0,0,0,0,0,0,0,0,0,0,0,0,0,0,0,0,0,0,0,0,0,0,0,0,0,0,0,0,0,0,0,0,0,0,0,0],"trees":[{"base_weights":[-1.5355524E0,-1.6956035E0,-2.679803E-1,-1.7669541E0,4.5173746E-1,-5.769231E-1,3.4705883E-1,-1.7919447E0,-6.2704307E-1,-1.0434783E0,8.740741E-1,-6.645987E-1,1.1937984E0,1.8099548E-2,5.032538E-1,-1.9025482E0,-1.5891429E0,-1.2178771E0,4.3887146E-2,-1.1641791E0,-1.8181819E-1,1.0439367E0,4.6530613E-1,-1.0711786E0,-4.611819E-1,1.5324675E0,6.4285713E-1,-6.2650606E-2,1.0967742E0,7.2115386E-1,3.2156864E-1,-1.074074E0,-1.9113579E0,-1.3092622E0,-1.7861335E0,-1.6585366E0,-8.2828283E-1,-2.583732E-1,5.964912E-1,-9.3877554E-1,-1.6551725E0,3.6363637E-1,-9.3333334E-1,6.378378E-1,1.2268041E0,8.4210527E-1,-1.4432989E-1,-1.1196172E0,7.2E-1,-7.314917E-1,-1.6242424E-1,1.6164384E0,-0E0,9.189189E-1,8.695652E-2,2.4875621E-1,-3.4862384E-1,-0E0,1.2592592E0,1.1287129E0,5.830721E-1,-2.3076923E-1,4.585366E-1,-1.6119403E0,-1.8604651E-1,-1.9518204E0,-1.7847835E0,-1.4156734E0,-4.923077E-1,2.3529412E-1,-1.7959509E0,1E-1,-1.037037E0,-6.1349694E-2,-8.8E-1,-1.5384616E-1,1.1515151E0,-1.0387597E0,-1.8181819E-1,-1.7692307E0,-4E-1,8.5714287E-1,-3.3333334E-1,-2.2222222E-1,-1.2E0,7.848101E-1,-1.9354838E-1,1.2580645E0,4E-1,1.1648352E0,3.3846155E-1,-4.1975307E-1,1E0,-1.3371869E0,-7.538941E-1,-1.5384616E-1,1.25E0,-8.831169E-1,-4.0273038E-1,2.9962547E-2,-5.084746E-1,1.0967742E0,-0E0,1.2E0,-5.882353E-1,3.7777779E-1,-7.2E-1,-4.5410627E-1,1.2E0,1.4545455E0,2.2222222E-1,1.4375E0,5.365854E-1,6.305085E-1,-0E0,7.4074075E-2,-1.1111112E0,-2.739726E-2,5.5718476E-1],"categories":[],"categories_nodes":[],"categories_segments":[],"categories_sizes":[],"default_left":[1,1,1,1,1,1,1,1,1,1,1,1,1,1,1,1,1,1,1,1,1,1,1,1,1,1,1,1,1,1,1,1,1,1,1,0,1,1,1,1,1,1,1,1,1,1,1,1,1,1,1,0,0,1,1,1,1,0,1,1,1,1,1,0,0,0,0,0,0,0,0,0,0,0,0,0,0,0,0,0,0,0,0,0,0,0,0,0,0,0,0,0,0,0,0,0,0,0,0,0,0,0,0,0,0,0,0,0,0,0,0,0,0,0,0,0,0,0,0],"id":0,"left_children":[1,3,5,7,9,11,13,15,17,19,21,23,25,27,29,31,33,35,37,39,41,43,45,47,49,51,53,55,57,59,61,63,65,67,69,-1,71,73,75,77,79,81,83,85,87,89,91,93,95,97,99,-1,-1,101,103,105,107,-1,109,111,113,115,117,-1,-1,-1,-1,-1,-1,-1,-1,-1,-1,-1,-1,-1,-1,-1,-1,-1,-1,-1,-1,-1,-1,-1,-1,-1,-1,-1,-1,-1,-1,-1,-1,-1,-1,-1,-1,-1,-1,-1,-1,-1,-1,-1,-1,-1,-1,-1,-1,-1,-1,-1,-1,-1,-1,-1,-1],"loss_changes":[1.8341562E3,1.2309551E3,1.930623E2,2.2024805E2,1.644665E2,1.0574179E2,1.7460697E1,1.675332E2,6.674916E1,5.768509E0,1.3574722E1,5.283014E1,5.0322647E0,9.693609E0,8.89341E0,3.3822266E1,1.4594385E2,1.3991486E1,1.3474784E1,4.007416E0,3.7212121E0,9.781311E0,1.4191298E1,1.9394928E1,3.4727898E1,2.4771423E0,2.0685754E0,9.326077E0,1.3811235E0,5.194626E0,9.751521E0,2.5492668E1,2.1417969E1,9.621167E1,3.1693848E1,0E0,9.695961E0,6.345337E0,1.2046128E1,2.592514E0,1.3681717E0,2.177489E0,4.4444442E-1,5.8032207E0,2.0038605E0,5.782303E0,8.062747E0,1.5622101E1,3.086923E0,1.0922554E1,1.3746435E1,0E0,0E0,1.5117693E0,5.0271096E0,6.552769E0,9.447643E0,0E0,1.0437708E0,3.8454018E0,2.2057915E0,7.0598283E0,4.928755E0,0E0,0E0,0E0,0E0,0E0,0E0,0E0,0E0,0E0,0E0,0E0,0E0,0E0,0E0,0E0,0E0,0E0,0E0,0E0,0E0,0E0,0E0,0E0,0E0,0E0,0E0,0E0,0E0,0E0,0E0,0E0,0E0,0E0,0E0,0E0,0E0,0E0,0E0,0E0,0E0,0E0,0E0,0E0,0E0,0E0,0E0,0E0,0E0,0E0,0E0,0E0,0E0,0E0,0E0,0E0,0E0],"parents":[2147483647,0,0,1,1,2,2,3,3,4,4,5,5,6,6,7,7,8,8,9,9,10,10,11,11,12,12,13,13,14,14,15,15,16,16,17,17,18,18,19,19,20,20,21,21,22,22,23,23,24,24,25,25,26,26,27,27,28,28,29,29,30,30,31,31,32,32,33,33,34,34,36,36,37,37,38,38,39,39,40,40,41,41,42,42,43,43,44,44,45,45,46,46,47,47,48,48,49,49,50,50,53,53,54,54,55,55,56,56,58,58,59,59,60,60,61,61,62,62],"right_children":[2,4,6,8,10,12,14,16,18,20,22,24,26,28,30,32,34,36,38,40,42,44,46,48,50,52,54,56,58,60,62,64,66,68,70,-1,72,74,76,78,80,82,84,86,88,90,92,94,96,98,100,-1,-1,102,104,106,108,-1,110,112,114,116,118,-1,-1,-1,-1,-1,-1,-1,-1,-1,-1,-1,-1,-1,-1,-1,-1,-1,-1,-1,-1,-1,-1,-1,-1,-1,-1,-1,-1,-1,-1,-1,-1,-1,-1,-1,-1,-1,-1,-1,-1,-1,-1,-1,-1,-1,-1,-1,-1,-1,-1,-1,-1,-1,-1,-1,-1],"split_conditions":[5.105E2,5E-1,8.355E2,6.05E1,1.395E2,5E-1,5E-1,2.065E2,2.055E2,1.325E2,5E-1,5E-1,5E-1,2.95E1,5E-1,-9.330127E-1,5E-1,1.26E2,3.625E2,6.830127E-1,5E-1,2.125E2,6.830127E-1,6.15E1,6.335E2,7.7E1,2.5E0,6.830127E-1,8.77E2,1.34E2,8E0,2.05E1,-2.5E-1,5E-1,-9.330127E-1,-4.9756098E-1,1.385E2,5E-1,-2.5E-1,4.5E0,2.5E-1,2.243E3,1.5E0,2.65E1,9.330127E-1,2.5E-1,2.05E1,6.685E2,1.568E3,5E-1,-6.1232336E-17,4.8493153E-1,-0E0,5E-1,-2.5E-1,5E-1,5.85E1,-0E0,4.1205E3,5E-1,5.55E1,2.5E-1,8.905E2,-4.835821E-1,-5.5813957E-2,-5.8554614E-1,-5.354351E-1,-4.2470202E-1,-1.4769231E-1,7.058824E-2,-5.387853E-1,3.0000001E-2,-3.1111112E-1,-1.8404908E-2,-2.64E-1,-4.615385E-2,3.4545454E-1,-3.1162792E-1,-5.454546E-2,-5.307692E-1,-1.20000005E-1,2.5714287E-1,-1.0000001E-1,-6.666667E-2,-3.6E-1,2.3544304E-1,-5.8064517E-2,3.7741938E-1,1.20000005E-1,3.494506E-1,1.0153847E-1,-1.2592593E-1,3E-1,-4.011561E-1,-2.2616823E-1,-4.615385E-2,3.75E-1,-2.6493508E-1,-1.20819114E-1,8.988764E-3,-1.5254238E-1,3.2903227E-1,-0E0,3.6E-1,-1.7647061E-1,1.1333334E-1,-2.1600002E-1,-1.3623188E-1,3.6E-1,4.3636367E-1,6.666667E-2,4.3125E-1,1.6097562E-1,1.8915255E-1,-0E0,2.2222223E-2,-3.3333337E-1,-8.219179E-3,1.6715543E-1],"split_indices":[6,22,6,0,6,22,18,6,6,6,3,18,3,5,27,29,3,6,6,29,24,6,29,0,6,0,32,29,6,2,2,5,30,32,29,0,6,32,30,32,30,2,31,5,30,30,5,6,2,28,30,0,0,8,29,16,0,0,2,26,0,30,6,0,0,0,0,0,0,0,0,0,0,0,0,0,0,0,0,0,0,0,0,0,0,0,0,0,0,0,0,0,0,0,0,0,0,0,0,0,0,0,0,0,0,0,0,0,0,0,0,0,0,0,0,0,0,0,0],"split_type":[0,0,0,0,0,0,0,0,0,0,0,0,0,0,0,0,0,0,0,0,0,0,0,0,0,0,0,0,0,0,0,0,0,0,0,0,0,0,0,0,0,0,0,0,0,0,0,0,0,0,0,0,0,0,0,0,0,0,0,0,0,0,0,0,0,0,0,0,0,0,0,0,0,0,0,0,0,0,0,0,0,0,0,0,0,0,0,0,0,0,0,0,0,0,0,0,0,0,0,0,0,0,0,0,0,0,0,0,0,0,0,0,0,0,0,0,0,0,0],"sum_hessian":[9.042E3,8.028E3,1.014E3,7.77E3,2.58E2,6.75E2,3.39E2,7.60275E3,1.6725E2,5.65E1,2.015E2,6.4375E2,3.125E1,1.095E2,2.295E2,4.91425E3,2.6885E3,8.85E1,7.875E1,4.925E1,7.25E0,1.4125E2,6.025E1,2.1325E2,4.305E2,1.825E1,1.3E1,1.0275E2,6.75E0,1.03E2,1.265E2,5.3E1,4.86125E3,1.11375E3,1.57475E3,4E1,4.85E1,5.125E1,2.75E1,3.575E1,1.35E1,4.5E0,2.75E0,4.525E1,9.6E1,3.7E1,2.325E1,2.08E2,5.25E0,2.2525E2,2.0525E2,1.725E1,1E0,8.25E0,4.75E0,4.925E1,5.35E1,1E0,5.75E0,2.425E1,7.875E1,2.5E1,1.015E2,3.25E1,2.05E1,3.67275E3,1.1885E3,9.8475E2,1.29E2,7.5E0,1.56725E3,9E0,3.95E1,3.975E1,1.15E1,1.2E1,1.55E1,3.125E1,4.5E0,1.2E1,1.5E0,2.5E0,2E0,1.25E0,1.5E0,3.85E1,6.75E0,9.2E1,4E0,2.175E1,1.525E1,1.925E1,4E0,1.2875E2,7.925E1,2.25E0,3E0,1.53E2,7.225E1,1.325E2,7.275E1,6.75E0,1.5E0,1.5E0,3.25E0,4.4E1,5.25E0,5.075E1,2.75E0,4.5E0,1.25E0,1.5E1,9.25E0,7.275E1,6E0,1.925E1,5.75E0,1.725E1,8.425E1],"tree_param":{"num_deleted":"0","num_feature":"33","num_nodes":"119","size_leaf_vector":"0"}},{"base_weights":[-1.1576033E0,-1.3066179E0,-2.8576097E-1,-1.3610126E0,2.86575E-1,-5.026143E-1,2.1753746E-1,-1.3801274E0,-5.11996E-1,-7.791981E-1,6.0630924E-1,-5.7649285E-1,9.527391E-1,-2.4247501E-2,3.3440566E-1,-3.3091882E-1,-1.3929223E0,-8.566062E-1,4.5724742E-2,-1.2357329E0,-6.01713E-1,7.3864967E-1,2.8726727E-1,-9.0048087E-1,-4.202913E-1,9.981668E-1,-9.574977E-2,-2.4748044E-1,2.7097893E-1,4.6249366E-1,1.315737E-1,-1.3007976E0,1.440882E-1,-1.4994813E0,-1.2803581E0,-1.2556827E0,-5.7983285E-1,1.7643425E-1,-6.3568974E-1,-7.578189E-1,-1.5158898E0,-6.705689E-1,6.4978415E-1,7.865396E-2,7.980717E-1,5.8787894E-1,-1.9983274E-1,1.429814E-1,-9.6216065E-1,-5.932887E-1,-1.6938736E-1,1.2435127E0,6.278221E-1,-8.4737897E-1,1.6904255E-2,1.23622835E-1,1.1025696E0,-5.655058E-1,4.8988846E-1,-4.161846E-1,3.0351955E-1,-1.5640252E0,-6.9425803E-1,-4.250918E-1,8.011699E-1,-1.5290501E0,-1.4076909E0,-1.5070896E0,-1.1500292E0,-1.3936415E0,-8.9433134E-1,-7.5254655E-1,8.310575E-2,-2.1727474E-1,5.167171E-1,-1.1865625E0,2.9780773E-2,-1.848354E-2,-1.2350581E0,-7.3425984E-1,3.698712E-1,6.7931324E-1,-8.222409E-1,1.0025151E0,6.356526E-1,6.872311E-1,-9.9830437E-1,-5.8248603E-1,4.0196896E-1,-2.123019E-1,8.269622E-1,-1.1210374E0,-6.3835484E-1,-3.4552392E-1,-8.378401E-1,-3.0069752E-3,-4.6636125E-1,1.2948256E0,1.8147889E-1,1.4035481E0,4.010235E-1,1.6674653E-1,-1.0501916E0,-3.2495436E-1,5.9957E-1,3.355738E-1,-2.1131232E-1,1.3729404E0,-3.5186734E-2,6.0634816E-1,-1.205769E0,4.4420102E-1,1.4082849E0,1.0389661E-1,-8.196867E-1,4.1997522E-1,-6.166371E-1],"categories":[],"categories_nodes":[],"categories_segments":[],"categories_sizes":[],"default_left":[1,1,1,1,1,1,1,1,1,1,1,1,1,1,1,1,1,1,1,1,1,1,1,1,1,1,0,1,1,1,1,1,1,1,1,1,1,1,1,1,0,1,0,1,1,1,1,1,1,1,1,1,1,1,1,1,1,1,1,1,1,0,0,0,0,0,0,0,0,0,0,0,0,0,0,0,0,0,0,0,0,0,0,0,0,0,0,0,0,0,0,0,0,0,0,0,0,0,0,0,0,0,0,0,0,0,0,0,0,0,0,0,0,0,0,0,0],"id":1,"left_children":[1,3,5,7,9,11,13,15,17,19,21,23,25,27,29,31,33,35,37,39,41,43,45,47,49,51,-1,53,55,57,59,61,63,65,67,69,71,73,75,77,-1,79,-1,81,83,85,87,89,91,93,95,97,99,101,103,105,107,109,111,113,115,-1,-1,-1,-1,-1,-1,-1,-1,-1,-1,-1,-1,-1,-1,-1,-1,-1,-1,-1,-1,-1,-1,-1,-1,-1,-1,-1,-1,-1,-1,-1,-1,-1,-1,-1,-1,-1,-1,-1,-1,-1,-1,-1,-1,-1,-1,-1,-1,-1,-1,-1,-1,-1,-1,-1,-1],"loss_changes":[1.1021221E3,6.2843555E2,1.3544554E2,1.1302539E2,8.228587E1,9.3759125E1,1.0578745E1,9.153906E1,3.000175E1,3.7812881E0,7.6092606E0,4.140573E1,2.1083527E0,8.162119E0,6.492916E0,3.8829445E1,7.928711E1,9.9205475E0,5.499632E0,8.172035E-1,4.0687313E0,5.047249E0,8.309877E0,1.7367065E1,2.4161194E1,2.9074936E0,0E0,1.1190527E1,6.402976E0,4.620163E0,9.454239E0,3.3325844E0,2.1734207E1,7.270996E0,9.5757324E1,6.790428E-1,6.79335E0,7.0165443E0,3.683856E0,2.5974112E0,0E0,2.9522686E0,0E0,6.9826E0,3.328331E0,6.1782064E0,5.3228264E0,4.0178847E0,1.2294434E1,1.9732231E1,1.1338924E1,1.0400124E0,2.6382089E0,4.6126432E0,1.0132569E1,3.3689594E0,2.4804487E0,4.082881E0,5.699913E0,5.1391163E0,8.3981495E0,0E0,0E0,0E0,0E0,0E0,0E0,0E0,0E0,0E0,0E0,0E0,0E0,0E0,0E0,0E0,0E0,0E0,0E0,0E0,0E0,0E0,0E0,0E0,0E0,0E0,0E0,0E0,0E0,0E0,0E0,0E0,0E0,0E0,0E0,0E0,0E0,0E0,0E0,0E0,0E0,0E0,0E0,0E0,0E0,0E0,0E0,0E0,0E0,0E0,0E0,0E0,0E0,0E0,0E0,0E0,0E0],"parents":[2147483647,0,0,1,1,2,2,3,3,4,4,5,5,6,6,7,7,8,8,9,9,10,10,11,11,12,12,13,13,14,14,15,15,16,16,17,17,18,18,19,19,20,20,21,21,22,22,23,23,24,24,25,25,27,27,28,28,29,29,30,30,31,31,32,32,33,33,34,34,35,35,36,36,37,37,38,38,39,39,41,41,43,43,44,44,45,45,46,46,47,47,48,48,49,49,50,50,51,51,52,52,53,53,54,54,55,55,56,56,57,57,58,58,59,59,60,60],"right_children":[2,4,6,8,10,12,14,16,18,20,22,24,26,28,30,32,34,36,38,40,42,44,46,48,50,52,-1,54,56,58,60,62,64,66,68,70,72,74,76,78,-1,80,-1,82,84,86,88,90,92,94,96,98,100,102,104,106,108,110,112,114,116,-1,-1,-1,-1,-1,-1,-1,-1,-1,-1,-1,-1,-1,-1,-1,-1,-1,-1,-1,-1,-1,-1,-1,-1,-1,-1,-1,-1,-1,-1,-1,-1,-1,-1,-1,-1,-1,-1,-1,-1,-1,-1,-1,-1,-1,-1,-1,-1,-1,-1,-1,-1,-1,-1,-1,-1],"split_conditions":[4.515E2,5E-1,8.005E2,6.05E1,1.395E2,5E-1,5E-1,-9.330127E-1,2.255E2,8E1,5E-1,5E-1,5E-1,7.715E2,-2.5E-1,1.235E2,1.575E2,1.26E2,4.832E3,1.5E0,5E-1,1.62E2,6.830127E-1,-2.5E-1,6.055E2,5E-1,-2.8724933E-2,9.195E2,5.75E1,3.5E0,8.905E2,9.55E1,2.05E1,-2.5E-1,5E-1,2.5E-1,5E-1,1.25E1,2.825E2,6.830127E-1,-4.5476696E-1,5.5E0,1.9493525E-1,1.535E2,6.615E2,3.5E0,-2.5E-1,-6.830127E-1,6.365E2,5E-1,-6.1232336E-17,7.6E1,4.86E2,8.155E2,1.65E1,4.45E1,4.9595E3,1.036E3,5E-1,5E-1,5.65E1,-4.6920756E-1,-2.0827742E-1,-1.2752755E-1,2.4035098E-1,-4.5871505E-1,-4.2230728E-1,-4.521269E-1,-3.4500876E-1,-4.1809246E-1,-2.682994E-1,-2.2576398E-1,2.4931727E-2,-6.5182425E-2,1.5501513E-1,-3.5596877E-1,8.934232E-3,-5.545062E-3,-3.7051743E-1,-2.2027797E-1,1.1096136E-1,2.0379399E-1,-2.4667227E-1,3.0075455E-1,1.9069579E-1,2.0616935E-1,-2.9949132E-1,-1.7474581E-1,1.20590694E-1,-6.369057E-2,2.4808866E-1,-3.3631122E-1,-1.9150646E-1,-1.0365718E-1,-2.5135204E-1,-9.020926E-4,-1.3990839E-1,3.8844767E-1,5.444367E-2,4.2106447E-1,1.2030706E-1,5.002396E-2,-3.1505752E-1,-9.748631E-2,1.79871E-1,1.0067214E-1,-6.33937E-2,4.1188213E-1,-1.0556021E-2,1.8190445E-1,-3.617307E-1,1.3326031E-1,4.224855E-1,3.1168984E-2,-2.4590603E-1,1.2599257E-1,-1.8499114E-1],"split_indices":[6,22,6,0,6,22,18,29,6,6,3,18,15,2,30,6,6,6,2,32,10,6,29,29,6,3,0,6,0,5,6,6,5,30,18,30,26,5,6,29,0,32,0,6,2,31,30,29,6,3,30,0,6,6,5,0,2,2,22,3,0,0,0,0,0,0,0,0,0,0,0,0,0,0,0,0,0,0,0,0,0,0,0,0,0,0,0,0,0,0,0,0,0,0,0,0,0,0,0,0,0,0,0,0,0,0,0,0,0,0,0,0,0,0,0,0,0],"split_type":[0,0,0,0,0,0,0,0,0,0,0,0,0,0,0,0,0,0,0,0,0,0,0,0,0,0,0,0,0,0,0,0,0,0,0,0,0,0,0,0,0,0,0,0,0,0,0,0,0,0,0,0,0,0,0,0,0,0,0,0,0,0,0,0,0,0,0,0,0,0,0,0,0,0,0,0,0,0,0,0,0,0,0,0,0,0,0,0,0,0,0,0,0,0,0,0,0,0,0,0,0,0,0,0,0,0,0,0,0,0,0,0,0,0,0,0,0],"sum_hessian":[8.485131E3,7.2461294E3,1.2390017E3,7.007041E3,2.3908815E2,8.6591235E2,3.730894E2,6.8521455E3,1.5489575E2,5.4842876E1,1.8424529E2,8.246541E2,4.1258266E1,1.2183054E2,2.5125885E2,8.2876884E1,6.7692686E3,9.54081E1,5.948765E1,1.3683394E1,4.115948E1,1.2929694E2,5.4948338E1,2.6670288E2,5.5795123E2,3.959091E1,1.667353E0,6.946609E1,5.236446E1,1.5322032E2,9.803851E1,2.6674295E1,5.6202583E1,3.4710605E3,3.2982078E3,3.762301E1,5.7785088E1,5.0535053E1,8.9526005E0,6.426143E0,7.257251E0,3.945301E1,1.7064708E0,1.0871511E1,1.1842543E2,3.3850655E1,2.1097681E1,1.4811561E1,2.5189133E2,3.2943933E2,2.2851187E2,2.2396175E1,1.7194738E1,2.057517E1,4.8890915E1,4.5458046E1,6.906411E0,3.4672647E0,1.4975307E2,2.3083202E1,7.4955315E1,1.7500696E1,9.1736E0,3.0304852E1,2.5897734E1,2.6135063E3,8.5755426E2,1.2000065E3,2.0982014E3,2.5160387E1,1.2462622E1,4.5734764E1,1.2050324E1,2.3595928E1,2.6939123E1,4.469626E0,4.4829745E0,2.928329E0,3.4978144E0,3.74545E1,1.9985131E0,6.6702027E0,4.2013087E0,5.0139927E1,6.828551E1,3.2388695E1,1.4619591E0,1.2916727E1,8.180955E0,1.0201932E1,4.609628E0,1.6732872E2,8.456261E1,1.648431E2,1.6459625E2,1.4710567E2,8.1406204E1,2.1154871E1,1.2413044E0,2.716136E0,1.4478601E1,3.4586577E0,1.7116514E1,3.1091417E1,1.7799498E1,2.7839178E1,1.761887E1,5.4133096E0,1.4931012E0,1.243781E0,2.2234836E0,1.440697E2,5.683358E0,1.040916E1,1.2674043E1,6.701716E1,7.938154E0],"tree_param":{"num_deleted":"0","num_feature":"33","num_nodes":"117","size_leaf_vector":"0"}},{"base_weights":[-9.449642E-1,-1.1097653E0,-2.9377016E-1,-1.1578267E0,1.9368716E-1,-5.209847E-1,3.5956107E-2,-1.0090315E0,-1.2754328E0,-6.854149E-1,4.329965E-1,-5.818751E-1,6.097968E-1,-1.333571E-1,1.963879E-1,-1.0574417E0,1.3115288E-1,-4.259817E-1,-1.2815411E0,-5.0630796E-1,-1.1206657E0,2.1317998E-1,6.0967904E-1,-9.0893966E-1,-4.2912725E-1,1.5645827E-1,9.3923783E-1,-4.2541102E-1,1.0252772E-2,1.6732265E-1,8.967829E-1,-1.2421235E0,-8.543764E-1,-9.562867E-1,3.7564272E-1,-6.38112E-1,7.8482676E-1,-1.2832991E0,1.9739379E-1,-1.8188353E-1,-7.3046726E-1,-1.2229406E0,-2.0120896E-1,1.0703427E0,1.3876395E-1,6.897679E-1,-4.3899592E-2,-1.0475577E0,-5.756247E-2,-1.6826211E-1,-6.053158E-1,-8.1083095E-1,3.8695297E-1,1.0425161E0,2.2847275E-1,-9.0347105E-1,-2.8842238E-1,2.216173E-1,-1.9256946E-1,1.2394962E-1,5.914522E-1,3.245836E-2,1.2775527E0,-1.3005239E0,-1.0679638E0,4.7818878E-1,-8.9973843E-1,-1.1109997E0,-2.1528842E-1,6.3041615E-1,-5.3740156E-1,-1.1807351E0,-1.9298206E-1,1.00442834E-1,1.1967552E0,-1.3137375E0,-1.211151E0,5.600161E-1,-4.7825572E-1,-4.7490227E-1,4.280764E-1,-8.458368E-1,1.6946001E-1,1.3078408E0,6.835013E-2,5.770761E-1,6.1647287E-3,7.2786486E-1,-1.4689372E-1,-5.9190905E-1,8.2591546E-1,-1.1956457E0,-8.025807E-1,-6.2244606E-1,2.2915825E-1,-3.2549283E-1,2.4266249E-1,4.843252E-1,-6.3386536E-1,2.3934469E-1,-1.5448272E0,7.6663905E-1,-1.5314266E-1,1.2324688E0,3.2820663E-1,-4.047473E-1,7.071983E-1,-1.0089014E0,5.0383675E-1,4.6825167E-2,-4.750588E-1,-1.4397495E-2,3.7450954E-1,1.5007572E-1,-5.256257E-1,2.713719E-1,1.2657724E-2,2.2008885E-1,9.3730116E-1,9.988496E-1,-6.565542E-1],"categories":[],"categories_nodes":[],"categories_segments":[],"categories_sizes":[],"default_left":[1,1,1,1,1,1,1,1,1,1,1,1,1,1,1,1,1,1,1,1,1,1,1,1,1,1,1,1,1,1,1,1,1,1,1,1,1,1,1,1,1,0,0,1,1,1,1,1,1,1,1,1,1,1,1,1,1,1,1,1,1,1,0,0,0,0,0,0,0,0,0,0,0,0,0,0,0,0,0,0,0,0,0,0,0,0,0,0,0,0,0,0,0,0,0,0,0,0,0,0,0,0,0,0,0,0,0,0,0,0,0,0,0,0,0,0,0,0,0,0,0],"id":2,"left_children":[1,3,5,7,9,11,13,15,17,19,21,23,25,27,29,31,33,35,37,39,41,43,45,47,49,51,53,55,57,59,61,63,65,67,69,71,73,75,77,79,81,-1,-1,83,85,87,89,91,93,95,97,99,101,103,105,107,109,111,113,115,117,119,-1,-1,-1,-1,-1,-1,-1,-1,-1,-1,-1,-1,-1,-1,-1,-1,-1,-1,-1,-1,-1,-1,-1,-1,-1,-1,-1,-1,-1,-1,-1,-1,-1,-1,-1,-1,-1,-1,-1,-1,-1,-1,-1,-1,-1,-1,-1,-1,-1,-1,-1,-1,-1,-1,-1,-1,-1,-1,-1],"loss_changes":[8.0295215E2,3.7440625E2,1.1337569E2,9.9521484E1,4.51625E1,6.2037277E1,1.6819042E1,1.4077588E2,1.6129883E1,3.0201225E0,6.4042263E0,4.210382E1,6.7623577E0,1.2644793E1,6.3202705E0,9.060498E1,2.8186089E1,6.778987E0,8.547363E0,2.3707933E0,9.3806934E-1,4.7316647E0,4.8844604E0,3.179094E1,2.663375E1,4.9222727E0,1.7139072E0,6.2469635E0,8.745651E0,5.5632544E0,4.050975E0,1.1608276E1,7.099689E1,1.995676E0,2.0383598E1,4.9291315E0,1.0335107E0,5.4072266E0,1.408182E0,2.9555674E0,2.2227583E0,0E0,0E0,1.3295445E0,4.1546497E0,2.742031E0,5.762416E0,7.45842E0,6.4345512E0,1.5319379E1,1.1095924E1,3.6848392E0,3.6793056E0,2.7078896E0,1.6972017E0,3.7225666E0,4.9468026E0,3.609439E0,1.1962687E1,4.578084E0,3.4107046E0,3.8711286E0,0E0,0E0,0E0,0E0,0E0,0E0,0E0,0E0,0E0,0E0,0E0,0E0,0E0,0E0,0E0,0E0,0E0,0E0,0E0,0E0,0E0,0E0,0E0,0E0,0E0,0E0,0E0,0E0,0E0,0E0,0E0,0E0,0E0,0E0,0E0,0E0,0E0,0E0,0E0,0E0,0E0,0E0,0E0,0E0,0E0,0E0,0E0,0E0,0E0,0E0,0E0,0E0,0E0,0E0,0E0,0E0,0E0,0E0,0E0],"parents":[2147483647,0,0,1,1,2,2,3,3,4,4,5,5,6,6,7,7,8,8,9,9,10,10,11,11,12,12,13,13,14,14,15,15,16,16,17,17,18,18,19,19,20,20,21,21,22,22,23,23,24,24,25,25,26,26,27,27,28,28,29,29,30,30,31,31,32,32,33,33,34,34,35,35,36,36,37,37,38,38,39,39,40,40,43,43,44,44,45,45,46,46,47,47,48,48,49,49,50,50,51,51,52,52,53,53,54,54,55,55,56,56,57,57,58,58,59,59,60,60,61,61],"right_children":[2,4,6,8,10,12,14,16,18,20,22,24,26,28,30,32,34,36,38,40,42,44,46,48,50,52,54,56,58,60,62,64,66,68,70,72,74,76,78,80,82,-1,-1,84,86,88,90,92,94,96,98,100,102,104,106,108,110,112,114,116,118,120,-1,-1,-1,-1,-1,-1,-1,-1,-1,-1,-1,-1,-1,-1,-1,-1,-1,-1,-1,-1,-1,-1,-1,-1,-1,-1,-1,-1,-1,-1,-1,-1,-1,-1,-1,-1,-1,-1,-1,-1,-1,-1,-1,-1,-1,-1,-1,-1,-1,-1,-1,-1,-1,-1,-1,-1,-1,-1,-1],"split_conditions":[3.895E2,5E-1,6.475E2,5E-1,1.325E2,5E-1,8.535E2,9.330127E-1,-9.330127E-1,6.830127E-1,2.235E2,5E-1,3.95E1,5E-1,5E-1,1.535E2,1.035E2,5E-1,6.15E1,1.15E1,2.5E-1,5E-1,5E-1,5E-1,1.5E0,4.245E2,5E-1,5.65E1,5E-1,5E-1,8E0,-2.5E-1,2.55E1,5E-1,5E-1,1.325E2,2.2E1,2.125E2,2.75E1,4.35E1,2.65E1,-3.6688218E-1,-6.0362693E-2,2.5E-1,2.76E2,5E-1,1.35E1,5.065E2,3.7E2,1.4815E3,2.55E1,1.65E1,5E-1,5E-1,5.5E1,5E-1,5E-1,4.795E2,1.55E1,5E-1,1.059E3,8.465E2,3.8326582E-1,-3.901572E-1,-3.2038915E-1,1.4345664E-1,-2.6992154E-1,-3.3329993E-1,-6.458653E-2,1.8912485E-1,-1.6122048E-1,-3.5422054E-1,-5.789462E-2,3.013285E-2,3.5902655E-1,-3.9412126E-1,-3.6334532E-1,1.6800484E-1,-1.4347672E-1,-1.4247069E-1,1.2842292E-1,-2.5375107E-1,5.0838005E-2,3.9235225E-1,2.0505039E-2,1.7312282E-1,1.8494186E-3,2.1835947E-1,-4.406812E-2,-1.7757273E-1,2.4777465E-1,-3.5869372E-1,-2.4077423E-1,-1.8673383E-1,6.8747476E-2,-9.764785E-2,7.279875E-2,1.4529757E-1,-1.9015962E-1,7.1803406E-2,-4.634482E-1,2.2999172E-1,-4.59428E-2,3.6974066E-1,9.846199E-2,-1.214242E-1,2.121595E-1,-3.0267042E-1,1.5115103E-1,1.4047551E-2,-1.4251764E-1,-4.3192487E-3,1.1235287E-1,4.502272E-2,-1.5768772E-1,8.141157E-2,3.7973174E-3,6.602666E-2,2.8119037E-1,2.9965487E-1,-1.9696628E-1],"split_indices":[6,22,6,3,6,22,6,29,29,29,6,18,0,18,22,6,6,26,0,5,30,32,26,19,31,6,23,2,3,7,5,30,0,11,32,6,5,6,5,0,5,0,0,30,2,13,5,6,2,2,0,5,3,11,0,1,27,2,5,27,6,2,0,0,0,0,0,0,0,0,0,0,0,0,0,0,0,0,0,0,0,0,0,0,0,0,0,0,0,0,0,0,0,0,0,0,0,0,0,0,0,0,0,0,0,0,0,0,0,0,0,0,0,0,0,0,0,0,0,0,0],"split_type":[0,0,0,0,0,0,0,0,0,0,0,0,0,0,0,0,0,0,0,0,0,0,0,0,0,0,0,0,0,0,0,0,0,0,0,0,0,0,0,0,0,0,0,0,0,0,0,0,0,0,0,0,0,0,0,0,0,0,0,0,0,0,0,0,0,0,0,0,0,0,0,0,0,0,0,0,0,0,0,0,0,0,0,0,0,0,0,0,0,0,0,0,0,0,0,0,0,0,0,0,0,0,0,0,0,0,0,0,0,0,0,0,0,0,0,0,0,0,0,0,0],"sum_hessian":[7.484062E3,5.971994E3,1.5120681E3,5.759731E3,2.1226308E2,8.948479E2,6.172202E2,2.5469348E3,3.2127961E3,4.5019596E1,1.6724348E2,8.4958484E2,4.5263058E1,3.0038007E2,3.1684015E2,2.4432705E3,1.03664246E2,2.3443056E1,3.189353E3,3.3427383E1,1.1592211E1,7.550803E1,9.173544E1,2.6888855E2,5.806963E2,1.9670172E1,2.5592888E1,9.8368835E1,2.0201123E2,3.054052E2,1.1434925E1,1.2768744E3,1.1663961E3,1.8494267E1,8.516998E1,2.0350662E1,3.0923939E0,3.1856987E3,3.6543884E0,1.4399081E1,1.9028303E1,1.0134808E1,1.4574035E0,4.9626303E0,7.05454E1,8.167206E1,1.0063385E1,2.3104091E2,3.7847645E1,2.3488303E2,3.458133E2,3.3007073E0,1.6369465E1,2.1938366E1,3.6545212E0,2.0663294E1,7.7705536E1,9.887707E1,1.03134155E2,2.782433E2,2.7161928E1,3.8288684E0,7.606057E0,9.513832E2,3.254912E2,3.808421E1,1.1283119E3,1.4886738E1,3.6075287E0,6.683114E1,1.8338839E1,8.42628E0,1.1924382E1,1.629295E0,1.4630989E0,2.2283682E3,9.5733057E2,2.4894438E0,1.1649446E0,9.876114E0,4.5229673E0,1.6919367E1,2.1089368E0,3.7649903E0,1.1976401E0,1.56062565E1,5.4939144E1,7.82395E1,3.4325602E0,6.369751E0,3.6936336E0,1.415772E2,8.9463715E1,1.23484335E1,2.549921E1,1.700321E2,6.4850914E1,8.421675E0,3.373916E2,1.635133E0,1.6655743E0,9.365845E0,7.0036197E0,1.6756891E1,5.1814756E0,1.6399102E0,2.014611E0,1.9486534E1,1.1767603E0,2.8056993E1,4.964855E1,3.9227962E1,5.9649105E1,5.1106087E1,5.202807E1,1.19074036E2,1.5916927E2,1.38869095E1,1.3275018E1,1.4064856E0,2.4223828E0],"tree_param":{"num_deleted":"0","num_feature":"33","num_nodes":"121","size_leaf_vector":"0"}},{"base_weights":[-7.92075E-1,-9.681205E-1,-2.4534947E-1,-1.0146937E0,1.4143957E-1,-4.3917853E-1,-4.492811E-3,-1.1039373E0,-7.8423774E-1,-3.8333026E-1,3.9339727E-1,-1.8623249E-1,-6.7017424E-1,-3.5015043E-2,7.0380795E-1,2.403486E-1,-1.1234311E0,-5.3904545E-1,-1.0329903E0,-1.8753219E-1,-7.5998396E-1,4.6773103E-1,-1.01329684E-1,-2.6862475E-1,1.0166918E0,-7.075345E-1,3.505263E-1,-1.5571971E-1,1.2901972E-1,8.390179E-1,-2.586583E-1,-7.9044163E-1,1.1346022E0,-1.1566528E0,-7.875801E-1,-7.6454383E-1,3.049024E-1,-1.0825999E0,-7.107423E-1,-6.079576E-2,-7.538678E-1,5.2313227E-2,-1.0033768E0,8.8293505E-1,3.8795602E-1,-9.570232E-1,3.453878E-1,-4.005037E-1,3.529797E-1,5.7896835E-1,1.6517575E0,1.0400554E0,-7.2056687E-1,-2.6434603E-1,8.9539176E-1,-2.513155E-1,6.406343E-2,9.668359E-2,7.2605866E-1,-1.7045024E-1,9.485997E-1,6.1685807E-1,-1.0194823E0,-9.746927E-1,-2.554703E-1,6.8574315E-1,1.699719E0,1.06419586E-1,-1.162926E0,2.2794218E-1,-1.1268693E0,-1.1342435E0,-5.387167E-1,9.888857E-1,3.1770952E-2,-9.2036927E-1,-1.1801947E0,2.0752329E-1,-1.2482628E0,3.234853E-2,-1.0429335E0,-6.5379955E-2,-9.642909E-1,5.4952586E-1,-7.7295697E-1,-1.0962086E0,-1.6086867E-1,1.172215E0,-1.7634821E-1,4.6891734E-1,-7.053635E-2,-1.0220312E-1,-1.3551841E0,9.732381E-1,-2.1091986E-2,-4.6707386E-1,5.278647E-1,6.8973684E-1,-1.196061E-1,-7.698725E-2,1.1226729E0,1.8152235E0,1.6004409E-1,2.759257E-1,1.3018916E0,-8.097218E-1,-4.6060798E-1,4.1382253E-1,-1.1065912E0,9.9840224E-1,1.15084715E-1,4.8204068E-2,-3.5552534E-1,5.743627E-1,7.998466E-3,2.363117E-1,-3.6849666E-3,1.1674439E-1,1.1094398E0,4.802438E-1,-7.2275263E-1,-1.5115851E-1,1.0357436E0],"categories":[],"categories_nodes":[],"categories_segments":[],"categories_sizes":[],"default_left":[1,1,1,1,1,1,1,1,1,1,1,1,1,1,1,1,1,1,1,1,1,1,1,1,1,1,1,1,1,1,1,1,1,1,1,1,1,1,1,1,1,1,1,1,1,1,1,1,1,1,1,1,1,1,1,1,1,1,1,1,1,0,0,0,0,0,0,0,0,0,0,0,0,0,0,0,0,0,0,0,0,0,0,0,0,0,0,0,0,0,0,0,0,0,0,0,0,0,0,0,0,0,0,0,0,0,0,0,0,0,0,0,0,0,0,0,0,0,0,0,0,0,0],"id":3,"left_children":[1,3,5,7,9,11,13,15,17,19,21,23,25,27,29,31,33,35,37,39,41,43,45,47,49,51,53,55,57,59,61,63,65,67,69,71,73,75,77,79,81,83,85,87,89,91,93,95,97,99,101,103,105,107,109,111,113,115,117,119,121,-1,-1,-1,-1,-1,-1,-1,-1,-1,-1,-1,-1,-1,-1,-1,-1,-1,-1,-1,-1,-1,-1,-1,-1,-1,-1,-1,-1,-1,-1,-1,-1,-1,-1,-1,-1,-1,-1,-1,-1,-1,-1,-1,-1,-1,-1,-1,-1,-1,-1,-1,-1,-1,-1,-1,-1,-1,-1,-1,-1,-1,-1],"loss_changes":[6.232551E2,2.5334277E2,7.372172E1,9.584961E1,2.636444E1,5.1000916E1,1.5269725E1,8.903662E1,7.971802E1,4.6376925E0,4.991411E0,4.180491E1,1.7673508E1,1.3424402E1,4.014291E0,4.628808E1,3.6345215E1,1.26771194E2,9.657593E0,3.110541E0,4.3708982E0,3.5347176E0,7.357583E0,3.2355694E1,6.568861E0,1.0796799E1,5.8664093E0,8.219809E0,5.4808955E0,3.0179749E0,3.5322258E0,2.063858E0,5.626934E0,2.4182617E1,1.0489905E2,4.321982E1,2.6293848E1,7.8327026E0,4.4645588E1,3.4205256E0,1.0892463E0,2.8811438E0,1.1419983E0,5.747595E0,3.7441473E0,2.0978026E0,2.96866E0,2.0310978E1,1.1113171E1,6.3508677E0,2.2712593E0,3.760059E-1,9.78952E0,5.4083147E0,6.195383E-1,8.516706E0,3.404304E0,3.8395734E0,3.2855425E0,1.5604218E0,2.403431E0,0E0,0E0,0E0,0E0,0E0,0E0,0E0,0E0,0E0,0E0,0E0,0E0,0E0,0E0,0E0,0E0,0E0,0E0,0E0,0E0,0E0,0E0,0E0,0E0,0E0,0E0,0E0,0E0,0E0,0E0,0E0,0E0,0E0,0E0,0E0,0E0,0E0,0E0,0E0,0E0,0E0,0E0,0E0,0E0,0E0,0E0,0E0,0E0,0E0,0E0,0E0,0E0,0E0,0E0,0E0,0E0,0E0,0E0,0E0,0E0,0E0,0E0],"parents":[2147483647,0,0,1,1,2,2,3,3,4,4,5,5,6,6,7,7,8,8,9,9,10,10,11,11,12,12,13,13,14,14,15,15,16,16,17,17,18,18,19,19,20,20,21,21,22,22,23,23,24,24,25,25,26,26,27,27,28,28,29,29,30,30,31,31,32,32,33,33,34,34,35,35,36,36,37,37,38,38,39,39,40,40,41,41,42,42,43,43,44,44,45,45,46,46,47,47,48,48,49,49,50,50,51,51,52,52,53,53,54,54,55,55,56,56,57,57,58,58,59,59,60,60],"right_children":[2,4,6,8,10,12,14,16,18,20,22,24,26,28,30,32,34,36,38,40,42,44,46,48,50,52,54,56,58,60,62,64,66,68,70,72,74,76,78,80,82,84,86,88,90,92,94,96,98,100,102,104,106,108,110,112,114,116,118,120,122,-1,-1,-1,-1,-1,-1,-1,-1,-1,-1,-1,-1,-1,-1,-1,-1,-1,-1,-1,-1,-1,-1,-1,-1,-1,-1,-1,-1,-1,-1,-1,-1,-1,-1,-1,-1,-1,-1,-1,-1,-1,-1,-1,-1,-1,-1,-1,-1,-1,-1,-1,-1,-1,-1,-1,-1,-1,-1,-1,-1,-1,-1],"split_conditions":[3.655E2,5E-1,6.055E2,-2.5E-1,1.615E2,5E-1,5E-1,-6.830127E-1,5E-1,5E-1,3.7365E3,9.330127E-1,5E-1,8.695E2,5E-1,1.685E2,5E-1,6.830127E-1,2.15E1,2.5E0,6.5E0,1.835E2,2.185E2,5E-1,5E-1,-9.330127E-1,3.85E1,5E-1,2.95E1,5E-1,5E-1,5E-1,1.35E1,1.5E0,6.830127E-1,1.245E2,9.330127E-1,1.65E1,9.330127E-1,1.555E2,5.5E0,2.5E-1,6.830127E-1,5E-1,5E-1,1.5E0,-6.830127E-1,6.25E1,2.5E-1,2.15E1,5E-1,7.1E2,5.235E2,1.3E1,5E-1,-2.5E-1,2.55E1,-6.830127E-1,-9.330127E-1,5E-1,5E-1,1.8505743E-1,-3.058447E-1,-2.924078E-1,-7.66411E-2,2.0572296E-1,5.099157E-1,3.1925876E-2,-3.488778E-1,6.838266E-2,-3.380608E-1,-3.4027305E-1,-1.6161501E-1,2.9666573E-1,9.531286E-3,-2.761108E-1,-3.5405844E-1,6.225699E-2,-3.7447885E-1,9.704559E-3,-3.1288004E-1,-1.9613987E-2,-2.892873E-1,1.6485776E-1,-2.318871E-1,-3.2886258E-1,-4.8260603E-2,3.516645E-1,-5.2904464E-2,1.406752E-1,-2.1160906E-2,-3.0660938E-2,-4.0655524E-1,2.9197145E-1,-6.327596E-3,-1.4012216E-1,1.5835941E-1,2.0692106E-1,-3.5881832E-2,-2.3096176E-2,3.368019E-1,5.4456705E-1,4.801323E-2,8.277771E-2,3.9056748E-1,-2.4291655E-1,-1.381824E-1,1.2414677E-1,-3.3197737E-1,2.9952067E-1,3.4525417E-2,1.4461221E-2,-1.0665761E-1,1.7230882E-1,2.3995398E-3,7.089351E-2,-1.10549E-3,3.502332E-2,3.3283198E-1,1.4407314E-1,-2.168258E-1,-4.5347556E-2,3.107231E-1],"split_indices":[6,22,6,30,6,3,22,29,3,3,2,29,22,6,16,6,32,29,5,31,5,6,6,32,28,29,0,28,5,2,3,3,5,5,29,6,29,5,30,6,5,30,30,7,16,32,29,0,30,5,16,2,6,5,23,29,0,30,30,3,32,0,0,0,0,0,0,0,0,0,0,0,0,0,0,0,0,0,0,0,0,0,0,0,0,0,0,0,0,0,0,0,0,0,0,0,0,0,0,0,0,0,0,0,0,0,0,0,0,0,0,0,0,0,0,0,0,0,0,0,0,0,0],"split_type":[0,0,0,0,0,0,0,0,0,0,0,0,0,0,0,0,0,0,0,0,0,0,0,0,0,0,0,0,0,0,0,0,0,0,0,0,0,0,0,0,0,0,0,0,0,0,0,0,0,0,0,0,0,0,0,0,0,0,0,0,0,0,0,0,0,0,0,0,0,0,0,0,0,0,0,0,0,0,0,0,0,0,0,0,0,0,0,0,0,0,0,0,0,0,0,0,0,0,0,0,0,0,0,0,0,0,0,0,0,0,0,0,0,0,0,0,0,0,0,0,0,0,0],"sum_hessian":[6.4769375E3,4.898765E3,1.5781724E3,4.7015073E3,1.9725806E2,8.7399927E2,7.041731E2,3.3863586E3,1.3151484E3,6.381815E1,1.3343991E2,4.180406E2,4.5595865E2,6.7599365E2,2.817948E1,4.8242615E1,3.338116E3,6.639089E2,6.512396E2,4.2975723E1,2.0842426E1,1.1605672E2,1.7383202E1,3.9196997E2,2.6070627E1,4.4015466E2,1.5803984E1,3.8946054E2,2.8653308E2,2.482084E1,3.358639E0,2.2464394E1,2.5778221E1,3.0354143E3,3.0270172E2,5.239944E2,1.3991446E2,5.6231305E2,8.892658E1,3.602196E1,6.953762E0,4.986292E0,1.5856134E1,1.7082064E1,9.897465E1,5.570495E0,1.1812706E1,3.236586E2,6.8311386E1,1.6564854E1,9.505774E0,2.6747453E0,4.3747992E2,7.6668744E0,8.13711E0,2.713096E2,1.1815095E2,2.729138E2,1.3619302E1,2.376161E0,2.244468E1,1.649595E0,1.709044E0,1.6098059E1,6.366335E0,1.5600536E1,1.0177686E1,1.492203E1,3.0204922E3,7.588862E1,2.268131E2,1.9717628E2,3.268181E2,3.9179504E1,1.0073495E2,2.1513234E2,3.4718066E2,3.3061073E1,5.5865505E1,3.378492E1,2.2370417E0,1.9346023E0,5.0191593E0,3.3201053E0,1.6661865E0,1.4011188E1,1.8449475E0,1.3334053E1,3.7480116E0,8.41012E1,1.4873456E1,2.1694798E0,3.401015E0,3.7435853E0,8.06912E0,3.024666E2,2.119197E1,3.9619595E1,2.8691792E1,7.89649E0,8.668365E0,8.371528E0,1.1342461E0,1.206772E0,1.4679734E0,3.241837E2,1.1329623E2,4.528906E0,3.1379685E0,6.9412737E0,1.1958357E0,7.0168625E1,2.0114096E2,1.0780749E1,1.073702E2,1.1356833E2,1.5934546E2,5.7636104E0,7.855691E0,1.1508082E0,1.225353E0,1.5939826E0,2.0850697E1],"tree_param":{"num_deleted":"0","num_feature":"33","num_nodes":"123","size_leaf_vector":"0"}},{"base_weights":[-6.6921157E-1,-8.7726074E-1,-2.408545E-1,-9.220445E-1,8.36851E-2,-5.349699E-1,-1.1328462E-1,-1.0197623E0,-6.8757004E-1,-4.6975055E-1,2.6002774E-1,-9.0564644E-1,-2.6329505E-1,-2.1465808E-1,1.0252166E-1,6.8915926E-2,-1.0384872E0,-1.0929238E0,-5.405249E-1,-3.1119114E-1,-9.132991E-1,4.9537322E-1,5.7331607E-2,-1.0956384E0,-7.404503E-2,-5.7827298E-2,-4.2585146E-1,-1.3055116E-1,-7.061434E-1,7.695841E-2,6.197633E-1,-6.695189E-1,6.911033E-1,-1.0711231E0,-7.2602123E-1,-1.1007596E0,-4.748731E-1,-2.828076E-1,-8.550343E-1,-3.6810976E-1,4.315976E-1,-1.0195271E0,-1.4995763E-1,3.0130512E-1,1.0108497E0,2.3452665E-1,-3.0397502E-1,-5.5843896E-1,-1.1129899E0,-8.9365953E-1,1.09441675E-1,-5.9087956E-3,-6.624449E-1,-4.7457424E-1,8.2059187E-1,7.08411E-2,-3.8861367E-1,-8.276873E-1,-3.1026912E-1,2.0627946E-1,-4.166261E-2,7.249788E-1,-3.3976063E-1,-8.5314035E-1,-1.9885589E-1,-1.9945347E-1,9.6412724E-1,-7.2279745E-1,-1.0962216E0,3.992741E-2,-1.0396185E0,-3.9992324E-1,-1.1066024E0,-8.351902E-1,-4.2111326E-2,-5.077749E-1,3.5313407E-1,-9.828439E-2,-8.9055014E-1,1.2194548E-2,-5.2549565E-1,-1.1020781E0,-2.8908294E-1,3.7703875E-1,-6.945029E-1,1.2101893E0,2.565648E-1,2.997982E-1,-1.1497027E0,-4.9158144E-1,4.7682044E-1,-8.9117175E-1,7.733282E-1,-8.7938845E-1,-1.1531862E0,1.967181E-1,-1.2626106E0,-1.3375334E-1,6.5838724E-1,-2.001441E-1,1.424559E-1,-9.2235863E-1,2.756208E-1,-7.28409E-1,-2.6279008E-1,-4.5053008E-1,1.1844168E0,-4.7089834E-2,6.2502664E-1,3.288459E-1,-4.4432765E-1,-7.383636E-1,-1.2381768E0,-4.6108425E-1,1.3485881E0,1.1441867E-1,6.1808634E-1,-6.213977E-2,9.6156293E-1,8.476935E-1,-6.9780217E-4],"categories":[],"categories_nodes":[],"categories_segments":[],"categories_sizes":[],"default_left":[1,1,1,1,1,1,1,1,1,1,1,1,1,1,1,1,1,1,1,1,1,1,1,1,1,1,1,1,1,1,1,1,1,1,1,1,1,1,1,1,0,1,0,1,1,1,1,1,1,1,1,1,1,1,1,1,1,1,1,1,1,1,0,0,0,0,0,0,0,0,0,0,0,0,0,0,0,0,0,0,0,0,0,0,0,0,0,0,0,0,0,0,0,0,0,0,0,0,0,0,0,0,0,0,0,0,0,0,0,0,0,0,0,0,0,0,0,0,0,0,0],"id":4,"left_children":[1,3,5,7,9,11,13,15,17,19,21,23,25,27,29,31,33,35,37,39,41,43,45,47,49,51,53,55,57,59,61,63,65,67,69,71,73,75,77,79,-1,81,-1,83,85,87,89,91,93,95,97,99,101,103,105,107,109,111,113,115,117,119,-1,-1,-1,-1,-1,-1,-1,-1,-1,-1,-1,-1,-1,-1,-1,-1,-1,-1,-1,-1,-1,-1,-1,-1,-1,-1,-1,-1,-1,-1,-1,-1,-1,-1,-1,-1,-1,-1,-1,-1,-1,-1,-1,-1,-1,-1,-1,-1,-1,-1,-1,-1,-1,-1,-1,-1,-1,-1,-1],"loss_changes":[4.9790527E2,1.6196191E2,6.854883E1,8.165259E1,1.655909E1,5.54431E1,2.7951784E1,5.1747314E1,6.2612885E1,2.6030226E0,6.0952063E0,3.680237E1,1.0679514E1,3.5828243E1,5.356452E0,2.0586647E1,2.4635986E1,8.395386E-1,6.2987564E1,1.5016055E0,6.8185043E-1,5.6245575E0,4.55913E0,1.1490784E0,6.788187E0,4.4760056E0,1.124604E1,3.865356E1,5.841793E0,6.000564E0,2.175241E0,1.6052437E0,6.091791E0,1.891626E1,5.739673E1,6.9174194E-1,7.881961E-1,6.17331E1,9.341766E0,1.8043451E0,0E0,2.1590805E-1,0E0,3.6165895E0,2.0630836E0,4.645111E0,3.6769679E0,4.212266E0,7.043152E-1,3.5659952E0,5.0597215E0,3.8450506E0,3.0036778E0,9.091351E0,3.8131819E0,2.7366793E1,1.3174168E1,2.6194763E0,8.470795E0,7.004896E0,4.262137E0,1.5623236E0,0E0,0E0,0E0,0E0,0E0,0E0,0E0,0E0,0E0,0E0,0E0,0E0,0E0,0E0,0E0,0E0,0E0,0E0,0E0,0E0,0E0,0E0,0E0,0E0,0E0,0E0,0E0,0E0,0E0,0E0,0E0,0E0,0E0,0E0,0E0,0E0,0E0,0E0,0E0,0E0,0E0,0E0,0E0,0E0,0E0,0E0,0E0,0E0,0E0,0E0,0E0,0E0,0E0,0E0,0E0,0E0,0E0,0E0,0E0],"parents":[2147483647,0,0,1,1,2,2,3,3,4,4,5,5,6,6,7,7,8,8,9,9,10,10,11,11,12,12,13,13,14,14,15,15,16,16,17,17,18,18,19,19,20,20,21,21,22,22,23,23,24,24,25,25,26,26,27,27,28,28,29,29,30,30,31,31,32,32,33,33,34,34,35,35,36,36,37,37,38,38,39,39,41,41,43,43,44,44,45,45,46,46,47,47,48,48,49,49,50,50,51,51,52,52,53,53,54,54,55,55,56,56,57,57,58,58,59,59,60,60,61,61],"right_children":[2,4,6,8,10,12,14,16,18,20,22,24,26,28,30,32,34,36,38,40,42,44,46,48,50,52,54,56,58,60,62,64,66,68,70,72,74,76,78,80,-1,82,-1,84,86,88,90,92,94,96,98,100,102,104,106,108,110,112,114,116,118,120,-1,-1,-1,-1,-1,-1,-1,-1,-1,-1,-1,-1,-1,-1,-1,-1,-1,-1,-1,-1,-1,-1,-1,-1,-1,-1,-1,-1,-1,-1,-1,-1,-1,-1,-1,-1,-1,-1,-1,-1,-1,-1,-1,-1,-1,-1,-1,-1,-1,-1,-1,-1,-1,-1,-1,-1,-1,-1,-1],"split_conditions":[3.125E2,5E-1,5E-1,-2.5E-1,1.325E2,4.725E2,6.475E2,-6.830127E-1,9.45E1,6.830127E-1,-2.5E-1,5E-1,6.830127E-1,5E-1,5E-1,1.685E2,5E-1,6.95E1,5E-1,5.076E3,2.5E-1,2.495E2,5E-1,-3.915E2,9.75E1,5.932E3,-2.5E-1,5E-1,6.830127E-1,1.55E1,5E-1,5E-1,5E0,4.5E0,6.830127E-1,2.35E1,1.35E1,6.830127E-1,-9.330127E-1,-6.830127E-1,1.2947929E-1,1.205E2,-4.498729E-2,2.4E2,2.97E2,6.5E0,2.775E2,-4.465E2,3.05E1,3.365E2,6.15E1,6.685E2,5E-1,6.805E2,3.45E1,6.830127E-1,4.5E0,6.830127E-1,2.1E1,2.6735E3,5E-1,5E-1,-1.019282E-1,-2.559421E-1,-5.965677E-2,-5.9836045E-2,2.8923818E-1,-2.1683924E-1,-3.2886648E-1,1.1978224E-2,-3.1188557E-1,-1.19976975E-1,-3.3198074E-1,-2.5055707E-1,-1.2633398E-2,-1.5233247E-1,1.0594022E-1,-2.9485319E-2,-2.6716506E-1,3.6583645E-3,-1.576487E-1,-3.3062345E-1,-8.6724885E-2,1.1311163E-1,-2.0835088E-1,3.630568E-1,7.6969445E-2,8.993946E-2,-3.449108E-1,-1.4747444E-1,1.4304614E-1,-2.6735154E-1,2.3199846E-1,-2.6381654E-1,-3.4595588E-1,5.901543E-2,-3.787832E-1,-4.0126003E-2,1.9751619E-1,-6.004323E-2,4.2736772E-2,-2.767076E-1,8.268624E-2,-2.1852271E-1,-7.883703E-2,-1.3515903E-1,3.5532504E-1,-1.4126951E-2,1.87508E-1,9.865377E-2,-1.3329831E-1,-2.215091E-1,-3.7145305E-1,-1.3832527E-1,4.0457645E-1,3.4325603E-2,1.854259E-1,-1.8641932E-2,2.884689E-1,2.5430807E-1,-2.0934067E-4],"split_indices":[6,22,18,30,6,6,6,29,6,29,29,19,29,4,22,6,32,0,3,2,30,6,3,2,2,2,30,3,29,5,16,3,5,5,29,0,5,29,29,29,0,6,0,6,6,32,6,2,0,6,0,6,28,6,0,29,5,30,5,2,15,7,0,0,0,0,0,0,0,0,0,0,0,0,0,0,0,0,0,0,0,0,0,0,0,0,0,0,0,0,0,0,0,0,0,0,0,0,0,0,0,0,0,0,0,0,0,0,0,0,0,0,0,0,0,0,0,0,0,0,0],"split_type":[0,0,0,0,0,0,0,0,0,0,0,0,0,0,0,0,0,0,0,0,0,0,0,0,0,0,0,0,0,0,0,0,0,0,0,0,0,0,0,0,0,0,0,0,0,0,0,0,0,0,0,0,0,0,0,0,0,0,0,0,0,0,0,0,0,0,0,0,0,0,0,0,0,0,0,0,0,0,0,0,0,0,0,0,0,0,0,0,0,0,0,0,0,0,0,0,0,0,0,0,0,0,0,0,0,0,0,0,0,0,0,0,0,0,0,0,0,0,0,0,0],"sum_hessian":[5.5883184E3,3.7607217E3,1.8275969E3,3.5933005E3,1.6742111E2,5.5192566E2,1.2756713E3,2.5339307E3,1.0593699E3,4.005336E1,1.2736775E2,2.324434E2,3.1948224E2,8.6795905E2,4.0771225E2,4.280056E1,2.4911301E3,2.802853E2,7.7908453E2,3.0759184E1,9.294176E0,5.8269062E1,6.9098694E1,1.8895604E2,4.3487373E1,1.4171425E2,1.7776797E2,7.422115E2,1.2574757E2,3.8960583E2,1.8106413E1,1.9537117E1,2.3263443E1,2.2533484E3,2.3778168E2,2.7600497E2,4.280314E0,4.2924722E2,3.498373E2,2.903844E1,1.7207427E0,7.864173E0,1.4300029E0,4.3482983E1,1.478608E1,4.659706E1,2.250163E1,6.950616E0,1.8200542E2,7.2467084E0,3.6240665E1,1.3143748E2,1.0276761E1,1.716765E2,6.091479E0,4.172863E2,3.2492517E2,9.537433E1,3.037324E1,1.8604257E2,2.0356325E2,1.6537457E1,1.5689566E0,1.3469556E1,6.0675616E0,5.52179E0,1.7741653E1,1.5345457E2,2.0998938E3,6.93267E1,1.6845499E2,2.8561761E0,2.731488E2,1.8282268E0,2.4520874E0,3.172279E2,1.120193E2,1.5851461E1,3.3398584E2,8.7697935E0,2.0268646E1,6.608533E0,1.2556401E0,4.0987183E1,2.4958007E0,1.1217217E1,3.568863E0,4.524692E1,1.3501414E0,1.844109E1,4.0605426E0,5.8258924E0,1.1247237E0,3.007885E1,1.5192657E2,1.9501523E0,5.296556E0,2.5638561E1,1.0602104E1,5.6768543E1,7.466894E1,8.0602255E0,2.2165358E0,7.6976555E1,9.469994E1,1.302505E0,4.788974E0,3.4482288E2,7.2463425E1,2.3060467E1,3.0186472E2,8.062816E1,1.4746172E1,2.8503857E1,1.8693833E0,1.5315622E2,3.2886353E1,2.0041066E2,3.1525862E0,1.4001592E1,2.535865E0],"tree_param":{"num_deleted":"0","num_feature":"33","num_nodes":"121","size_leaf_vector":"0"}},{"base_weights":[-5.62802E-1,-8.553213E-1,-2.6840842E-1,-8.904081E-1,-9.958402E-2,-5.6225324E-1,-1.471587E-1,-9.91641E-1,-6.623628E-1,-7.289608E-1,-3.3416975E-2,-8.4473675E-1,-1.9545251E-1,-9.985066E-3,-3.1044528E-1,-1.0760947E-1,-1.0077349E0,-1.0075508E0,-5.0520086E-1,-2.638897E-1,-1.0555915E0,-8.5193115E-1,8.369271E-3,-1.0332158E0,-1.569034E-1,-2.2762127E-1,5.2442855E-1,-1.7828937E-1,4.0019396E-1,-6.017157E-1,-1.1646353E-1,-6.21578E-1,4.8794034E-1,-1.0749559E0,-8.8525504E-1,-1.080042E0,-8.524739E-1,-2.9379585E-1,-7.8938043E-1,2.2034465E-1,-7.8083116E-1,5.555139E-1,-1.3723466E0,5.3887326E-2,-7.321668E-1,-1.0700358E0,1.8344707E0,-4.66364E-1,2.613917E-1,-3.148684E-1,8.2223035E-2,-1.3843352E-1,1.1004443E0,-2.9238164E-1,3.4374854E-1,6.8903697E-1,-2.210117E-1,-6.647354E-1,1.3164686E-1,-2.2073896E-1,1.1522858E-1,-9.9046665E-1,-3.323787E-1,1.4056237E0,1.4468838E-1,1.4703213E-1,-1.0768346E0,-9.48296E-1,-3.7552395E-1,-1.0849655E0,-2.4473308E-1,-1.0724845E0,-5.4729664E-1,6.5741944E-1,-3.7737495E-1,-5.1861566E-1,-9.114126E-1,-5.0041443E-1,8.616189E-1,1.06741175E-1,-5.484643E-1,3.767139E-2,-1.0160158E0,-1.1068239E0,-8.2643116E-1,-5.819068E-1,1.3180079E-1,7.9210377E-1,-5.8681153E-2,-2.8488567E-1,-1.0311384E0,-7.134802E-1,1.4586404E-1,-4.1076368E-1,3.371904E-1,1.3918296E0,8.999144E-2,-4.6923545E-1,-2.0407008E-3,6.129371E-1,-1.7479281E-1,1.3985134E0,4.8760816E-1,-6.60583E-1,9.107757E-1,-7.766252E-1,-3.6046153E-1,-2.0794374E-1,8.813002E-1,-3.356677E-1,1.5471463E-1,2.3941988E-1,-4.1004187E-1],"categories":[],"categories_nodes":[],"categories_segments":[],"categories_sizes":[],"default_left":[1,1,1,1,1,1,1,1,1,1,1,1,1,1,1,1,1,1,1,1,0,1,1,1,1,1,1,1,1,1,1,1,1,1,1,1,1,1,1,1,0,0,0,1,1,1,0,1,1,1,1,1,1,1,1,1,1,1,1,1,1,0,0,0,0,0,0,0,0,0,0,0,0,0,0,0,0,0,0,0,0,0,0,0,0,0,0,0,0,0,0,0,0,0,0,0,0,0,0,0,0,0,0,0,0,0,0,0,0,0,0,0,0],"id":5,"left_children":[1,3,5,7,9,11,13,15,17,19,21,23,25,27,29,31,33,35,37,39,-1,41,43,45,47,49,51,53,55,57,59,61,63,65,67,69,71,73,75,77,-1,-1,-1,79,81,83,-1,85,87,89,91,93,95,97,99,101,103,105,107,109,111,-1,-1,-1,-1,-1,-1,-1,-1,-1,-1,-1,-1,-1,-1,-1,-1,-1,-1,-1,-1,-1,-1,-1,-1,-1,-1,-1,-1,-1,-1,-1,-1,-1,-1,-1,-1,-1,-1,-1,-1,-1,-1,-1,-1,-1,-1,-1,-1,-1,-1,-1,-1],"loss_changes":[4.1818896E2,6.452368E1,8.624869E1,5.309729E1,4.52466E0,7.313583E1,3.8447662E1,2.2806274E1,3.848999E1,1.2926936E0,3.4237108E0,5.1610565E1,7.2770367E0,6.454716E1,4.42098E1,9.460467E0,1.2070679E1,1.5962524E0,2.9564774E1,1.5740335E0,0E0,4.323316E0,3.2764332E0,3.5041443E1,1.1393038E1,8.04281E0,5.3159285E0,3.958462E1,4.8963776E1,1.45553665E1,1.1420443E1,1.4308081E0,4.3383985E0,2.4918213E0,1.783609E1,3.4655762E-1,4.5203667E0,2.2985283E1,6.4984894E0,2.1282732E0,0E0,0E0,0E0,2.968449E0,1.2683995E0,1.8628845E0,0E0,3.5604382E0,6.4447036E0,4.6801987E0,3.4438276E0,1.0679996E0,2.0381021E0,2.7961422E1,1.6767712E1,2.5889984E1,4.393358E1,9.540054E0,6.7021337E0,1.410198E1,9.690521E0,0E0,0E0,0E0,0E0,0E0,0E0,0E0,0E0,0E0,0E0,0E0,0E0,0E0,0E0,0E0,0E0,0E0,0E0,0E0,0E0,0E0,0E0,0E0,0E0,0E0,0E0,0E0,0E0,0E0,0E0,0E0,0E0,0E0,0E0,0E0,0E0,0E0,0E0,0E0,0E0,0E0,0E0,0E0,0E0,0E0,0E0,0E0,0E0,0E0,0E0,0E0,0E0],"parents":[2147483647,0,0,1,1,2,2,3,3,4,4,5,5,6,6,7,7,8,8,9,9,10,10,11,11,12,12,13,13,14,14,15,15,16,16,17,17,18,18,19,19,21,21,22,22,23,23,24,24,25,25,26,26,27,27,28,28,29,29,30,30,31,31,32,32,33,33,34,34,35,35,36,36,37,37,38,38,39,39,43,43,44,44,45,45,47,47,48,48,49,49,50,50,51,51,52,52,53,53,54,54,55,55,56,56,57,57,58,58,59,59,60,60],"right_children":[2,4,6,8,10,12,14,16,18,20,22,24,26,28,30,32,34,36,38,40,-1,42,44,46,48,50,52,54,56,58,60,62,64,66,68,70,72,74,76,78,-1,-1,-1,80,82,84,-1,86,88,90,92,94,96,98,100,102,104,106,108,110,112,-1,-1,-1,-1,-1,-1,-1,-1,-1,-1,-1,-1,-1,-1,-1,-1,-1,-1,-1,-1,-1,-1,-1,-1,-1,-1,-1,-1,-1,-1,-1,-1,-1,-1,-1,-1,-1,-1,-1,-1,-1,-1,-1,-1,-1,-1,-1,-1,-1,-1,-1,-1],"split_conditions":[2.235E2,5E-1,5E-1,-2.5E-1,8E1,4.725E2,5E-1,-6.830127E-1,9.45E1,1.5E0,5E-1,5E-1,6.25E1,2.5E-1,3.805E2,1.555E2,1.455E2,7.45E1,5E-1,6.830127E-1,-3.1667745E-1,2.5E-1,5E-1,-2.5E-1,1.132E3,1.0095E3,1.9005E3,5E-1,6.830127E-1,5E-1,5E-1,8.3E1,1.31E2,2.05E1,5E-1,7.15E1,2.5E-1,2.65E1,1.55E1,4.65E2,-2.3424935E-1,1.6665418E-1,-4.11704E-1,2.75E1,4.685E2,4.115E2,5.5034125E-1,6.45E1,1.5E0,7.659E3,-2.5E-1,8.15E1,5.981E3,5.16E2,2.5E-1,6.830127E-1,7E0,5E-1,3.5E0,8.565E2,9.330127E-1,-2.9714E-1,-9.971361E-2,4.2168713E-1,4.3406516E-2,4.410964E-2,-3.2305038E-1,-2.8448883E-1,-1.1265719E-1,-3.2548964E-1,-7.341993E-2,-3.2174537E-1,-1.64189E-1,1.9722584E-1,-1.1321249E-1,-1.5558471E-1,-2.734238E-1,-1.5012434E-1,2.5848567E-1,3.2022353E-2,-1.6453929E-1,1.1301418E-2,-3.0480474E-1,-3.320472E-1,-2.4792935E-1,-1.7457205E-1,3.954024E-2,2.3763114E-1,-1.7604347E-2,-8.546571E-2,-3.0934155E-1,-2.1404406E-1,4.3759212E-2,-1.2322911E-1,1.0115712E-1,4.175489E-1,2.6997434E-2,-1.4077064E-1,-6.1221025E-4,1.8388113E-1,-5.2437846E-2,4.1955405E-1,1.4628245E-1,-1.9817491E-1,2.7323273E-1,-2.3298757E-1,-1.08138464E-1,-6.2383123E-2,2.6439008E-1,-1.0070031E-1,4.641439E-2,7.1825966E-2,-1.23012565E-1],"split_indices":[6,22,18,30,6,6,3,29,6,32,18,19,0,29,6,6,6,6,3,29,0,30,23,30,2,6,2,32,30,22,28,6,2,0,32,0,29,0,5,2,0,0,0,5,2,6,0,0,31,2,29,0,2,6,30,29,5,25,32,6,29,0,0,0,0,0,0,0,0,0,0,0,0,0,0,0,0,0,0,0,0,0,0,0,0,0,0,0,0,0,0,0,0,0,0,0,0,0,0,0,0,0,0,0,0,0,0,0,0,0,0,0,0],"split_type":[0,0,0,0,0,0,0,0,0,0,0,0,0,0,0,0,0,0,0,0,0,0,0,0,0,0,0,0,0,0,0,0,0,0,0,0,0,0,0,0,0,0,0,0,0,0,0,0,0,0,0,0,0,0,0,0,0,0,0,0,0,0,0,0,0,0,0,0,0,0,0,0,0,0,0,0,0,0,0,0,0,0,0,0,0,0,0,0,0,0,0,0,0,0,0,0,0,0,0,0,0,0,0,0,0,0,0,0,0,0,0,0,0],"sum_hessian":[4.857788E3,2.4356953E3,2.4220928E3,2.3274592E3,1.08235886E2,7.064345E2,1.7156584E3,1.609589E3,7.1787036E2,9.343558E0,9.889233E1,3.983506E2,3.0808392E2,9.329597E2,7.8269867E2,2.8916233E1,1.5806727E3,2.2289548E2,4.949749E2,4.600739E0,4.74282E0,3.8616674E0,9.503066E1,3.1227838E2,8.607219E1,2.9556027E2,1.2523659E1,6.619247E2,2.7103503E2,3.120471E2,4.706516E2,1.5497742E1,1.341849E1,1.0155357E3,5.65137E2,1.4782811E2,7.506737E1,2.849962E2,2.0997871E2,2.6717682E0,1.9289708E0,1.0242302E0,2.8374372E0,9.040125E1,4.629404E0,3.089386E2,3.3397853E0,4.940601E1,3.666618E1,2.3060846E2,6.495181E1,6.1760793E0,6.3475795E0,5.435671E2,1.18357574E2,1.849359E2,8.609914E1,2.8744022E2,2.4606861E1,3.246064E2,1.460452E2,5.7449293E0,9.752812E0,2.8102562E0,1.0608234E1,1.4401829E0,1.0140955E3,5.0217072E2,6.2966312E1,1.4666476E2,1.1633369E0,4.2159294E1,3.2908077E1,2.2464254E1,2.6253195E2,6.686612E1,1.431126E2,1.361344E0,1.3104241E0,8.386523E1,6.5360312E0,1.4807324E0,3.1486714E0,2.6532654E2,4.3612076E1,4.1430405E1,7.9756074E0,1.3239325E1,2.3426853E1,2.2268472E2,7.923736E0,4.053974E0,6.089784E1,4.014085E0,2.1619942E0,4.6338735E0,1.7137058E0,3.3742004E2,2.0614703E2,7.779176E1,4.0565807E1,3.958076E1,1.4535513E2,6.2313667E1,2.3785473E1,2.0902396E2,7.841625E1,1.7432575E1,7.1742873E0,2.4861098E2,7.599543E1,1.18558304E2,2.7486904E1],"tree_param":{"num_deleted":"0","num_feature":"33","num_nodes":"113","size_leaf_vector":"0"}},{"base_weights":[-4.6894982E-1,-7.9262865E-1,-2.2848777E-1,-9.18492E-1,-5.4521203E-1,-4.9656826E-1,-1.2561353E-1,-9.470501E-1,-1.4575022E-1,-9.220096E-1,-3.9349338E-1,-7.747747E-1,-1.423913E-1,-5.9832357E-2,-4.2783186E-1,-2.0487437E-1,-9.6145755E-1,5.471569E-1,-2.967781E-1,-9.4342166E-1,-1.2780522E-1,-1.03935495E-1,-5.987307E-1,-9.8097664E-1,-1.4158863E-1,1.309812E-2,-2.716239E-1,-1.5220107E-1,1.8193235E-1,-6.713148E-1,-1.2833036E-1,-4.886137E-1,4.1566676E-1,-1.0252268E0,-8.1845397E-1,8.8305515E-1,-7.038986E-1,3.7560645E-1,-6.3281506E-1,-1.0592557E0,-8.180125E-1,-5.766818E-1,6.826965E-1,-5.019185E-1,3.7209204E-1,5.850293E-1,-7.2398144E-1,-1.0219728E0,1.1548582E0,-3.863147E-1,1.5953907E-1,9.556459E-2,-2.36021E-1,-3.0768445E-1,6.200529E-1,5.753525E-1,-1.8600105E-1,3.019733E-1,-9.264244E-2,9.9407613E-1,-6.9221896E-1,1.1337968E0,-1.6632724E-1,-8.554098E-1,-1.9082977E-1,8.667001E-1,-5.744154E-1,-2.7478263E-1,-1.0297757E0,-1.0526193E0,-6.4190996E-1,1.0810794E0,2.6600412E-1,1.1037002E0,-1.0006634E-1,-8.6168534E-1,3.022491E-1,-1.9470893E-1,-1.0695698E0,-1.0200605E0,-5.479307E-1,-8.2040215E-1,-4.0989242E-2,3.1582463E-1,-8.0835354E-1,-2.3688541E-1,9.42222E-1,1.0662781E0,-1.534436E-1,-1.061383E0,-7.6325074E-2,-1.0730025E0,-7.695781E-1,1.5940689E0,-2.5755215E-1,-4.9323153E-1,1.0811072E-1,5.7855505E-1,-6.2585235E-2,-2.3105194E-1,2.50017E-1,-5.257937E-1,5.184611E-1,-5.303057E-1,-1.458897E-1,-3.4456214E-1,8.942746E-1,3.720385E-1,1.4166238E0,-3.1799543E-1,1.6917776E-2,4.891303E-1,9.66049E-2,-2.3948127E-1,2.8524238E-1,2.1549438E-1,-7.362589E-1,1.6513126E-1,1.506601E0,-2.548633E-1,2.7628025E-1],"categories":[],"categories_nodes":[],"categories_segments":[],"categories_sizes":[],"default_left":[1,1,1,1,1,1,1,1,1,1,1,1,1,1,1,1,1,1,1,1,1,1,1,1,1,1,1,1,1,1,1,1,1,1,1,1,0,1,1,1,1,1,0,1,1,1,1,1,1,1,1,1,1,1,1,1,1,1,1,0,1,1,1,0,0,0,0,0,0,0,0,0,0,0,0,0,0,0,0,0,0,0,0,0,0,0,0,0,0,0,0,0,0,0,0,0,0,0,0,0,0,0,0,0,0,0,0,0,0,0,0,0,0,0,0,0,0,0,0,0,0],"id":6,"left_children":[1,3,5,7,9,11,13,15,17,19,21,23,25,27,29,31,33,35,37,39,41,43,45,47,49,51,53,55,57,59,61,63,65,67,69,71,-1,73,75,77,79,81,-1,83,85,87,89,91,93,95,97,99,101,103,105,107,109,111,113,-1,115,117,119,-1,-1,-1,-1,-1,-1,-1,-1,-1,-1,-1,-1,-1,-1,-1,-1,-1,-1,-1,-1,-1,-1,-1,-1,-1,-1,-1,-1,-1,-1,-1,-1,-1,-1,-1,-1,-1,-1,-1,-1,-1,-1,-1,-1,-1,-1,-1,-1,-1,-1,-1,-1,-1,-1,-1,-1,-1,-1],"loss_changes":[3.322813E2,5.6184692E1,6.756604E1,2.6455566E1,3.4865616E1,6.68649E1,3.5231926E1,1.2227417E1,4.780539E0,2.8750458E0,2.61503E1,4.9535675E1,6.0369573E0,3.257892E1,2.3020054E1,4.3227196E0,9.552612E0,4.088064E0,8.570847E0,1.6230011E0,2.4969974E0,3.5077282E1,3.866353E1,2.6295197E1,7.0354013E0,2.841939E0,5.4646635E0,2.6056469E1,1.3324412E1,6.7643433E0,7.06173E0,1.6406906E0,4.0175476E0,2.3938599E0,1.4057877E1,5.612421E-1,0E0,4.584207E0,5.602887E0,5.559006E-1,4.170986E0,5.2291095E-1,0E0,2.549714E1,2.9538723E1,9.130481E0,5.0983253E1,2.805725E0,4.052791E0,2.8284497E0,4.0508986E0,5.294999E0,7.797658E0,5.6248226E0,2.0822344E0,7.5274715E0,2.7034283E1,1.0750523E1,6.920043E0,0E0,7.0729218E0,1.3100066E0,5.556666E0,0E0,0E0,0E0,0E0,0E0,0E0,0E0,0E0,0E0,0E0,0E0,0E0,0E0,0E0,0E0,0E0,0E0,0E0,0E0,0E0,0E0,0E0,0E0,0E0,0E0,0E0,0E0,0E0,0E0,0E0,0E0,0E0,0E0,0E0,0E0,0E0,0E0,0E0,0E0,0E0,0E0,0E0,0E0,0E0,0E0,0E0,0E0,0E0,0E0,0E0,0E0,0E0,0E0,0E0,0E0,0E0,0E0,0E0],"parents":[2147483647,0,0,1,1,2,2,3,3,4,4,5,5,6,6,7,7,8,8,9,9,10,10,11,11,12,12,13,13,14,14,15,15,16,16,17,17,18,18,19,19,20,20,21,21,22,22,23,23,24,24,25,25,26,26,27,27,28,28,29,29,30,30,31,31,32,32,33,33,34,34,35,35,37,37,38,38,39,39,40,40,41,41,43,43,44,44,45,45,46,46,47,47,48,48,49,49,50,50,51,51,52,52,53,53,54,54,55,55,56,56,57,57,58,58,60,60,61,61,62,62],"right_children":[2,4,6,8,10,12,14,16,18,20,22,24,26,28,30,32,34,36,38,40,42,44,46,48,50,52,54,56,58,60,62,64,66,68,70,72,-1,74,76,78,80,82,-1,84,86,88,90,92,94,96,98,100,102,104,106,108,110,112,114,-1,116,118,120,-1,-1,-1,-1,-1,-1,-1,-1,-1,-1,-1,-1,-1,-1,-1,-1,-1,-1,-1,-1,-1,-1,-1,-1,-1,-1,-1,-1,-1,-1,-1,-1,-1,-1,-1,-1,-1,-1,-1,-1,-1,-1,-1,-1,-1,-1,-1,-1,-1,-1,-1,-1,-1,-1,-1,-1,-1,-1],"split_conditions":[2.035E2,-2.5E-1,5E-1,5E-1,9.25E1,4.725E2,5E-1,-6.830127E-1,-6.830127E-1,5E-1,1.65E1,5E-1,6.830127E-1,1.603E3,4.75E2,1.685E2,1.455E2,5E-1,6.5E0,6.25E1,8.25E1,7.5E0,-9.330127E-1,-2.5E-1,1.132E3,2.0015E3,-2.5E-1,2.55E1,4.834E3,-9.330127E-1,-3.63E2,7.5E0,5.3E1,2.25E1,5E-1,3.5E0,-2.1116959E-1,-2.5E-1,1.775E2,2.45E1,2.5E-1,6.830127E-1,2.0480897E-1,6.830127E-1,2.5E-1,1.545E2,2.5E-1,3.935E2,5.05E1,3.815E2,-6.830127E-1,9.85E1,5.45E1,6.805E2,3.45E1,2.5E-1,2.5E-1,1.65E1,2.05E1,2.9822284E-1,3.5E0,-5.375E2,4.85E1,-2.5662294E-1,-5.724893E-2,2.6001003E-1,-1.7232463E-1,-8.243479E-2,-3.0893272E-1,-3.1578583E-1,-1.92573E-1,3.2432383E-1,7.980124E-2,3.3111006E-1,-3.0019904E-2,-2.585056E-1,9.0674736E-2,-5.8412682E-2,-3.2087097E-1,-3.0601817E-1,-1.6437922E-1,-2.4612065E-1,-1.22967735E-2,9.4747394E-2,-2.4250607E-1,-7.106563E-2,2.8266662E-1,3.1988344E-1,-4.6033084E-2,-3.1841493E-1,-2.2897523E-2,-3.2190076E-1,-2.3087344E-1,4.7822067E-1,-7.726565E-2,-1.4796947E-1,3.2433216E-2,1.7356652E-1,-1.8775571E-2,-6.931558E-2,7.50051E-2,-1.577381E-1,1.5553834E-1,-1.5909171E-1,-4.3766912E-2,-1.0336865E-1,2.6828238E-1,1.1161156E-1,4.2498717E-1,-9.5398635E-2,5.075333E-3,1.467391E-1,2.8981471E-2,-7.1844384E-2,8.557272E-2,6.4648315E-2,-2.2087769E-1,4.953938E-2,4.5198032E-1,-7.645899E-2,8.288408E-2],"split_indices":[6,30,18,22,6,6,8,29,29,22,5,19,29,2,6,6,6,7,5,6,6,5,29,30,2,2,30,0,2,29,2,5,0,0,18,32,0,29,6,0,29,30,0,30,30,6,29,6,0,6,30,2,0,6,0,30,29,5,5,0,5,2,0,0,0,0,0,0,0,0,0,0,0,0,0,0,0,0,0,0,0,0,0,0,0,0,0,0,0,0,0,0,0,0,0,0,0,0,0,0,0,0,0,0,0,0,0,0,0,0,0,0,0,0,0,0,0,0,0,0,0],"split_type":[0,0,0,0,0,0,0,0,0,0,0,0,0,0,0,0,0,0,0,0,0,0,0,0,0,0,0,0,0,0,0,0,0,0,0,0,0,0,0,0,0,0,0,0,0,0,0,0,0,0,0,0,0,0,0,0,0,0,0,0,0,0,0,0,0,0,0,0,0,0,0,0,0,0,0,0,0,0,0,0,0,0,0,0,0,0,0,0,0,0,0,0,0,0,0,0,0,0,0,0,0,0,0,0,0,0,0,0,0,0,0,0,0,0,0,0,0,0,0,0,0],"sum_hessian":[4.270512E3,1.8193044E3,2.4512078E3,1.2040696E3,6.152349E2,6.787148E2,1.772493E3,1.1609393E3,4.313025E1,1.7515509E2,4.400798E2,3.7946057E2,2.9925424E2,1.4566377E3,3.1585535E2,2.2397366E1,1.138542E3,7.249067E0,3.5881184E1,1.7037387E2,4.7812276E0,1.8316661E2,2.5691318E2,2.858289E2,9.36317E1,1.3623653E2,1.630177E2,1.054229E3,4.0240866E2,1.7353596E2,1.4231937E2,1.5515556E1,6.88181E0,7.831463E2,3.5539566E2,5.946604E0,1.302463E0,1.191747E1,2.396371E1,8.469707E1,8.5676796E1,3.2627313E0,1.5184962E0,9.973159E1,8.343502E1,2.4231121E1,2.3268207E2,2.8095758E2,4.8712993E0,5.1497147E1,4.2134552E1,1.0281713E2,3.34194E1,1.5731079E2,5.7069106E0,4.6090775E1,1.00813824E3,2.799277E2,1.22480965E2,1.5741311E0,1.7196182E2,3.316522E0,1.3900285E2,6.1131196E0,9.402436E0,4.81359E0,2.06822E0,5.0884986E0,7.780578E2,1.506343E2,2.0476138E2,3.9325564E0,2.0140474E0,4.187514E0,7.729956E0,1.931465E1,4.649061E0,1.2328726E0,8.3464195E1,4.742289E1,3.8253902E1,1.8771967E0,1.3855346E0,2.7177069E1,7.255453E1,4.0625687E1,4.2809334E1,1.4401829E1,9.829293E0,1.5256392E2,8.011815E1,2.3100183E2,4.9955753E1,3.617703E0,1.2535961E0,4.2343094E1,9.154054E0,1.4041666E1,2.8092886E1,3.2851326E1,6.9965805E1,2.436477E1,9.054629E0,6.525105E1,9.205974E1,1.2064694E0,4.5004416E0,3.828137E1,7.809406E0,6.104721E2,3.9766614E2,1.4573462E2,1.3419307E2,8.846962E1,3.401135E1,7.7769504E0,1.6418488E2,1.3226902E0,1.9938318E0,1.16186005E2,2.2816845E1],"tree_param":{"num_deleted":"0","num_feature":"33","num_nodes":"121","size_leaf_vector":"0"}},{"base_weights":[-3.8230294E-1,-7.088599E-1,-1.7329344E-1,-8.5013884E-1,-4.5872304E-1,-3.2454786E-1,-2.8526323E-2,-9.211617E-1,-4.470127E-1,-6.856487E-1,-2.0635122E-1,-1.1011837E-1,-6.008037E-1,1.0406221E-1,-1.2802307E-1,-9.994836E-1,-7.8653044E-1,-1.1209796E-2,-8.820406E-1,-9.4860584E-1,-5.4097533E-1,1.3598392E-2,-5.690926E-1,-7.051557E-1,2.5991399E-2,-9.451094E-1,-4.4228947E-1,1.5042268E-1,-1.2188591E-1,-1.92684E-1,1.5994467E-1,1.3266906E-1,-1.003071E0,-1.1570404E-1,-8.4589475E-1,-2.5141677E-1,4.6983522E-1,-9.9596345E-1,3.0846703E-1,-9.6521354E-1,-1.878399E-1,-7.975749E-1,-3.107855E-1,3.180217E-1,-2.3616613E-1,2.5347275E-1,-6.478027E-1,-7.542158E-1,8.4098303E-1,9.694788E-2,-6.847872E-1,7.4782304E-2,-9.8951554E-1,-5.356633E-1,4.4767972E-2,5.9977483E-2,2.7768484E-1,6.369418E-2,-5.52812E-1,-2.7258652E-1,6.2417187E-2,7.8396773E-1,6.201878E-2,-1.0082891E0,-1.4695598E-1,-8.1799906E-1,8.7091416E-1,5.587919E-1,-8.748724E-1,-3.2864746E-1,7.175916E-1,1.1371113E0,1.987189E-1,-1.0439156E0,-3.4232742E-1,-4.640883E-1,1.2024455E0,-9.7281003E-1,-1.3835187E-1,-6.091173E-1,3.1349334E-1,-2.214679E-1,-9.189893E-1,-6.8977493E-1,-1.0033073E-1,-5.98168E-2,7.971423E-1,-5.3801125E-1,2.4959384E-1,-7.7560043E-1,6.6023713E-1,-3.0319104E-1,-8.813503E-1,6.118685E-1,-7.907889E-1,1.3175302E0,2.0969553E-1,7.889802E-1,5.00204E-2,5.6533873E-1,-7.478001E-1,1.6219579E0,-5.6477654E-1,-1.010802E0,1.9425118E-1,3.2639544E-2,-6.052376E-1,-6.5239316E-1,2.1809888E0,3.3375356E-1,-3.7884574E-2,3.2370254E-1,-2.2634646E-1,-3.6740102E-2,1.1026242E0,-7.524944E-1,-1.1741672E-1,-3.5198328E-1,-9.485258E-2,1.3307154E0,3.162055E-2,1.3796213E0,3.006845E-1,-9.189374E-2,6.2096864E-1],"categories":[],"categories_nodes":[],"categories_segments":[],"categories_sizes":[],"default_left":[1,1,1,1,1,1,1,1,1,1,1,1,1,1,1,1,1,1,1,1,1,1,1,1,1,1,1,1,1,1,1,0,1,1,1,1,1,1,1,1,1,1,1,1,1,1,1,1,1,1,1,1,1,1,1,1,1,1,1,1,1,1,1,0,0,0,0,0,0,0,0,0,0,0,0,0,0,0,0,0,0,0,0,0,0,0,0,0,0,0,0,0,0,0,0,0,0,0,0,0,0,0,0,0,0,0,0,0,0,0,0,0,0,0,0,0,0,0,0,0,0,0,0,0,0],"id":7,"left_children":[1,3,5,7,9,11,13,15,17,19,21,23,25,27,29,31,33,35,37,39,41,43,45,47,49,51,53,55,57,59,61,-1,63,65,67,69,71,73,75,77,79,81,83,85,87,89,91,93,95,97,99,101,103,105,107,109,111,113,115,117,119,121,123,-1,-1,-1,-1,-1,-1,-1,-1,-1,-1,-1,-1,-1,-1,-1,-1,-1,-1,-1,-1,-1,-1,-1,-1,-1,-1,-1,-1,-1,-1,-1,-1,-1,-1,-1,-1,-1,-1,-1,-1,-1,-1,-1,-1,-1,-1,-1,-1,-1,-1,-1,-1,-1,-1,-1,-1,-1,-1,-1,-1,-1,-1],"loss_changes":[2.6210736E2,5.2585144E1,5.1315453E1,2.6982727E1,3.096994E1,6.7831474E1,1.5827459E1,7.7817993E0,2.7530012E1,1.0352341E1,2.0642666E1,5.238124E1,2.6906845E1,5.4074116E0,1.2791068E1,2.2044067E0,1.198999E1,8.620292E0,1.0164963E1,1.0826645E0,1.0772297E1,1.2391304E1,6.486458E0,9.766579E0,2.6652298E1,7.1823883E0,1.5700775E1,4.901986E0,7.083909E0,1.1433289E1,7.6636143E0,0E0,2.1235046E0,1.861414E1,1.1833298E1,3.9571917E0,4.2703047E0,1.7292252E0,5.4694724E0,4.788437E-1,9.0457565E-1,5.9229507E0,7.905649E0,1.3340609E1,1.3264948E1,4.382662E0,6.928234E0,6.3403015E0,9.79866E-1,1.5554136E1,4.2016544E0,8.316007E0,3.988083E0,1.145974E1,8.5383125E1,6.739442E0,4.1845856E0,6.5625553E0,2.227332E0,5.987728E0,5.207499E0,4.4884167E0,9.53524E0,0E0,0E0,0E0,0E0,0E0,0E0,0E0,0E0,0E0,0E0,0E0,0E0,0E0,0E0,0E0,0E0,0E0,0E0,0E0,0E0,0E0,0E0,0E0,0E0,0E0,0E0,0E0,0E0,0E0,0E0,0E0,0E0,0E0,0E0,0E0,0E0,0E0,0E0,0E0,0E0,0E0,0E0,0E0,0E0,0E0,0E0,0E0,0E0,0E0,0E0,0E0,0E0,0E0,0E0,0E0,0E0,0E0,0E0,0E0,0E0,0E0,0E0],"parents":[2147483647,0,0,1,1,2,2,3,3,4,4,5,5,6,6,7,7,8,8,9,9,10,10,11,11,12,12,13,13,14,14,15,15,16,16,17,17,18,18,19,19,20,20,21,21,22,22,23,23,24,24,25,25,26,26,27,27,28,28,29,29,30,30,32,32,33,33,34,34,35,35,36,36,37,37,38,38,39,39,40,40,41,41,42,42,43,43,44,44,45,45,46,46,47,47,48,48,49,49,50,50,51,51,52,52,53,53,54,54,55,55,56,56,57,57,58,58,59,59,60,60,61,61,62,62],"right_children":[2,4,6,8,10,12,14,16,18,20,22,24,26,28,30,32,34,36,38,40,42,44,46,48,50,52,54,56,58,60,62,-1,64,66,68,70,72,74,76,78,80,82,84,86,88,90,92,94,96,98,100,102,104,106,108,110,112,114,116,118,120,122,124,-1,-1,-1,-1,-1,-1,-1,-1,-1,-1,-1,-1,-1,-1,-1,-1,-1,-1,-1,-1,-1,-1,-1,-1,-1,-1,-1,-1,-1,-1,-1,-1,-1,-1,-1,-1,-1,-1,-1,-1,-1,-1,-1,-1,-1,-1,-1,-1,-1,-1,-1,-1,-1,-1,-1,-1,-1,-1,-1,-1,-1,-1],"split_conditions":[2.035E2,-2.5E-1,4.085E2,5E-1,1.305E2,5E-1,5E-1,1.355E2,6.830127E-1,7.75E1,5E-1,6.55E1,5E-1,5E-1,5E-1,2.05E1,4.5E0,1.585E2,1.85E1,5E-1,2.5E-1,1.65E1,5E-1,5E-1,5E-1,-2.5E-1,2.15E1,6.845E2,1.009E3,8.925E2,-6.830127E-1,3.980072E-2,6.25E1,5E-1,-6.830127E-1,5E-1,2.63E2,1.905E2,5E-1,7.05E1,2.7E1,-9.330127E-1,6.5E0,8.5E0,2.5E-1,1.3E1,1.65E1,-9.330127E-1,1.05E1,2.55E1,2.5E0,1.35E1,1.5E0,4.5E0,2.5E-1,-2.5E-1,5.55E1,6.955E2,3.75E1,1.336E3,8.955E2,4.55E1,5E-1,-3.0248675E-1,-4.4086795E-2,-2.4539973E-1,2.6127425E-1,1.6763757E-1,-2.6246172E-1,-9.859424E-2,2.1527748E-1,3.4113342E-1,5.9615675E-2,-3.131747E-1,-1.0269823E-1,-1.392265E-1,3.6073366E-1,-2.9184303E-1,-4.1505564E-2,-1.827352E-1,9.404801E-2,-6.644037E-2,-2.756968E-1,-2.0693249E-1,-3.009922E-2,-1.794504E-2,2.391427E-1,-1.6140339E-1,7.4878156E-2,-2.3268014E-1,1.9807115E-1,-9.0957314E-2,-2.644051E-1,1.8356055E-1,-2.3723668E-1,3.9525905E-1,6.2908664E-2,2.3669407E-1,1.500612E-2,1.6960162E-1,-2.2434004E-1,4.8658738E-1,-1.6943297E-1,-3.0324063E-1,5.8275357E-2,9.791864E-3,-1.8157129E-1,-1.9571796E-1,6.5429664E-1,1.0012607E-1,-1.1365373E-2,9.711077E-2,-6.790394E-2,-1.1022031E-2,3.3078727E-1,-2.2574833E-1,-3.5225015E-2,-1.05594985E-1,-2.8455775E-2,3.9921466E-1,9.486166E-3,4.138864E-1,9.020536E-2,-2.7568122E-2,1.8629059E-1],"split_indices":[6,30,6,32,6,3,27,6,29,6,3,2,18,8,32,0,5,6,5,15,29,5,18,15,4,29,5,6,2,6,30,0,0,18,29,8,2,6,28,0,0,29,5,5,29,5,5,29,5,0,5,5,32,5,29,29,0,2,0,2,6,0,11,0,0,0,0,0,0,0,0,0,0,0,0,0,0,0,0,0,0,0,0,0,0,0,0,0,0,0,0,0,0,0,0,0,0,0,0,0,0,0,0,0,0,0,0,0,0,0,0,0,0,0,0,0,0,0,0,0,0,0,0,0,0],"split_type":[0,0,0,0,0,0,0,0,0,0,0,0,0,0,0,0,0,0,0,0,0,0,0,0,0,0,0,0,0,0,0,0,0,0,0,0,0,0,0,0,0,0,0,0,0,0,0,0,0,0,0,0,0,0,0,0,0,0,0,0,0,0,0,0,0,0,0,0,0,0,0,0,0,0,0,0,0,0,0,0,0,0,0,0,0,0,0,0,0,0,0,0,0,0,0,0,0,0,0,0,0,0,0,0,0,0,0,0,0,0,0,0,0,0,0,0,0,0,0,0,0,0,0,0,0],"sum_hessian":[3.841003E3,1.4980516E3,2.3429512E3,9.5580707E2,5.422446E2,1.1451954E3,1.1977557E3,8.1154407E2,1.4426303E2,2.8461237E2,2.5763226E2,6.455325E2,4.9966296E2,5.1346747E2,6.842883E2,5.0900555E2,3.0253848E2,7.257975E1,7.168327E1,9.90404E1,1.8557196E2,1.6098245E2,9.664981E1,1.19393524E2,5.261389E2,1.559546E2,3.4370837E2,4.263271E2,8.714034E1,5.590817E2,1.25206604E2,1.4940999E0,5.0751147E2,2.4836065E1,2.7770242E2,4.8726044E1,2.3853706E1,6.557194E1,6.1113405E0,9.6661514E1,2.3788836E0,8.658651E1,9.898545E1,7.242931E1,8.855313E1,8.246707E0,8.84031E1,1.1621803E2,3.1754863E0,4.791676E2,4.697133E1,6.4784126E0,1.494762E2,2.8833234E2,5.5376026E1,2.5007216E2,1.7625493E2,6.150511E1,2.5635237E1,4.256816E2,1.334001E2,1.6032888E1,1.0917371E2,5.0426016E2,3.2512922E0,1.4608408E1,1.0227657E1,5.243443E0,2.7245895E2,4.5741272E1,2.984772E0,5.968861E0,1.7884846E1,6.0533936E1,5.0379963E0,3.5362601E0,2.5750804E0,9.560666E1,1.0548595E0,1.1758258E0,1.2030579E0,1.5563301E1,7.102321E1,3.4528522E1,6.4456924E1,4.098408E1,3.1445234E1,5.454931E1,3.4003822E1,2.0793653E0,6.1673417E0,3.6638813E1,5.1764286E1,2.6201417E0,1.1359789E2,1.1900713E0,1.985415E0,2.9425247E1,4.4974234E2,1.8714491E0,4.5099876E1,1.4455012E0,5.0329113E0,1.4697932E2,2.4968693E0,3.1506777E1,2.5682556E2,4.2274303E1,1.3101723E1,6.521581E1,1.8485634E2,1.618371E2,1.4417841E1,5.6963078E1,4.542034E0,1.7075645E1,8.55959E0,2.935621E2,1.3211952E2,2.1617787E0,1.3123833E2,6.3507776E0,9.68211E0,8.625745E1,2.2916267E1],"tree_param":{"num_deleted":"0","num_feature":"33","num_nodes":"125","size_leaf_vector":"0"}},{"base_weights":[-3.0855027E-1,-7.649249E-1,-1.8271877E-1,-8.9864904E-1,-5.3739387E-1,-3.3598757E-1,-4.419157E-2,-9.3169135E-1,-1.5873897E-1,-8.905728E-1,-3.987822E-1,-1.2084928E-1,-6.1939013E-1,5.681178E-1,-5.902923E-2,-2.4253945E-1,-9.4581145E-1,1.8680641E-1,-5.189232E-1,-9.116697E-1,-1.20281085E-1,-4.6753097E-1,2.0233773E-1,-6.739856E-1,-7.6001324E-3,-1.5831415E-1,-7.2263557E-1,6.7931693E-3,1.1020985E0,-1.5924644E-1,2.8972311E-2,-8.372785E-1,1.5965088E-1,-5.8885175E-1,-9.7519654E-1,-6.314483E-1,5.5243367E-1,7.853539E-1,-7.8632224E-1,-9.2855936E-1,-1.6966128E-1,4.4536158E-1,-5.8263516E-1,6.097958E-1,-5.1113755E-1,6.6858226E-1,-2.653496E-1,-7.209617E-1,3.0786958E-1,2.3115577E-1,-1.9346406E-1,2.9192322E-1,-6.1628574E-1,-7.949575E-1,-1.7430869E-1,5.322023E-1,-4.426133E-1,1.3353889E0,-8.4797025E-1,-4.238185E-1,-8.098254E-2,6.933967E-3,3.9423683E-1,6.46651E-1,-5.25934E-1,1.3231538E-1,-1.0062668E0,-9.815661E-1,-1.5776046E-1,-1.818368E-1,-8.1094694E-1,8.3967954E-1,-3.994065E-3,-4.5165247E-1,-9.897253E-1,-9.229387E-2,-9.394057E-1,-2.1842147E-1,1.3756412E0,2.2130789E-1,-5.8173215E-1,9.583832E-2,1.4705241E0,-6.106643E-1,3.37331E-1,-7.7311826E-1,7.587244E-2,-4.685421E-1,1.0115149E0,4.0455693E-1,-2.114142E-2,-3.5468975E-1,4.726619E-2,9.3608063E-1,-1.4283727E-1,1.455635E0,-9.3129724E-1,-9.912964E-1,-6.629676E-1,-5.528205E-1,2.3210433E0,8.188755E-2,9.634434E-1,-7.2156787E-1,6.478456E-2,1.5268142E0,5.30897E-1,-6.10491E-1,5.4949988E-2,2.8364772E-1,-1.4570887E-1,2.3980195E-2,-4.7151592E-1,1.4249974E-1,1.2064515E0],"categories":[],"categories_nodes":[],"categories_segments":[],"categories_sizes":[],"default_left":[1,1,1,1,1,1,1,1,1,1,1,1,1,1,1,1,1,1,1,1,1,1,1,1,1,1,1,1,1,1,1,0,1,1,1,1,1,0,1,1,0,0,0,1,1,1,1,1,1,1,1,1,1,1,1,1,1,1,0,1,1,1,1,0,0,0,0,0,0,0,0,0,0,0,0,0,0,0,0,0,0,0,0,0,0,0,0,0,0,0,0,0,0,0,0,0,0,0,0,0,0,0,0,0,0,0,0,0,0,0,0,0,0,0,0],"id":8,"left_children":[1,3,5,7,9,11,13,15,17,19,21,23,25,27,29,31,33,35,37,39,41,43,45,47,49,51,53,55,57,59,61,-1,63,65,67,69,71,-1,73,75,-1,-1,-1,77,79,81,83,85,87,89,91,93,95,97,99,101,103,105,-1,107,109,111,113,-1,-1,-1,-1,-1,-1,-1,-1,-1,-1,-1,-1,-1,-1,-1,-1,-1,-1,-1,-1,-1,-1,-1,-1,-1,-1,-1,-1,-1,-1,-1,-1,-1,-1,-1,-1,-1,-1,-1,-1,-1,-1,-1,-1,-1,-1,-1,-1,-1,-1,-1,-1],"loss_changes":[2.0063309E2,2.2498505E1,5.820028E1,1.144635E1,1.3453903E1,7.928003E1,1.3128515E1,4.186035E0,2.7700937E0,1.1691628E0,8.541058E0,4.6419777E1,2.6611038E1,1.024198E1,1.2423483E1,2.634553E0,4.086151E0,3.8483188E0,4.377533E0,8.0046463E-1,1.1093911E0,8.94215E0,4.903568E0,6.030655E0,2.738816E1,2.162298E1,1.8040482E1,4.4094524E0,9.101915E0,1.360158E1,6.0396066E0,0E0,2.7030184E0,1.1065613E1,1.9746094E0,1.8174434E-1,1.3807735E0,0E0,1.9603252E-1,5.892105E-1,0E0,0E0,0E0,5.1227684E0,9.286419E0,4.974769E0,2.606833E0,5.066078E0,3.9982424E0,1.1827974E1,1.3484811E1,1.5009684E1,3.5213646E1,9.830994E0,5.2947105E1,1.5918298E0,1.4725538E0,1.6587601E0,0E0,1.3448111E1,1.2064665E1,5.7931237E0,8.557451E0,0E0,0E0,0E0,0E0,0E0,0E0,0E0,0E0,0E0,0E0,0E0,0E0,0E0,0E0,0E0,0E0,0E0,0E0,0E0,0E0,0E0,0E0,0E0,0E0,0E0,0E0,0E0,0E0,0E0,0E0,0E0,0E0,0E0,0E0,0E0,0E0,0E0,0E0,0E0,0E0,0E0,0E0,0E0,0E0,0E0,0E0,0E0,0E0,0E0,0E0,0E0,0E0],"parents":[2147483647,0,0,1,1,2,2,3,3,4,4,5,5,6,6,7,7,8,8,9,9,10,10,11,11,12,12,13,13,14,14,15,15,16,16,17,17,18,18,19,19,20,20,21,21,22,22,23,23,24,24,25,25,26,26,27,27,28,28,29,29,30,30,32,32,33,33,34,34,35,35,36,36,38,38,39,39,43,43,44,44,45,45,46,46,47,47,48,48,49,49,50,50,51,51,52,52,53,53,54,54,55,55,56,56,57,57,59,59,60,60,61,61,62,62],"right_children":[2,4,6,8,10,12,14,16,18,20,22,24,26,28,30,32,34,36,38,40,42,44,46,48,50,52,54,56,58,60,62,-1,64,66,68,70,72,-1,74,76,-1,-1,-1,78,80,82,84,86,88,90,92,94,96,98,100,102,104,106,-1,108,110,112,114,-1,-1,-1,-1,-1,-1,-1,-1,-1,-1,-1,-1,-1,-1,-1,-1,-1,-1,-1,-1,-1,-1,-1,-1,-1,-1,-1,-1,-1,-1,-1,-1,-1,-1,-1,-1,-1,-1,-1,-1,-1,-1,-1,-1,-1,-1,-1,-1,-1,-1,-1,-1],"split_conditions":[1.395E2,-2.5E-1,3.405E2,5E-1,7.75E1,5E-1,-9.330127E-1,-6.830127E-1,-2.5E-1,9.3425E3,5.95E1,6.55E1,-2.5E-1,1.95E1,5.595E2,8.3E1,2.85E1,3.35E1,2.75E1,5E-1,1.44085E4,2.45E1,1.5E0,5E-1,3.75E1,2.5E-1,2.5E-1,5.155E2,1.075E3,5E-1,2.95E1,-2.5118357E-1,4.75E1,5E-1,6.05E1,6.05E2,5E-1,2.3560618E-1,5.5E0,2.35E1,-5.0898388E-2,1.3360848E-1,-1.7479056E-1,2.25E1,-9.330127E-1,1.65E1,1.305E2,6.15E1,6.123234E-17,1.75E1,2.5E-1,1.5E0,1.65E1,5E-1,6.830127E-1,1.5E0,8.46E2,5E-1,-2.5439107E-1,5E-1,2.95E1,2.85E1,9.330127E-1,1.9399531E-1,-1.577802E-1,3.9694615E-2,-3.0188006E-1,-2.9446983E-1,-4.732814E-2,-5.4551043E-2,-2.4328409E-1,2.5190386E-1,-1.1982195E-3,-1.3549575E-1,-2.969176E-1,-2.7688162E-2,-2.8182173E-1,-6.552645E-2,4.126924E-1,6.639237E-2,-1.7451966E-1,2.8751498E-2,4.4115725E-1,-1.831993E-1,1.0119931E-1,-2.3193549E-1,2.2761734E-2,-1.4056264E-1,3.034545E-1,1.2136708E-1,-6.342426E-3,-1.0640693E-1,1.4179857E-2,2.808242E-1,-4.2851184E-2,4.366905E-1,-2.7938917E-1,-2.9738894E-1,-1.988903E-1,-1.6584615E-1,6.96313E-1,2.4566267E-2,2.8903303E-1,-2.1647038E-1,1.9435368E-2,4.580443E-1,1.5926911E-1,-1.831473E-1,1.6484996E-2,8.509432E-2,-4.3712664E-2,7.1940585E-3,-1.4145479E-1,4.2749926E-2,3.6193547E-1],"split_indices":[6,30,6,22,6,3,29,29,29,2,0,2,29,5,6,6,0,0,0,22,2,0,31,22,0,30,30,6,6,18,5,0,0,3,0,2,24,0,5,0,0,0,0,0,29,5,6,0,29,5,29,31,5,18,29,31,6,22,0,19,0,5,29,0,0,0,0,0,0,0,0,0,0,0,0,0,0,0,0,0,0,0,0,0,0,0,0,0,0,0,0,0,0,0,0,0,0,0,0,0,0,0,0,0,0,0,0,0,0,0,0,0,0,0,0],"split_type":[0,0,0,0,0,0,0,0,0,0,0,0,0,0,0,0,0,0,0,0,0,0,0,0,0,0,0,0,0,0,0,0,0,0,0,0,0,0,0,0,0,0,0,0,0,0,0,0,0,0,0,0,0,0,0,0,0,0,0,0,0,0,0,0,0,0,0,0,0,0,0,0,0,0,0,0,0,0,0,0,0,0,0,0,0,0,0,0,0,0,0,0,0,0,0,0,0,0,0,0,0,0,0,0,0,0,0,0,0,0,0,0,0,0,0],"sum_hessian":[3.4951829E3,7.5431195E2,2.7408708E3,4.732341E2,2.8107785E2,1.3005239E3,1.4403468E3,4.5275607E2,2.0478025E1,7.769303E1,2.0338483E2,7.40112E2,5.604119E2,3.3194916E1,1.407152E3,9.455262E0,4.433008E2,1.0697072E1,9.780954E0,7.5443245E1,2.2497873E0,1.8271082E2,2.0674E1,1.2493718E2,6.151748E2,1.0299367E2,4.5741827E2,1.6676826E1,1.651809E1,6.575343E2,7.496176E2,3.3780997E0,6.0771623E0,3.5317345E1,4.079835E2,3.0791245E0,7.6179476E0,1.3345383E0,8.446416E0,7.3518394E1,1.924851E0,1.0283991E0,1.2213883E0,6.6027155E0,1.7610811E2,1.0137863E1,1.0536138E1,1.1948617E2,5.4510083E0,2.6916672E2,3.4600812E2,5.2118206E1,5.087546E1,4.037196E2,5.369865E1,7.603364E0,9.073463E0,1.5034673E1,1.4834172E0,1.4909651E2,5.084378E2,7.0792377E2,4.169381E1,3.5863876E0,2.4907749E0,1.3198075E1,2.211927E1,4.046298E2,3.3536885E0,1.4528999E0,1.6262245E0,4.688526E0,2.9294214E0,4.4103374E0,4.036079E0,1.0630722E0,7.245532E1,3.5155978E0,3.0871177E0,1.5293847E1,1.6081425E2,6.5671415E0,3.5707211E0,6.6898456E0,3.846292E0,1.1217364E2,7.3125334E0,2.7503533E0,2.700655E0,1.5916844E2,1.0999826E2,2.0693974E2,1.3906839E2,2.053689E1,3.1581318E1,6.236344E0,4.463912E1,1.5968016E2,2.4403946E2,4.730202E1,6.396631E0,4.301499E0,3.301865E0,5.582339E0,3.4911242E0,1.1419574E1,3.6150994E0,1.0707334E2,4.2023174E1,7.61381E1,4.322997E2,6.8448676E2,2.3437037E1,3.2726147E1,8.967666E0],"tree_param":{"num_deleted":"0","num_feature":"33","num_nodes":"115","size_leaf_vector":"0"}},{"base_weights":[-2.4497089E-1,-7.227846E-1,-1.4657721E-1,-9.501149E-1,-5.757916E-1,-3.8471955E-1,-7.024677E-2,-9.652066E-1,-3.3786234E-1,-3.9048064E-1,-7.925408E-1,-6.675124E-1,-1.1057005E-1,-2.4839588E-2,-3.614964E-1,-9.691268E-1,-8.536194E-2,1.4561647E-1,-8.2529134E-1,-6.3773704E-1,-5.6410257E-2,-8.704606E-1,-5.215081E-1,2.5139996E-1,-8.3319896E-1,-1.427111E-1,4.7483772E-1,7.944721E-2,-1.7868678E-1,-4.947622E-1,2.342222E-1,-9.7716755E-1,-5.027879E-1,-3.7013045E-1,5.7065797E-1,5.399044E-1,-6.841953E-1,-7.295656E-1,2.5247678E-1,-1.6031459E-1,-9.2601717E-1,-6.245109E-1,7.437565E-1,-1.0789418E0,4.032338E-1,-1.0028964E0,-3.2000515E-1,-4.326768E-1,-6.813217E-2,8.542609E-1,-4.1107035E-1,-5.6553286E-2,3.3236396E-1,-3.6623943E-1,-4.335411E-2,1.30527E0,-5.174657E-1,4.7103977E-1,-3.782192E-2,4.5625377E-1,-8.179423E-1,-7.259009E-1,1.2149812E0,7.752126E-2,-7.6086247E-1,-8.9022607E-1,4.002001E-1,1.5969045E0,9.265284E-2,-5.246737E-1,4.6334553E-1,-7.9362893E-1,-9.957949E-1,-6.870627E-1,5.387469E-1,-6.1282647E-1,1.6798573E0,8.3974516E-1,-1.5606417E-1,-6.274057E-1,-1.0161709E0,-5.419919E-1,2.583237E-1,-5.665116E-1,6.190887E-1,-3.442574E-2,-5.1944107E-1,-2.7525013E-2,1.1235372E0,2.6708445E-1,-8.567538E-1,1.628593E-1,-2.5354844E-1,9.915452E-1,2.131351E-1,-3.9668486E-1,1.0291008E0,-7.512045E-2,6.71629E-1,2.1857458E-1,1.7700328E0,-6.4586216E-1,-2.6972157E-1,-1.9052105E-1,8.027017E-1,-6.184968E-1,1.334915E-1],"categories":[],"categories_nodes":[],"categories_segments":[],"categories_sizes":[],"default_left":[1,1,1,1,1,1,1,1,1,1,1,1,1,1,1,1,0,1,0,1,1,1,1,1,1,1,1,1,1,1,1,0,1,0,0,1,1,1,1,1,1,1,1,0,1,1,1,1,1,1,1,1,1,1,1,1,1,1,1,0,0,0,0,0,0,0,0,0,0,0,0,0,0,0,0,0,0,0,0,0,0,0,0,0,0,0,0,0,0,0,0,0,0,0,0,0,0,0,0,0,0,0,0,0,0,0,0],"id":9,"left_children":[1,3,5,7,9,11,13,15,17,19,21,23,25,27,29,31,-1,33,-1,35,37,39,41,43,45,47,49,51,53,55,57,-1,59,-1,-1,61,63,65,67,69,71,73,75,-1,77,79,81,83,85,87,89,91,93,95,97,99,101,103,105,-1,-1,-1,-1,-1,-1,-1,-1,-1,-1,-1,-1,-1,-1,-1,-1,-1,-1,-1,-1,-1,-1,-1,-1,-1,-1,-1,-1,-1,-1,-1,-1,-1,-1,-1,-1,-1,-1,-1,-1,-1,-1,-1,-1,-1,-1,-1,-1],"loss_changes":[1.5184882E2,1.788742E1,4.871526E1,1.6613617E0,1.3249405E1,5.036828E1,2.6861568E1,6.3946533E-1,1.7021751E0,1.5158855E1,2.8113708E0,4.8940582E1,6.3063574E0,2.8233658E1,2.1866264E1,2.8996277E-1,0E0,1.1363404E0,0E0,6.147766E0,1.6680996E1,4.530571E0,5.289119E0,1.0466551E1,2.3315277E1,6.7841606E0,6.229392E0,3.609983E1,1.8027918E1,9.838169E0,3.2882566E0,0E0,2.06321E0,0E0,0E0,4.784851E0,6.0184784E0,4.9324446E0,1.1697217E1,2.4732714E0,2.2385406E-1,2.9006252E0,5.148078E0,0E0,1.1191454E1,3.767395E-1,8.987133E0,9.397806E0,3.812576E0,3.015297E0,2.0178046E0,2.9563046E1,2.8629147E1,1.3060329E1,9.454855E0,1.1669574E0,6.8917007E0,6.1239147E0,2.524776E0,0E0,0E0,0E0,0E0,0E0,0E0,0E0,0E0,0E0,0E0,0E0,0E0,0E0,0E0,0E0,0E0,0E0,0E0,0E0,0E0,0E0,0E0,0E0,0E0,0E0,0E0,0E0,0E0,0E0,0E0,0E0,0E0,0E0,0E0,0E0,0E0,0E0,0E0,0E0,0E0,0E0,0E0,0E0,0E0,0E0,0E0,0E0,0E0],"parents":[2147483647,0,0,1,1,2,2,3,3,4,4,5,5,6,6,7,7,8,8,9,9,10,10,11,11,12,12,13,13,14,14,15,15,17,17,19,19,20,20,21,21,22,22,23,23,24,24,25,25,26,26,27,27,28,28,29,29,30,30,32,32,35,35,36,36,37,37,38,38,39,39,40,40,41,41,42,42,44,44,45,45,46,46,47,47,48,48,49,49,50,50,51,51,52,52,53,53,54,54,55,55,56,56,57,57,58,58],"right_children":[2,4,6,8,10,12,14,16,18,20,22,24,26,28,30,32,-1,34,-1,36,38,40,42,44,46,48,50,52,54,56,58,-1,60,-1,-1,62,64,66,68,70,72,74,76,-1,78,80,82,84,86,88,90,92,94,96,98,100,102,104,106,-1,-1,-1,-1,-1,-1,-1,-1,-1,-1,-1,-1,-1,-1,-1,-1,-1,-1,-1,-1,-1,-1,-1,-1,-1,-1,-1,-1,-1,-1,-1,-1,-1,-1,-1,-1,-1,-1,-1,-1,-1,-1,-1,-1,-1,-1,-1,-1],"split_conditions":[1.305E2,7.75E1,5E-1,5E-1,5E-1,3.895E2,5E-1,7.05E1,1.5E0,2.5E-1,2.5E-1,-2.5E-1,5E-1,5E-1,7.195E2,9.356E3,-2.5608584E-2,6.15E1,-2.4758741E-1,2.45E1,5E-1,-6.830127E-1,6.830127E-1,4.5E0,5E-1,5.065E2,5E-1,2.5E-1,3.375E2,1.5E0,1.65E1,-2.9315028E-1,1.08985E4,-1.1103914E-1,1.711974E-1,9.95E1,-9.330127E-1,2.5E-1,-6.830127E-1,-9.330127E-1,5E-1,5.95E1,3.35E1,-3.2368255E-1,1.5E0,2.65E1,2.995E2,-6.1232336E-17,4.5E0,6.5E0,5.22E2,1.65E1,-6.830127E-1,5.95E1,4.5E0,1.0255E3,2.5E-1,7.5E0,-1.785E2,1.3687614E-1,-2.4538271E-1,-2.1777028E-1,3.6449438E-1,2.3256378E-2,-2.2825874E-1,-2.6706782E-1,1.20060034E-1,4.7907138E-1,2.7795853E-2,-1.5740211E-1,1.3900366E-1,-2.3808868E-1,-2.9873848E-1,-2.061188E-1,1.6162407E-1,-1.8384795E-1,5.039572E-1,2.5192356E-1,-4.681925E-2,-1.8822172E-1,-3.0485126E-1,-1.6259757E-1,7.749711E-2,-1.6995348E-1,1.8572661E-1,-1.0327722E-2,-1.5583232E-1,-8.257505E-3,3.3706117E-1,8.012534E-2,-2.5702617E-1,4.8857793E-2,-7.6064534E-2,2.9746357E-1,6.394053E-2,-1.19005464E-1,3.0873024E-1,-2.2536136E-2,2.0148872E-1,6.557238E-2,5.3100985E-1,-1.9375865E-1,-8.091647E-2,-5.7156317E-2,2.4081053E-1,-1.8554904E-1,4.004745E-2],"split_indices":[6,6,18,22,3,6,4,0,32,29,30,29,32,3,6,2,0,6,0,0,18,29,29,5,19,6,3,29,6,5,5,0,2,0,0,6,29,30,30,29,27,0,0,0,31,0,6,30,31,5,6,5,30,0,32,2,29,5,2,0,0,0,0,0,0,0,0,0,0,0,0,0,0,0,0,0,0,0,0,0,0,0,0,0,0,0,0,0,0,0,0,0,0,0,0,0,0,0,0,0,0,0,0,0,0,0,0],"split_type":[0,0,0,0,0,0,0,0,0,0,0,0,0,0,0,0,0,0,0,0,0,0,0,0,0,0,0,0,0,0,0,0,0,0,0,0,0,0,0,0,0,0,0,0,0,0,0,0,0,0,0,0,0,0,0,0,0,0,0,0,0,0,0,0,0,0,0,0,0,0,0,0,0,0,0,0,0,0,0,0,0,0,0,0,0,0,0,0,0,0,0,0,0,0,0,0,0,0,0,0,0,0,0,0,0,0,0],"sum_hessian":[3.2311277E3,5.506666E2,2.6804612E3,2.140957E2,3.3657092E2,6.496345E2,2.0308265E3,2.0838269E2,5.7130127E0,1.8295447E2,1.5361646E2,3.1907004E2,3.3056448E2,1.7578541E3,2.7297244E2,2.0735733E2,1.0253639E0,3.2201827E0,2.4928298E0,1.0461586E2,7.8338615E1,1.17596664E2,3.6019787E1,4.8663055E1,2.7040698E2,3.1407672E2,1.6487757E1,1.0479647E3,7.098894E2,2.2320876E2,4.976367E1,2.027658E2,4.5915375E0,1.5132226E0,1.7069602E0,3.567376E0,1.01048485E2,2.4211891E1,5.4126724E1,8.814306E0,1.0878236E2,3.377652E1,2.2432652E0,4.3595314E0,4.4303524E1,2.0249414E2,6.791284E1,6.327185E1,2.5080489E2,1.1568737E1,4.9190207E0,6.820068E2,3.6595798E2,2.9682465E2,4.1306473E2,2.0765753E0,2.2113219E2,2.6213251E1,2.3550423E1,1.0249158E0,3.5666213E0,1.2146171E0,2.352759E0,9.239499E0,9.180898E1,2.1383095E1,2.8287966E0,4.795518E0,4.9331203E1,5.663976E0,3.1503298E0,4.18171E1,6.6965256E1,3.2441414E1,1.3351063E0,1.0569258E0,1.1863393E0,2.460152E1,1.9702003E1,8.562132E0,1.93932E2,4.9120987E1,1.8791855E1,5.6538788E1,6.7330613E0,2.3437654E2,1.6428352E1,2.9163828E0,8.652354E0,2.1096675E0,2.8093529E0,3.2272736E2,3.5927942E2,5.493304E1,3.1102493E2,2.9118683E2,5.6378007E0,3.9635004E2,1.6714699E1,1.062518E0,1.0140573E0,1.4458978E2,7.654241E1,8.895366E0,1.7317886E1,4.7704463E0,1.8779976E1],"tree_param":{"num_deleted":"0","num_feature":"33","num_nodes":"107","size_leaf_vector":"0"}},{"base_weights":[-1.9232349E-1,-6.349049E-1,-1.09759435E-1,-8.0447304E-1,-3.887698E-1,-3.114532E-1,-4.95918E-2,-8.4960467E-1,-7.866118E-2,-9.125086E-1,-2.850338E-1,-5.902628E-1,-8.151002E-2,-2.7364582E-1,-3.9563137E-3,-8.764156E-1,-1.4324033E-1,5.226601E-1,-2.6395983E-1,-9.396911E-1,-5.0376263E-2,-5.7973176E-1,-5.8406617E-2,-8.996907E-1,-1.2931873E-1,-9.688609E-2,8.524069E-1,-3.5481432E-1,6.505379E-1,1.14769876E-1,-1.049459E-1,-8.8945615E-1,6.6174544E-2,-7.105392E-1,4.9277112E-1,9.2119473E-1,-2.1518493E-1,2.5440115E-1,-6.997499E-1,-9.6950406E-1,-1.0458812E-1,1.4278367E-1,-6.913463E-1,-6.79258E-1,1.1390975E-1,-9.8027486E-1,9.4768506E-1,1.3314927E-1,-3.1133875E-1,-3.4028184E-1,-4.0204983E-2,2.0159064E-1,1.5216876E0,1.4823976E0,-4.1052282E-1,6.1964955E-2,9.906001E-1,6.132823E-1,2.4552016E-2,-2.2506785E-1,9.049717E-2,-4.587595E-1,-9.1304654E-1,-6.444845E-1,6.802344E-1,-8.3752304E-1,-4.660753E-2,1.4156258E0,-1.2850663E-2,2.260016E-1,1.1616243E0,9.6913344E-1,-1.4326522E-1,-9.81656E-1,3.441192E-2,-9.968141E-1,-1.711213E-1,-6.435689E-1,9.250736E-1,1.5476364E-2,-9.023718E-1,-8.420725E-1,-1.1767E-3,5.656922E-1,-2.899004E-1,-3.3529314E-1,-9.9600905E-1,1.2231538E0,-3.2374555E-1,2.959635E-1,-4.795238E-1,-3.9966118E-1,4.8881194E-1,-4.417717E-1,2.2693822E-1,-1.4480534E-1,8.9296E-2,-3.3636743E-1,6.273453E-1,2.2336984E0,-5.0299052E-2,-7.143423E-1,-9.207028E-3,-1.1476475E0,4.3018228E-1,1.3885525E0,3.9894077E-1,3.0228254E-1,8.487872E-1,-5.7854943E-2,2.951309E-1,-3.3109877E-1,1.759531E-2,-1.2654306E-1,4.1110975E-1],"categories":[],"categories_nodes":[],"categories_segments":[],"categories_sizes":[],"default_left":[1,1,1,1,1,1,1,1,1,1,1,1,1,1,1,1,1,1,1,1,0,1,1,1,1,1,1,1,1,1,1,1,1,1,1,1,0,1,1,1,0,1,1,1,1,1,1,1,1,1,1,1,0,1,1,1,1,1,1,1,1,0,0,0,0,0,0,0,0,0,0,0,0,0,0,0,0,0,0,0,0,0,0,0,0,0,0,0,0,0,0,0,0,0,0,0,0,0,0,0,0,0,0,0,0,0,0,0,0,0,0,0,0,0,0],"id":10,"left_children":[1,3,5,7,9,11,13,15,17,19,21,23,25,27,29,31,33,35,37,39,-1,41,43,45,47,49,51,53,55,57,59,61,63,65,67,69,-1,71,73,75,-1,77,79,81,83,85,87,89,91,93,95,97,-1,99,101,103,105,107,109,111,113,-1,-1,-1,-1,-1,-1,-1,-1,-1,-1,-1,-1,-1,-1,-1,-1,-1,-1,-1,-1,-1,-1,-1,-1,-1,-1,-1,-1,-1,-1,-1,-1,-1,-1,-1,-1,-1,-1,-1,-1,-1,-1,-1,-1,-1,-1,-1,-1,-1,-1,-1,-1,-1,-1],"loss_changes":[1.1063839E2,1.9558884E1,3.0985123E1,9.136993E0,1.0396711E1,3.7569717E1,2.0129347E1,4.882141E0,2.0934913E0,7.019558E-1,1.099755E1,3.7686493E1,4.7168875E0,2.5220633E1,1.963565E1,3.1878357E0,4.2702484E0,1.5125953E0,3.3587692E0,6.6889954E-1,0E0,5.8801365E0,1.0185401E1,2.4512573E1,5.18319E0,4.378866E0,2.0145898E0,3.2017597E1,5.392514E0,3.3839348E1,2.079532E1,2.1329193E0,2.3604355E0,4.7964168E-1,2.6838183E0,2.5421E-1,0E0,2.1751451E0,1.672148E0,4.7813416E-1,0E0,7.006386E0,9.30195E0,2.2810144E0,1.38123865E1,1.2115173E0,2.8931818E0,4.608165E0,4.7078414E0,3.554686E0,3.5265493E0,1.0938807E0,0E0,1.0762083E1,3.6405296E1,5.413205E0,3.496704E0,8.188938E0,1.4252594E1,1.4114706E1,2.3541334E1,0E0,0E0,0E0,0E0,0E0,0E0,0E0,0E0,0E0,0E0,0E0,0E0,0E0,0E0,0E0,0E0,0E0,0E0,0E0,0E0,0E0,0E0,0E0,0E0,0E0,0E0,0E0,0E0,0E0,0E0,0E0,0E0,0E0,0E0,0E0,0E0,0E0,0E0,0E0,0E0,0E0,0E0,0E0,0E0,0E0,0E0,0E0,0E0,0E0,0E0,0E0,0E0,0E0,0E0],"parents":[2147483647,0,0,1,1,2,2,3,3,4,4,5,5,6,6,7,7,8,8,9,9,10,10,11,11,12,12,13,13,14,14,15,15,16,16,17,17,18,18,19,19,21,21,22,22,23,23,24,24,25,25,26,26,27,27,28,28,29,29,30,30,31,31,32,32,33,33,34,34,35,35,37,37,38,38,39,39,41,41,42,42,43,43,44,44,45,45,46,46,47,47,48,48,49,49,50,50,51,51,53,53,54,54,55,55,56,56,57,57,58,58,59,59,60,60],"right_children":[2,4,6,8,10,12,14,16,18,20,22,24,26,28,30,32,34,36,38,40,-1,42,44,46,48,50,52,54,56,58,60,62,64,66,68,70,-1,72,74,76,-1,78,80,82,84,86,88,90,92,94,96,98,-1,100,102,104,106,108,110,112,114,-1,-1,-1,-1,-1,-1,-1,-1,-1,-1,-1,-1,-1,-1,-1,-1,-1,-1,-1,-1,-1,-1,-1,-1,-1,-1,-1,-1,-1,-1,-1,-1,-1,-1,-1,-1,-1,-1,-1,-1,-1,-1,-1,-1,-1,-1,-1,-1,-1,-1,-1,-1,-1,-1],"split_conditions":[1.335E2,-2.5E-1,5E-1,5E-1,6.25E1,3.895E2,-9.330127E-1,5E-1,-6.830127E-1,5E-1,2.5E-1,5E-1,5E-1,5E-1,1.5E0,6.05E1,8.65E1,1.075E2,6.5E0,5E-1,-1.511288E-2,1.25E1,4.5E0,-2.5E-1,1.5E0,4.75E1,5E-1,6.5E0,1.25E1,-6.830127E-1,5E-1,2.65E1,1.055E2,1.0465E3,9.85E1,3.85E1,-6.455548E-2,-2.5E-1,1.9E1,6.25E1,-3.1376436E-2,8.5E0,-9.330127E-1,6.830127E-1,9.330127E-1,2.5E-1,5.05E1,6.830127E-1,7.55E1,1.044E3,7.305E2,3.85E1,4.565063E-1,4.015E2,5.285E2,3.05E1,5E-1,5.5E0,2.15E1,1.347E3,2.5E-1,-1.3762785E-1,-2.7391398E-1,-1.9334537E-1,2.0407031E-1,-2.512569E-1,-1.398226E-2,4.2468777E-1,-3.8551989E-3,6.7800485E-2,3.4848732E-1,2.9074004E-1,-4.297957E-2,-2.944968E-1,1.0323576E-2,-2.9904422E-1,-5.1336393E-2,-1.9307067E-1,2.775221E-1,4.6429094E-3,-2.7071157E-1,-2.5262177E-1,-3.5301002E-4,1.6970766E-1,-8.697012E-2,-1.0058795E-1,-2.9880273E-1,3.6694616E-1,-9.712367E-2,8.878905E-2,-1.4385715E-1,-1.1989836E-1,1.466436E-1,-1.3253151E-1,6.808147E-2,-4.3441605E-2,2.6788801E-2,-1.0091023E-1,1.882036E-1,6.701095E-1,-1.5089716E-2,-2.143027E-1,-2.7621086E-3,-3.4429425E-1,1.290547E-1,4.1656578E-1,1.1968224E-1,9.0684764E-2,2.5463617E-1,-1.7356483E-2,8.853927E-2,-9.9329636E-2,5.278593E-3,-3.796292E-2,1.23332925E-1],"split_indices":[6,30,18,22,6,6,30,21,29,15,29,19,1,32,31,0,6,6,5,17,0,5,5,30,31,2,28,5,5,30,25,0,6,2,6,0,0,29,5,0,0,5,29,29,29,29,0,29,0,6,6,0,0,6,6,0,22,5,5,2,29,0,0,0,0,0,0,0,0,0,0,0,0,0,0,0,0,0,0,0,0,0,0,0,0,0,0,0,0,0,0,0,0,0,0,0,0,0,0,0,0,0,0,0,0,0,0,0,0,0,0,0,0,0,0],"split_type":[0,0,0,0,0,0,0,0,0,0,0,0,0,0,0,0,0,0,0,0,0,0,0,0,0,0,0,0,0,0,0,0,0,0,0,0,0,0,0,0,0,0,0,0,0,0,0,0,0,0,0,0,0,0,0,0,0,0,0,0,0,0,0,0,0,0,0,0,0,0,0,0,0,0,0,0,0,0,0,0,0,0,0,0,0,0,0,0,0,0,0,0,0,0,0,0,0,0,0,0,0,0,0,0,0,0,0,0,0,0,0,0,0,0,0],"sum_hessian":[3.0286685E3,4.7511945E2,2.5535488E3,2.7997192E2,1.9514752E2,5.8576685E2,1.9677821E3,2.6342157E2,1.6550344E1,3.0973438E1,1.6417409E2,2.640433E2,3.2172354E2,3.3213263E2,1.6356494E3,2.5355676E2,9.864806E0,3.4697764E0,1.3080568E1,2.9939503E1,1.0339357E0,7.06914E1,9.348269E1,1.5741805E2,1.0662526E2,3.173942E2,4.3293405E0,3.0588376E2,2.624885E1,7.517429E2,8.8390656E2,2.5015234E2,3.4044259E0,5.152122E0,4.712684E0,2.091561E0,1.3782153E0,6.164402E0,6.916167E0,2.875212E1,1.187383E0,9.421812E0,6.1269585E1,1.967006E1,7.381263E1,1.512881E2,6.129955E0,4.3773514E1,6.2851746E1,5.900706E1,2.5838715E2,2.8546505E0,1.4746901E0,8.24844E0,2.976353E2,1.0045138E1,1.620371E1,1.14309685E2,6.374332E2,5.473477E2,3.3655884E2,1.405179E1,2.3610054E2,1.5551196E0,1.8493063E0,4.105452E0,1.0466698E0,1.0310506E0,3.6816335E0,1.0359991E0,1.055562E0,1.6899593E0,4.474443E0,4.753709E0,2.1624577E0,2.7560816E1,1.1913036E0,4.7871394E0,4.634673E0,1.4299746E1,4.6969837E1,1.5666515E1,4.0035424E0,3.4647808E1,3.916482E1,4.134034E0,1.4715407E2,5.0695534E0,1.0604014E0,3.4991627E1,8.781887E0,5.7054466E1,5.797282E0,5.0239178E1,8.7678795E0,1.4287012E2,1.1551703E2,1.3538973E0,1.500753E0,5.228269E0,3.0201705E0,1.6895018E2,1.2868513E2,1.8502401E0,8.194899E0,8.882456E0,7.321255E0,5.0243446E1,6.406624E1,4.8922275E2,1.482105E2,3.8065652E2,1.6669116E2,2.0105737E2,1.3550146E2],"tree_param":{"num_deleted":"0","num_feature":"33","num_nodes":"115","size_leaf_vector":"0"}},{"base_weights":[-1.4970775E-1,-4.3302414E-1,-5.0772037E-2,-6.339284E-1,-1.9736212E-1,4.628239E-1,-6.785271E-2,-7.313764E-1,-2.7907893E-1,-8.718414E-1,-1.438219E-1,-1.0658874E-1,8.046225E-1,-1.3339485E-1,6.829748E-2,-9.119056E-1,-6.033291E-1,2.5572311E-2,-8.0518E-1,-2.2348307E-1,-9.4045943E-1,6.7273396E-1,-1.7655137E-1,1.675229E-1,-9.611015E-1,9.228961E-1,-7.65617E-1,-3.0652487E-1,-2.5812872E-2,3.2083206E-2,6.4568573E-1,-2.6952037E-1,-9.409684E-1,-7.710296E-1,-7.7724546E-2,1.0994683E-1,-9.350086E-1,-9.521877E-1,1.17357805E-1,-6.503861E-1,4.5764023E-1,-9.7957224E-1,-1.6985317E-1,-3.3468542E-1,9.2448324E-1,-2.523111E-2,-3.489928E-1,4.344329E-1,-3.673492E-1,-1.1548244E0,-7.4223545E-3,1.1059203E0,3.3349195E-1,4.2533074E-2,-1.1541396E0,-3.7974358E-1,3.6807945E-1,-5.259248E-2,2.5778362E-1,-1.0517814E-1,1.901378E-1,8.665797E-1,1.9561222E-1,-5.591175E-1,7.2447133E-1,-9.3861565E-2,-9.482538E-1,9.852168E-1,-8.0525756E-1,1.8871456E0,-7.545078E-1,1.8897149E-1,-8.970573E-1,-1.040795E0,-2.8323406E-1,-9.9509156E-1,-4.0217954E-1,8.777492E-1,-6.5085346E-1,-7.095939E-1,2.4436715E-1,-6.3343537E-1,1.1652945E0,-4.1412106E-1,6.1078142E-2,-6.332158E-1,-1.8140991E-1,-1.5438265E-1,7.050359E-1,4.058454E-1,-5.705928E-1,1.2244511E0,5.658692E-1,6.8399346E-1,-9.584414E-1,-4.386871E-1,1.919482E-1,4.740488E-2,5.6028986E-1,-7.231801E-2,3.8214016E-1,3.5555905E-1,-4.6627584E-1,1.7802551E-1,-3.176368E-1,2.1638033E-1,-1.0211847E0,1.0931782E0,2.628538E-1,4.85587E-1,-8.456878E-1],"categories":[],"categories_nodes":[],"categories_segments":[],"categories_sizes":[],"default_left":[1,1,1,1,1,1,1,1,1,1,1,1,1,1,1,1,1,1,1,1,1,1,1,1,1,1,1,1,1,1,1,1,1,1,1,1,1,1,1,0,0,0,0,1,1,1,1,1,1,0,0,1,1,0,0,1,1,1,1,1,1,1,1,0,0,0,0,0,0,0,0,0,0,0,0,0,0,0,0,0,0,0,0,0,0,0,0,0,0,0,0,0,0,0,0,0,0,0,0,0,0,0,0,0,0,0,0,0,0,0,0],"id":11,"left_children":[1,3,5,7,9,11,13,15,17,19,21,23,25,27,29,31,33,35,37,39,41,43,45,47,49,51,53,55,57,59,61,63,65,67,69,71,73,75,77,-1,-1,-1,-1,79,81,83,85,87,89,-1,-1,91,93,-1,-1,95,97,99,101,103,105,107,109,-1,-1,-1,-1,-1,-1,-1,-1,-1,-1,-1,-1,-1,-1,-1,-1,-1,-1,-1,-1,-1,-1,-1,-1,-1,-1,-1,-1,-1,-1,-1,-1,-1,-1,-1,-1,-1,-1,-1,-1,-1,-1,-1,-1,-1,-1,-1,-1],"loss_changes":[8.059353E1,3.511183E1,1.874137E1,1.3672607E1,1.2295273E1,1.3471027E1,1.8436352E1,6.713501E0,1.4137452E1,9.063816E-1,8.666988E0,6.4104805E0,8.709936E0,2.596184E1,1.4024494E1,2.1442108E0,1.640432E1,4.702089E0,4.496401E0,1.3774712E0,5.08276E-1,3.4883175E0,8.03643E0,3.1650681E0,1.2160292E0,4.0032578E0,1.1684895E0,2.6529247E1,6.5527406E0,1.3755329E1,3.7665997E0,2.4087143E0,6.668472E-1,9.298988E0,6.298439E1,4.3919396E0,2.8392315E-2,2.60437E-1,3.6871219E0,0E0,0E0,0E0,0E0,8.768254E-1,4.6001043E0,5.5733604E0,6.7451515E0,2.419561E0,1.4180393E0,0E0,0E0,1.2591248E0,5.6524634E0,0E0,0E0,1.6341614E1,3.2289557E0,6.78131E0,5.43721E0,2.0483412E1,9.586571E0,3.3058815E0,4.736305E0,0E0,0E0,0E0,0E0,0E0,0E0,0E0,0E0,0E0,0E0,0E0,0E0,0E0,0E0,0E0,0E0,0E0,0E0,0E0,0E0,0E0,0E0,0E0,0E0,0E0,0E0,0E0,0E0,0E0,0E0,0E0,0E0,0E0,0E0,0E0,0E0,0E0,0E0,0E0,0E0,0E0,0E0,0E0,0E0,0E0,0E0,0E0,0E0],"parents":[2147483647,0,0,1,1,2,2,3,3,4,4,5,5,6,6,7,7,8,8,9,9,10,10,11,11,12,12,13,13,14,14,15,15,16,16,17,17,18,18,19,19,20,20,21,21,22,22,23,23,24,24,25,25,26,26,27,27,28,28,29,29,30,30,31,31,32,32,33,33,34,34,35,35,36,36,37,37,38,38,43,43,44,44,45,45,46,46,47,47,48,48,51,51,52,52,55,55,56,56,57,57,58,58,59,59,60,60,61,61,62,62],"right_children":[2,4,6,8,10,12,14,16,18,20,22,24,26,28,30,32,34,36,38,40,42,44,46,48,50,52,54,56,58,60,62,64,66,68,70,72,74,76,78,-1,-1,-1,-1,80,82,84,86,88,90,-1,-1,92,94,-1,-1,96,98,100,102,104,106,108,110,-1,-1,-1,-1,-1,-1,-1,-1,-1,-1,-1,-1,-1,-1,-1,-1,-1,-1,-1,-1,-1,-1,-1,-1,-1,-1,-1,-1,-1,-1,-1,-1,-1,-1,-1,-1,-1,-1,-1,-1,-1,-1,-1,-1,-1,-1,-1,-1],"split_conditions":[1.855E2,-2.5E-1,-9.330127E-1,5E-1,6.25E1,1.55E1,5E-1,5E-1,6.830127E-1,2.95E1,2.45E1,5E-1,1.011E3,3.655E2,5E-1,-2.5E-1,2.5E-1,3.5E0,1.85E1,7.705E2,5E-1,2.05E1,1.5E0,1.5855E3,7.29E2,2.5E0,5.7E1,5E-1,1.1795E3,2.5E-1,5E-1,1.695E2,2.25E1,2.35E1,6.830127E-1,5E-1,1.755E3,5E-1,5E-1,-1.9511583E-1,1.3729207E-1,-2.9387167E-1,-5.095595E-2,1.51E2,7.5E0,1.055E2,2.5E-1,2.79E2,2.24E2,-3.4644732E-1,-2.2267064E-3,5E-1,2.65E1,1.2759923E-2,-3.462419E-1,5.95E1,5E-1,5E-1,5.55E1,1.65E1,5E-1,4.95E1,5E-1,-1.6773525E-1,2.1734141E-1,-2.8158471E-2,-2.8447616E-1,2.9556504E-1,-2.4157728E-1,5.661437E-1,-2.2635235E-1,5.669145E-2,-2.691172E-1,-3.122385E-1,-8.497022E-2,-2.9852748E-1,-1.2065387E-1,2.6332477E-1,-1.9525604E-1,-2.1287818E-1,7.331015E-2,-1.9003062E-1,3.4958836E-1,-1.2423632E-1,1.8323444E-2,-1.8996474E-1,-5.4422975E-2,-4.6314795E-2,2.1151079E-1,1.21753626E-1,-1.7117785E-1,3.6733532E-1,1.6976076E-1,2.0519805E-1,-2.8753242E-1,-1.3160613E-1,5.7584465E-2,1.4221465E-2,1.6808696E-1,-2.1695403E-2,1.14642054E-1,1.0666772E-1,-1.3988276E-1,5.3407658E-2,-9.529104E-2,6.49141E-2,-3.0635542E-1,3.2795346E-1,7.885614E-2,1.456761E-1,-2.5370637E-1],"split_indices":[6,30,29,32,6,5,25,18,29,0,0,12,6,6,21,29,29,31,5,2,12,0,31,2,6,32,0,22,6,29,28,6,0,0,29,12,2,22,22,0,0,0,0,6,5,2,29,2,6,0,0,11,5,0,0,0,27,22,0,5,14,0,16,0,0,0,0,0,0,0,0,0,0,0,0,0,0,0,0,0,0,0,0,0,0,0,0,0,0,0,0,0,0,0,0,0,0,0,0,0,0,0,0,0,0,0,0,0,0,0,0],"split_type":[0,0,0,0,0,0,0,0,0,0,0,0,0,0,0,0,0,0,0,0,0,0,0,0,0,0,0,0,0,0,0,0,0,0,0,0,0,0,0,0,0,0,0,0,0,0,0,0,0,0,0,0,0,0,0,0,0,0,0,0,0,0,0,0,0,0,0,0,0,0,0,0,0,0,0,0,0,0,0,0,0,0,0,0,0,0,0,0,0,0,0,0,0,0,0,0,0,0,0,0,0,0,0,0,0,0,0,0,0,0,0],"sum_hessian":[2.875033E3,7.432512E2,2.1317817E3,4.0030075E2,3.4295047E2,6.777484E1,2.0640068E3,3.1322302E2,8.707771E1,2.4097363E1,3.188531E2,2.5680714E1,4.2094128E1,1.3932988E3,6.70708E2,1.2743517E2,1.8578786E2,5.574731E1,3.13304E1,2.7136395E0,2.1383724E1,1.1534275E1,3.0731882E2,2.0052275E1,5.628439E0,3.9528984E1,2.5651445E0,5.332686E2,8.600303E2,6.321167E2,3.8591324E1,5.9605694E0,1.214746E2,1.4049448E2,4.5293377E1,5.2060055E1,3.6872566E0,2.6996355E1,4.3340454E0,1.6958625E0,1.017777E0,2.0092728E1,1.290996E0,2.2402153E0,9.29406E0,1.642942E2,1.4302461E2,1.3502225E1,6.5500507E0,4.50285E0,1.1255887E0,2.9494036E1,1.0034948E1,1.1219493E0,1.4431953E0,4.8145102E2,5.1817562E1,7.865701E2,7.346013E1,3.3849112E2,2.9362555E2,2.5265644E1,1.332568E1,4.95457E0,1.0059996E0,1.1541936E0,1.20320404E2,2.1546576E0,1.3833981E2,1.1145836E1,3.414754E1,4.9025146E1,3.0349061E0,2.658848E0,1.0284084E0,2.429219E1,2.7041643E0,2.1064496E0,2.2275958E0,1.222965E0,1.0172502E0,1.0259967E0,8.268063E0,2.9150507E1,1.351437E2,5.2019787E1,9.100483E1,4.386644E0,9.115581E0,1.1558892E0,5.3941617E0,2.3146532E1,6.347503E0,8.263599E0,1.7713486E0,4.366622E2,4.478882E1,1.9886507E1,3.1931055E1,7.532269E2,3.3343216E1,6.516881E1,8.291319E0,1.451589E2,1.933322E2,2.882032E2,5.42237E0,1.778109E1,7.484554E0,1.0840545E1,2.4851353E0],"tree_param":{"num_deleted":"0","num_feature":"33","num_nodes":"111","size_leaf_vector":"0"}},{"base_weights":[-1.1607835E-1,-5.29728E-1,-6.38332E-2,-8.3912665E-1,-3.6273322E-1,-2.3084155E-1,-1.7547939E-2,-8.666589E-1,-1.9932024E-1,-6.7392975E-1,-2.5283846E-1,-4.435991E-1,-3.7588578E-2,3.9876446E-1,-3.6861673E-2,-9.504203E-1,-6.4114416E-1,2.2368659E-1,-7.2644687E-1,-3.8435495E-1,-8.6179876E-1,-9.018564E-3,-4.7180167E-1,-7.833935E-1,-4.4580586E-2,-7.978677E-2,2.6811278E-1,2.6691008E-1,1.0492841E0,-6.1668687E-2,2.747724E-1,-9.8812973E-1,-5.784934E-1,-8.38771E-1,-2.0085666E-1,-2.7100006E-1,5.593809E-1,-4.7125956E-1,6.8510365E-1,-9.390566E-1,-2.4481837E-1,2.4683605E-1,-2.4922353E-1,4.2671272E-1,-5.208837E-1,-8.645641E-1,7.602837E-1,-2.3480873E-1,1.4373556E-1,4.672951E-2,-1.9116935E-1,-1.862285E-1,5.5754554E-1,1.3294263E-1,7.840311E-1,-4.120542E-2,1.2386463E0,-4.112345E-2,-4.6999237E-1,5.870514E-1,2.9012896E-3,-8.540364E-1,9.788053E-3,-1.4996053E-1,-9.192098E-1,-7.318291E-1,5.6424165E-1,-7.0636195E-1,1.02379106E-1,-7.320827E-1,5.0333357E-1,-4.370562E-1,5.158984E-1,-7.6338273E-1,4.698248E-2,-3.2890394E-1,8.488654E-1,-3.3556214E-1,-7.587415E-1,-9.44576E-1,-4.6156952E-1,9.1475046E-1,-5.882824E-3,-3.8280144E-1,3.080458E-1,1.011173E0,4.7414064E-2,2.1813542E-1,-1.3927674E-1,-4.191709E-1,-4.867062E-2,-3.7700215E-1,6.233834E-1,-5.2420163E-1,6.7403674E-1,3.6823937E-1,-1.4400432E-1,-1.9334087E-1,9.8489594E-1,-1.8143795E-1,1.21248156E-1,5.6222105E-1,1.6377951E0,-9.0337E-2,1.6081172E-1,1.3608103E0,-7.647809E-1,6.466105E-1,-7.4881256E-1,2.019339E-1,-5.3353095E-1],"categories":[],"categories_nodes":[],"categories_segments":[],"categories_sizes":[],"default_left":[1,1,1,1,1,1,1,1,1,1,1,1,1,1,1,1,1,1,0,1,1,1,1,1,1,1,1,1,1,1,1,0,1,1,1,0,0,1,0,0,1,1,1,1,1,1,1,1,1,1,1,1,1,1,1,1,1,1,1,1,1,0,0,0,0,0,0,0,0,0,0,0,0,0,0,0,0,0,0,0,0,0,0,0,0,0,0,0,0,0,0,0,0,0,0,0,0,0,0,0,0,0,0,0,0,0,0,0,0,0,0],"id":12,"left_children":[1,3,5,7,9,11,13,15,17,19,21,23,25,27,29,31,33,35,-1,37,39,41,43,45,47,49,51,53,55,57,59,-1,61,63,65,-1,-1,67,-1,-1,69,71,73,75,77,79,81,83,85,87,89,91,93,95,97,99,101,103,105,107,109,-1,-1,-1,-1,-1,-1,-1,-1,-1,-1,-1,-1,-1,-1,-1,-1,-1,-1,-1,-1,-1,-1,-1,-1,-1,-1,-1,-1,-1,-1,-1,-1,-1,-1,-1,-1,-1,-1,-1,-1,-1,-1,-1,-1,-1,-1,-1,-1,-1,-1],"loss_changes":[5.941093E1,1.5625832E1,1.8882938E1,1.7176743E0,6.737852E0,2.1780014E1,1.54059305E1,1.3285141E0,1.4393188E0,2.504057E0,8.051128E0,3.416444E1,3.6190758E0,7.006585E0,1.41660795E1,4.484558E-1,2.516531E0,8.0612105E-1,0E0,2.3966181E0,1.2384548E0,4.511649E0,3.727192E0,1.771933E1,4.227518E0,3.47313E0,4.5823674E0,4.8820763E0,2.9370213E0,1.420957E1,1.1471143E1,0E0,1.4846852E0,1.0247631E0,4.8306947E0,0E0,0E0,2.9352365E0,0E0,0E0,2.111283E0,6.769807E0,5.7995033E0,1.7676485E0,3.0870667E0,3.750412E0,8.733964E-1,4.8272495E0,4.919314E0,3.7255876E0,4.2335615E0,2.3977518E0,3.0064816E0,3.8567214E0,3.0577745E0,9.115438E-2,2.3029995E0,1.6073835E1,4.484145E1,5.4877625E0,7.9280257E0,0E0,0E0,0E0,0E0,0E0,0E0,0E0,0E0,0E0,0E0,0E0,0E0,0E0,0E0,0E0,0E0,0E0,0E0,0E0,0E0,0E0,0E0,0E0,0E0,0E0,0E0,0E0,0E0,0E0,0E0,0E0,0E0,0E0,0E0,0E0,0E0,0E0,0E0,0E0,0E0,0E0,0E0,0E0,0E0,0E0,0E0,0E0,0E0,0E0,0E0],"parents":[2147483647,0,0,1,1,2,2,3,3,4,4,5,5,6,6,7,7,8,8,9,9,10,10,11,11,12,12,13,13,14,14,15,15,16,16,17,17,19,19,20,20,21,21,22,22,23,23,24,24,25,25,26,26,27,27,28,28,29,29,30,30,32,32,33,33,34,34,37,37,40,40,41,41,42,42,43,43,44,44,45,45,46,46,47,47,48,48,49,49,50,50,51,51,52,52,53,53,54,54,55,55,56,56,57,57,58,58,59,59,60,60],"right_children":[2,4,6,8,10,12,14,16,18,20,22,24,26,28,30,32,34,36,-1,38,40,42,44,46,48,50,52,54,56,58,60,-1,62,64,66,-1,-1,68,-1,-1,70,72,74,76,78,80,82,84,86,88,90,92,94,96,98,100,102,104,106,108,110,-1,-1,-1,-1,-1,-1,-1,-1,-1,-1,-1,-1,-1,-1,-1,-1,-1,-1,-1,-1,-1,-1,-1,-1,-1,-1,-1,-1,-1,-1,-1,-1,-1,-1,-1,-1,-1,-1,-1,-1,-1,-1,-1,-1,-1,-1,-1,-1,-1,-1],"split_conditions":[1.245E2,7.75E1,5E-1,5E-1,1.355E2,4.595E2,2.55E1,-6.1232336E-17,1.5E0,1.35E1,1.5E0,5E-1,5E-1,1.852E3,5.95E1,5E-1,5E-1,5.135E2,-2.1793407E-1,5E-1,5E-1,1.005E3,2.45E1,-2.5E-1,1.072E3,6.830127E-1,5E-1,2.5E-1,1.615E2,9.330127E-1,1.01E3,-2.9643893E-1,5E-1,2.95E1,6.25E1,-8.130002E-2,1.6781427E-1,9.5E0,2.055311E-1,-2.8171697E-1,2.4E1,8.5E0,1.944E3,1.25E1,1.65E1,3.935E2,6.830127E-1,5E-1,1.2345E3,4.35E1,1.45E1,3.0735E3,3.25E1,6.830127E-1,2.05E1,-2.5E-1,1.5E0,2.15E1,2.75E1,1.1115E3,1.5E0,-2.5621092E-1,2.936416E-3,-4.4988163E-2,-2.7576295E-1,-2.1954875E-1,1.692725E-1,-2.119086E-1,3.0713733E-2,-2.1962483E-1,1.5100008E-1,-1.3111687E-1,1.5476952E-1,-2.2901483E-1,1.4094744E-2,-9.867119E-2,2.5465962E-1,-1.0066865E-1,-2.2762246E-1,-2.8337282E-1,-1.3847086E-1,2.7442515E-1,-1.7648472E-3,-1.1484044E-1,9.2413746E-2,3.033519E-1,1.422422E-2,6.5440625E-2,-4.1783024E-2,-1.2575127E-1,-1.4601187E-2,-1.1310065E-1,1.8701503E-1,-1.5726049E-1,2.0221104E-1,1.10471815E-1,-4.3201298E-2,-5.8002263E-2,2.954688E-1,-5.443139E-2,3.637445E-2,1.6866632E-1,4.9133855E-1,-2.7101101E-2,4.824352E-2,4.082431E-1,-2.2943427E-1,1.9398315E-1,-2.2464378E-1,6.0580175E-2,-1.6005929E-1],"split_indices":[6,6,18,22,2,6,0,30,32,5,31,19,26,2,0,7,25,2,0,10,26,2,0,30,2,29,3,30,6,30,2,0,28,0,6,0,0,5,0,0,2,5,2,5,5,6,30,28,2,0,5,2,0,29,0,29,31,5,5,6,32,0,0,0,0,0,0,0,0,0,0,0,0,0,0,0,0,0,0,0,0,0,0,0,0,0,0,0,0,0,0,0,0,0,0,0,0,0,0,0,0,0,0,0,0,0,0,0,0,0,0],"split_type":[0,0,0,0,0,0,0,0,0,0,0,0,0,0,0,0,0,0,0,0,0,0,0,0,0,0,0,0,0,0,0,0,0,0,0,0,0,0,0,0,0,0,0,0,0,0,0,0,0,0,0,0,0,0,0,0,0,0,0,0,0,0,0,0,0,0,0,0,0,0,0,0,0,0,0,0,0,0,0,0,0,0,0,0,0,0,0,0,0,0,0,0,0,0,0,0,0,0,0,0,0,0,0,0,0,0,0,0,0,0,0],"sum_hessian":[2.7496472E3,3.0731882E2,2.4423284E3,1.0631657E2,2.0100226E2,5.291263E2,1.913202E3,1.0159034E2,4.7262225E0,5.111732E1,1.4988493E2,2.5123701E2,2.7788925E2,8.395185E1,1.8292502E3,7.173271E1,2.985763E1,2.941437E0,1.7847855E0,2.1312634E1,2.9804688E1,7.140985E1,7.847509E1,1.3516798E2,1.1606904E2,2.4483226E2,3.3056984E1,7.0975975E1,1.2975879E1,1.695116E3,1.3413423E2,6.3625034E1,8.107679E0,1.9983025E1,9.874605E0,1.2670302E0,1.6744066E0,2.0228228E1,1.084406E0,2.6023966E1,3.780721E0,3.456514E1,3.6844707E1,3.6662087E0,7.480888E1,1.2883351E2,6.3344736E0,5.7618576E1,5.8450466E1,1.1490052E2,1.2993175E2,1.3002577E1,2.0054407E1,5.737044E1,1.3605535E1,2.0356236E0,1.0940255E1,1.6149584E3,8.0157616E1,6.188828E1,7.224596E1,5.2138395E0,2.8938394E0,2.3890958E0,1.759393E1,5.8548603E0,4.0197453E0,1.4183737E1,6.044491E0,2.3025622E0,1.4781586E0,9.583021E0,2.4982119E1,1.2891036E1,2.3953672E1,1.3932681E0,2.2729406E0,4.34031E1,3.1405785E1,1.0637046E2,2.2463041E1,5.1102624E0,1.2242112E0,4.5507248E1,1.2111326E1,4.8924947E0,5.3557972E1,5.970722E1,5.5193302E1,4.9226513E1,8.070523E1,1.0955427E1,2.0471501E0,1.6094056E0,1.8445002E1,3.0839376E1,2.6531065E1,2.3258462E0,1.1279688E1,1.0298126E0,1.005811E0,4.953783E0,5.986472E0,1.2989454E3,3.160129E2,1.0615174E1,6.954244E1,5.974072E1,2.1475613E0,5.3149456E1,1.9096497E1],"tree_param":{"num_deleted":"0","num_feature":"33","num_nodes":"111","size_leaf_vector":"0"}},{"base_weights":[-8.859932E-2,-7.7844596E-1,-6.473864E-2,-8.982911E-1,-5.0737077E-1,-1.9487497E-1,2.9240067E-3,-9.54259E-1,-4.484009E-1,-7.6892555E-1,-5.8279667E-2,-6.2362567E-2,-4.263854E-1,1.0893317E-1,-4.055472E-2,-2.7476463E-1,-9.8032993E-1,-8.341426E-1,1.885114E-1,-8.628713E-1,4.0764365E-1,-6.888415E-1,5.019013E-1,-2.3732916E-1,1.518482E-1,-4.8246586E-1,1.12247325E-1,6.391233E-2,1.1042423E0,2.7074748E-1,-5.7513706E-2,1.017365E0,-6.434034E-1,-9.640957E-1,-1.2503968E-1,-8.171591E-1,-3.263165E-2,-6.217189E-1,9.442139E-1,-4.0438727E-1,1.3278162E-1,-4.7661173E-1,2.861882E-1,-3.243665E-1,-6.5649617E-1,9.3903065E-1,4.5080036E-3,2.406983E-1,-7.697882E-2,1.3010246E0,-6.40194E-1,4.4015327E-1,-6.314729E-1,-1.4986485E-1,3.2993715E-2,-5.291005E-1,3.1139377E-1,-5.3339803E-1,1.4242961E0,5.9366006E-1,-4.888415E-1,-6.791953E-1,2.1020666E-1,-6.6385336E-2,-6.941534E-1,4.62875E-1,-7.261939E-2,-8.1474006E-2,-5.74695E-1,-7.817358E-1,1.5548884E0,2.6892114E-1,1.1120003E0,-8.908824E-2,9.8149645E-1,3.0757025E-1,-4.458207E-1,1.5413377E-1,-2.8939798E-1,7.1493375E-1,1.8113314E0,6.687017E-1,-2.350863E-1,3.1211582E-1,-7.746487E-1,-1.8832436E-1,4.5534444E-1,1.2591347E-1,-4.2739008E-2],"categories":[],"categories_nodes":[],"categories_segments":[],"categories_sizes":[],"default_left":[1,1,1,1,1,1,1,1,1,1,1,1,1,1,1,0,0,0,1,1,0,1,1,1,1,1,1,1,1,1,1,0,0,0,1,0,0,0,1,1,1,1,1,1,1,1,1,1,1,1,0,1,1,1,1,0,0,0,0,0,0,0,0,0,0,0,0,0,0,0,0,0,0,0,0,0,0,0,0,0,0,0,0,0,0,0,0,0,0],"id":13,"left_children":[1,3,5,7,9,11,13,15,17,19,21,23,25,27,29,-1,-1,-1,31,33,-1,35,37,39,41,43,45,47,49,51,53,-1,-1,-1,55,-1,-1,-1,57,59,61,63,65,67,69,71,73,75,77,79,-1,81,83,85,87,-1,-1,-1,-1,-1,-1,-1,-1,-1,-1,-1,-1,-1,-1,-1,-1,-1,-1,-1,-1,-1,-1,-1,-1,-1,-1,-1,-1,-1,-1,-1,-1,-1,-1],"loss_changes":[4.38586E1,2.438568E0,2.2713957E1,1.094986E0,3.4333515E0,2.7043747E1,7.831163E0,6.6782E-1,2.2647219E0,2.4110518E0,4.5775523E0,2.111312E1,9.751823E0,2.20727E1,6.37683E0,0E0,0E0,0E0,3.4480646E0,1.1919794E0,0E0,4.834082E-1,4.027587E0,1.9216286E1,2.1533302E1,7.7924805E0,2.7647324E0,1.1820717E1,8.152788E0,9.819143E0,9.562868E0,0E0,0E0,0E0,7.412583E-1,0E0,0E0,0E0,4.56508E0,1.8310032E1,6.249598E0,3.9705696E0,1.3310562E1,9.343185E0,3.9303226E1,1.15786314E-1,2.6941109E0,9.795979E0,1.3027045E1,4.5347824E0,0E0,8.359012E0,1.6304827E0,1.3263879E1,4.0751667E0,0E0,0E0,0E0,0E0,0E0,0E0,0E0,0E0,0E0,0E0,0E0,0E0,0E0,0E0,0E0,0E0,0E0,0E0,0E0,0E0,0E0,0E0,0E0,0E0,0E0,0E0,0E0,0E0,0E0,0E0,0E0,0E0,0E0,0E0],"parents":[2147483647,0,0,1,1,2,2,3,3,4,4,5,5,6,6,7,7,8,8,9,9,10,10,11,11,12,12,13,13,14,14,18,18,19,19,21,21,22,22,23,23,24,24,25,25,26,26,27,27,28,28,29,29,30,30,34,34,38,38,39,39,40,40,41,41,42,42,43,43,44,44,45,45,46,46,47,47,48,48,49,49,51,51,52,52,53,53,54,54],"right_children":[2,4,6,8,10,12,14,16,18,20,22,24,26,28,30,-1,-1,-1,32,34,-1,36,38,40,42,44,46,48,50,52,54,-1,-1,-1,56,-1,-1,-1,58,60,62,64,66,68,70,72,74,76,78,80,-1,82,84,86,88,-1,-1,-1,-1,-1,-1,-1,-1,-1,-1,-1,-1,-1,-1,-1,-1,-1,-1,-1,-1,-1,-1,-1,-1,-1,-1,-1,-1,-1,-1,-1,-1,-1,-1],"split_conditions":[7.85E1,-6.1232336E-17,2.505E2,5E-1,5E-1,5E-1,-2.5E-1,2.5E0,6.24E2,5E-1,2.5E-1,2.5E-1,5E-1,6.830127E-1,2.5E0,-8.2429394E-2,-2.94099E-1,-2.502428E-1,1.409E3,2.65E1,1.222931E-1,5.3465E3,4.85E1,5E-1,5E-1,6.830127E-1,5E-1,1.65E1,9.425E2,5E-1,5.315E2,3.0520952E-1,-1.9302103E-1,-2.8922874E-1,5.42E2,-2.4514775E-1,-9.789496E-3,-1.8651567E-1,4.5E0,2.65E1,2.65E1,5E-1,5E-1,1.65E1,2.5E-1,1.91E2,5.9E1,6.75E1,2.5E-1,1.5E0,-1.920582E-1,6.72E2,2.715E2,3.5E0,5E-1,-1.5873015E-1,9.3418136E-2,-1.6001941E-1,4.2728886E-1,1.7809802E-1,-1.4665246E-1,-2.037586E-1,6.3062E-2,-1.9915601E-2,-2.0824604E-1,1.388625E-1,-2.1785818E-2,-2.4442203E-2,-1.724085E-1,-2.3452075E-1,4.6646652E-1,8.067635E-2,3.336001E-1,-2.6726473E-2,2.9444894E-1,9.2271075E-2,-1.337462E-1,4.6240132E-2,-8.6819395E-2,2.1448013E-1,5.4339945E-1,2.0061052E-1,-7.052589E-2,9.363475E-2,-2.3239462E-1,-5.649731E-2,1.3660334E-1,3.777404E-2,-1.2821703E-2],"split_indices":[6,30,6,7,25,3,29,5,2,15,29,29,22,30,5,0,0,0,2,5,0,2,6,32,18,29,32,5,6,20,6,0,0,0,2,0,0,0,5,0,0,27,32,5,30,6,0,0,30,31,0,6,6,32,27,0,0,0,0,0,0,0,0,0,0,0,0,0,0,0,0,0,0,0,0,0,0,0,0,0,0,0,0,0,0,0,0,0,0],"split_type":[0,0,0,0,0,0,0,0,0,0,0,0,0,0,0,0,0,0,0,0,0,0,0,0,0,0,0,0,0,0,0,0,0,0,0,0,0,0,0,0,0,0,0,0,0,0,0,0,0,0,0,0,0,0,0,0,0,0,0,0,0,0,0,0,0,0,0,0,0,0,0,0,0,0,0,0,0,0,0,0,0,0,0,0,0,0,0,0,0],"sum_hessian":[2.666585E3,8.809203E1,2.578493E3,5.9481045E1,2.8610994E1,8.814022E2,1.6970908E3,5.1903034E1,7.578009E0,1.7630592E1,1.0980401E1,5.6135956E2,3.200427E2,4.9316296E2,1.2039279E3,2.3442173E0,4.955882E1,4.5267477E0,3.0512612E0,1.657384E1,1.0567538E0,5.0576425E0,5.9227586E0,3.0892377E2,2.5243578E2,2.8995764E2,3.0085052E1,4.7283923E2,2.0323736E1,6.142549E1,1.1425023E3,1.4167774E0,1.6344838E0,1.4304692E1,2.269146E0,4.025258E0,1.0323843E0,1.558371E0,4.3643875E0,2.1278548E2,9.613828E1,4.4008854E1,2.0842691E2,1.534335E2,1.3652414E2,2.5789123E0,2.750614E1,2.0939203E2,2.634472E2,1.849193E1,1.8318065E0,5.2146355E1,9.279139E0,5.6516675E2,5.773356E2,1.0680194E0,1.2011266E0,1.0430379E0,3.3213496E0,1.6130623E1,1.9665485E2,7.6925178E0,8.844577E1,1.5702755E1,2.8306099E1,1.3946194E2,6.896497E1,7.854608E1,7.488741E1,1.298185E2,6.705649E0,1.0532398E0,1.5256726E0,2.5930767E1,1.5753739E0,1.9130911E2,1.8082912E1,1.263033E2,1.3714392E2,9.724391E0,8.767538E0,3.8966904E1,1.3179451E1,1.0670283E0,8.2121105E0,5.320454E2,3.3121304E1,2.589527E2,3.1838287E2],"tree_param":{"num_deleted":"0","num_feature":"33","num_nodes":"89","size_leaf_vector":"0"}},{"base_weights":[-6.826924E-2,-7.2423357E-1,-4.934501E-2,-8.602106E-1,-4.519733E-1,-2.0924084E-2,-2.4939841E-1,-8.999479E-1,-1.4238276E-1,-6.586244E-1,3.303587E-2,-2.0348816E-1,1.072831E-2,-4.997015E-1,-4.6889737E-2,-9.5910186E-1,-4.6522382E-1,2.2790045E-1,-3.7364218E-1,-7.3615384E-1,1.22179694E-1,-7.322345E-1,4.7358564E-1,-2.4261326E-1,6.1208296E-1,6.8962425E-2,-7.9426005E-2,7.486034E-1,-5.273953E-1,1.8377692E-2,-8.2252175E-1,1.6189483E-1,-8.067336E-1,-8.693629E-1,-2.4075449E-1,1.5855274E0,-1.3047084E-1,-4.014484E-1,-3.4333717E-2,8.200841E-1,-1.498982E-1,3.5862637E-1,5.0132725E-2,-2.1322617E-1,4.7304224E-2,1.2118674E-1,1.068662E0,-9.063147E-1,-4.069882E-1,2.0103693E-1,-1.4274992E-1,-1.0776091E0,-7.878617E-2,-5.8425736E-1,9.4062054E-1,-2.4958856E-2,-9.4051343E-1,-6.8119264E-1,2.3264626E-1,4.3959635E-1,-6.9036853E-1,-7.201517E-1,-2.8246397E-1,-1.0171592E-1,8.0466664E-1,-2.299659E-1,9.7802943E-1,-1.064794E0,6.0708445E-1,-1.4585812E-2,7.4720854E-1,3.5843109E-3,